-0.930906
-0.280862
0.187170
0.633412
-0.569506
0.572069
-0.272805
-0.013764
0.644276
-0.460311
-0.279397
-0.850703
0.229102
0.050874
0.924680
-0.281289
0.792474
-0.902829
0.924192
0.261513
-0.331095
0.566393
-0.618641
0.815363
0.672658
0.235450
0.305948
0.328654
-0.974487
-0.763176
0.906796
0.355571
-0.476913
-0.190100
-0.411847
-0.683157
-0.998291
0.149388
0.653310
0.639821
-0.830927
0.164830
0.277322
-0.910764
0.860042
0.961852
-0.688162
0.603442
-0.218909
-0.140599
-0.515244
-0.055330
0.805597
-0.246010
0.556749
-0.519150
0.882199
0.644581
0.997009
-0.593249
-0.381085
0.129490
-0.258522
0.719901
-0.393963
0.689383
-0.404401
-0.736991
-0.461043
0.567064
-0.156346
0.145116
0.204993
0.057772
0.628162
0.854060
0.395550
0.022309
0.660634
0.372784
0.807184
0.434919
0.827937
0.612415
0.992553
-0.220801
-0.745598
-0.525925
-0.574877
-0.896054
0.384686
-0.148106
-0.259743
-0.448286
-0.352580
-0.110019
-0.786920
-0.827509
0.264748
0.806269
0.538804
-0.164769
-0.232459
-0.405438
0.974975
0.049165
0.781365
0.918699
-0.089633
0.508164
-0.356609
-0.490341
0.922056
0.170019
-0.585070
-0.619556
-0.617542
-0.316446
0.849910
-0.831538
-0.319010
-0.024445
-0.116428
-0.079623
-0.879635
0.810785
-0.796747
0.630055
0.551683
-0.863216
0.463179
-0.156407
0.810236
0.026704
0.706595
0.642933
-0.985351
0.032014
-0.442305
-0.679312
-0.208289
-0.242225
0.745048
-0.940489
-0.510666
-0.526597
0.519822
0.927000
0.440840
0.571093
0.531114
-0.499924
-0.658376
0.683645
-0.279275
-0.568957
0.802850
-0.723807
0.800043
0.266701
0.141820
-0.477889
-0.128941
-0.165563
0.474960
-0.723197
0.755119
-0.492599
0.172338
0.961974
0.590564
-0.339640
-0.260781
-0.827998
0.262856
0.630299
0.185461
-0.183691
0.228919
-0.507309
-0.054598
-0.391827
-0.701407
-0.032563
0.411481
-0.285073
0.935789
-0.234718
-0.856502
0.380169
0.641408
0.689138
0.816095
0.330912
0.981140
-0.199133
0.966979
-0.216834
-0.180212
0.967895
0.608509
0.857051
0.325724
-0.899838
0.765191
0.214331
0.306803
0.392315
0.999145
-0.267678
-0.558763
0.880917
0.986511
0.023896
-0.034700
0.631581
-0.792657
0.618885
-0.619373
-0.133091
-0.189123
-0.382733
0.743522
0.348979
-0.280557
0.628162
-0.901486
0.327311
-0.967162
-0.193823
-0.380047
0.366558
0.796442
0.797784
0.021516
0.365276
-0.805780
0.410504
0.799188
-0.921506
0.231605
0.817682
-0.131809
0.457320
-0.032991
-0.890255
-0.843196
0.116001
0.358684
0.007172
-0.280007
0.242347
-0.214026
0.544664
0.934935
0.260475
0.309488
0.541307
0.341044
-0.439314
0.731803
-0.331523
-0.312723
-0.391766
-0.478378
0.927244
-0.251381
-0.256874
0.663686
-0.650990
-0.525132
-0.015595
0.496628
-0.268960
0.033662
-0.849971
0.602222
0.219825
-0.689016
-0.393231
0.807367
-0.445784
-0.569262
0.960326
-0.637867
0.781976
0.856746
0.000153
0.356120
-0.739738
-0.361370
-0.789483
-0.564745
-0.244667
-0.634022
-0.839778
-0.117649
0.451033
0.390484
-0.916013
0.123142
0.680654
-0.118809
0.967772
0.720511
0.193701
-0.725883
-0.550096
-0.080050
0.770501
0.678457
0.852474
-0.192236
-0.003143
0.802606
-0.347758
0.145421
0.011261
-0.037446
-0.292703
-0.058077
-0.962584
0.734184
0.548814
-0.172643
0.514573
-0.187170
0.052339
-0.710807
-0.362774
-0.357219
-0.199561
-0.165197
0.118809
-0.621937
0.449080
0.142064
0.989257
-0.261513
-0.589831
0.260598
0.240822
-0.677969
0.164037
0.926878
-0.865719
0.937559
-0.488083
-0.945799
-0.022736
-0.481429
0.083468
-0.538072
-0.812128
0.182714
0.409955
-0.095248
0.456404
-0.002899
-0.123203
-0.534654
-0.183569
0.013947
0.867550
-0.626514
-0.560595
-0.862117
-0.588855
0.312418
-0.036103
0.388165
0.646535
-0.723075
0.172277
-0.882687
0.415143
0.043977
-0.171606
-0.249977
-0.704215
0.319498
0.487045
0.603381
0.392926
-0.376324
0.088961
-0.648061
-0.809076
0.976440
0.153539
0.700491
0.788507
0.446394
-0.618397
0.824641
0.822932
-0.373699
0.480819
0.145421
-0.600452
-0.904538
0.026337
0.997131
0.337077
-0.065706
0.168920
-0.247658
-0.958373
-0.649037
0.003571
-0.032746
-0.677358
-0.515244
-0.589709
0.108005
0.462203
-0.552843
-0.819391
0.422163
0.851314
-0.336039
0.241310
0.517197
-0.495468
0.580554
-0.211646
0.208228
-0.233436
0.792962
-0.856136
-0.801935
0.522080
0.667531
-0.852229
0.151708
-0.777337
0.510605
-0.102756
0.727531
0.042207
-0.647694
0.646474
-0.871334
-0.526231
-0.594104
0.679067
0.736198
0.680593
0.264870
0.965331
0.385907
0.912961
-0.098544
-0.582629
-0.145970
-0.695120
0.528367
-0.445235
-0.889462
-0.638844
0.385723
-0.607959
0.905820
-0.550829
-0.482833
0.361919
-0.749138
-0.393475
0.596057
-0.913816
-0.644215
-0.022126
0.864925
-0.193457
-0.413556
-0.806879
0.251442
0.288003
-0.996155
-0.000336
-0.278176
-0.992126
-0.951598
0.460433
0.935606
0.442122
0.930235
0.031709
-0.736991
0.261452
-0.710135
0.831843
-0.770745
-0.748894
-0.309244
-0.586230
0.445845
-0.235084
0.506149
-0.645680
-0.906491
-0.472701
0.762810
-0.027924
-0.981933
0.595569
0.505051
-0.512986
-0.497726
0.294290
-0.760125
-0.066439
-0.224342
-0.063997
-0.972716
0.140599
-0.674734
0.138157
-0.222571
0.089877
0.070223
0.551378
-0.683035
0.966185
-0.539232
0.809503
-0.212012
0.211280
0.567248
0.515549
0.941282
-0.105686
0.218421
-0.925352
-0.113620
-0.289041
-0.746208
-0.812250
-0.138524
0.924314
-0.048067
0.817499
-0.414838
0.559069
0.696219
-0.560656
-0.247169
0.163060
0.942259
-0.609180
0.240028
0.446577
0.548021
0.130100
0.575182
0.114170
0.530015
0.218055
-0.755242
0.199561
-0.692373
0.834895
0.392865
0.217139
-0.501572
-0.355388
-0.522935
-0.556993
-0.673635
0.820124
0.445357
-0.363750
-0.293741
0.039766
-0.006561
0.515244
-0.933897
0.270608
-0.532334
0.299661
0.970519
-0.852107
-0.025361
0.631703
0.607166
-0.234169
-0.739738
0.188574
-0.800897
-0.309793
-0.078951
0.299051
0.405866
0.006623
-0.490341
0.876217
-0.225990
-0.783685
0.097934
-0.020783
-0.697195
-0.208167
-0.141270
-0.683218
0.183874
0.205786
0.230750
-0.996277
-0.219581
0.244545
-0.773125
-0.115024
-0.093356
0.419599
0.450545
0.737480
0.470687
-0.710990
0.380596
0.664357
-0.457137
-0.498215
-0.510910
-0.007355
-0.086947
0.377117
-0.246742
-0.012970
-0.801996
-0.168798
0.124363
0.693228
-0.437605
-0.535264
0.516160
-0.777764
0.115574
-0.377422
-0.124241
-0.211219
0.046541
0.238624
0.898312
-0.184118
-0.440229
0.278603
0.949522
-0.581347
0.674306
-0.407270
-0.243141
0.579211
0.948424
-0.008759
-0.566210
-0.674245
0.193091
-0.645131
-0.602527
-0.772088
-0.764336
-0.406781
-0.255654
-0.479049
0.797113
0.263161
-0.355327
0.171484
-0.455123
0.659841
0.319498
-0.803034
-0.615467
0.192846
-0.838008
0.551988
-0.948607
-0.139683
0.565722
-0.107456
0.066134
0.632618
0.022431
0.533189
0.115513
-0.440657
-0.947508
0.906369
-0.077792
-0.588855
-0.471236
-0.160375
0.664907
0.668996
0.958434
0.961058
0.011261
-0.326029
-0.716178
0.545824
-0.172216
-0.250343
0.765740
0.117588
-0.373028
-0.890378
-0.489364
0.115146
0.815790
0.362346
0.205908
-0.061007
-0.193213
-0.573351
0.623157
0.688833
-0.943724
0.669607
-0.544847
-0.095248
0.089206
0.079684
0.046113
0.625355
-0.424116
-0.712577
-0.420454
0.074435
0.521775
0.246376
0.285684
0.289163
-0.367351
-0.613269
0.230384
0.002106
0.918882
-0.946104
0.249489
0.089877
0.599292
-0.954955
0.589343
-0.099765
-0.630482
0.055452
-0.182714
0.771355
-0.904477
-0.152196
-0.435957
0.053926
-0.004669
-0.043428
-0.339152
-0.049165
-0.628346
-0.259926
-0.766778
0.484725
-0.041963
-0.407697
0.314737
0.907773
0.940611
0.128147
-0.457808
0.864803
-0.282388
-0.846858
0.496139
-0.376934
-0.538987
-0.768853
0.247780
0.681143
0.539903
-0.337992
0.675588
0.068270
0.870479
-0.317667
0.114048
-0.350688
-0.745720
0.700613
-0.103000
-0.255776
0.767449
0.380902
-0.642506
0.377911
0.262062
0.386029
-0.151891
-0.529466
-0.955138
0.593554
-0.657765
-0.717704
0.793451
-0.402753
0.180822
-0.575671
-0.227271
0.305887
-0.474593
-0.251198
-0.583972
0.452010
-0.918638
-0.570299
0.330668
0.824091
-0.347453
-0.451277
-0.207495
-0.967101
-0.909177
-0.503647
-0.208960
-0.373516
-0.797235
0.502548
-0.311930
0.364299
0.175329
0.608814
0.551622
-0.534959
0.084140
0.393780
-0.771355
-0.361309
0.046175
-0.234413
-0.781610
-0.282998
0.579089
-0.866878
0.408673
-0.306558
-0.269509
-0.731742
0.738517
-0.013581
0.539415
-0.827387
-0.151402
0.737236
0.391461
0.260353
-0.217139
-0.044282
-0.167943
0.169652
0.803034
0.326518
-0.601611
0.516465
-0.620838
-0.512741
0.034028
-0.099155
0.418439
-0.407575
-0.352641
0.481307
0.794610
0.974853
-0.622181
-0.573595
0.240883
-0.283059
0.131260
-0.440962
0.668569
-0.054720
0.946959
0.504013
-0.026093
0.659719
-0.239784
0.652028
-0.604297
-0.089755
0.120823
-0.747185
0.486373
0.134495
0.431990
0.949767
0.758599
-0.532701
-0.729545
0.067782
0.070223
0.835871
-0.647938
0.968505
0.810419
-0.348003
-0.296426
-0.216590
-0.051729
-0.084567
0.604358
-0.160375
0.008087
-0.461043
0.860103
0.088168
-0.967895
0.709037
-0.029023
0.849483
0.594897
0.093966
0.757134
0.188025
-0.070040
0.712516
-0.997009
-0.772393
-0.766839
0.274880
-0.315409
-0.278848
0.204077
-0.191137
0.340556
0.186499
0.887448
-0.616199
-0.849483
-0.078524
0.879147
0.744682
0.283242
-0.789850
-0.043184
-0.331584
0.076144
-0.967040
0.199683
-0.143590
0.610279
0.593554
0.658315
-0.826655
0.241371
-0.026154
0.638173
0.047395
-0.348918
0.231422
0.659047
0.842097
0.980102
0.250099
-0.847591
0.014008
0.605396
0.657399
-0.040254
-0.131870
-0.874691
0.120273
0.693960
-0.277444
-0.886471
0.333171
-0.973083
-0.702994
0.204993
-0.991028
0.965209
0.135533
0.076937
-0.812616
0.176183
-0.122471
0.886593
0.171239
0.427900
-0.811579
-0.271767
0.404889
0.204566
0.163488
0.672964
-0.393658
-0.439619
0.016205
0.951842
0.465621
0.273904
0.865108
0.847346
-0.777825
-0.634083
-0.570238
-0.146275
-0.566271
-0.956908
-0.549425
0.669057
0.249062
-0.869991
0.642628
-0.417524
-0.503220
-0.948607
0.997986
0.818293
0.903867
-0.571459
0.247536
-0.600940
-0.245521
0.350749
-0.703726
0.091830
0.304056
0.385479
-0.557176
0.997436
-0.741813
-0.610950
0.197424
-0.651784
0.631947
-0.819269
-0.490707
0.074496
0.299600
-0.857356
-0.782525
0.703116
-0.451460
0.807917
-0.463668
-0.849239
-0.050081
0.499313
-0.611438
-0.025605
0.857601
0.082003
0.398968
-0.359355
-0.150975
0.891049
-0.639943
0.377850
-0.580187
0.897702
0.983947
-0.827570
0.244545
0.176733
-0.249550
-0.527818
0.316874
0.736503
0.666738
0.159154
0.280679
-0.224830
-0.251320
-0.645497
0.265358
0.425031
0.037873
-0.381756
0.537523
-0.952269
-0.034028
0.105441
-0.718925
-0.857295
-0.120518
0.242409
-0.180151
0.931394
-0.462996
0.484664
0.592883
0.679556
0.391888
0.719657
0.196692
0.821039
-0.528123
-0.123936
0.806757
0.943907
0.670217
-0.696463
0.289712
0.702933
0.257546
-0.516831
0.319987
0.720328
0.430952
0.633839
0.812799
0.537034
-0.290933
0.774468
-0.014618
-0.322489
-0.011567
-0.193518
0.360820
0.890194
-0.928343
-0.821711
0.024812
-0.374004
0.481613
-0.306009
-0.551012
0.818537
-0.627918
-0.970946
-0.806269
-0.974059
0.350200
-0.484054
0.801691
-0.999512
0.019868
-0.238502
0.195288
0.744926
0.061678
0.658986
-0.108554
0.120029
-0.340556
-0.643178
-0.656117
-0.934202
-0.912351
-0.252602
-0.271767
0.498459
-0.728751
-0.962523
0.479843
-0.055269
-0.869503
0.963378
-0.101413
0.978271
-0.476363
-0.787164
-0.867183
0.518479
-0.400250
-0.382855
-0.145726
-0.944700
0.374126
0.674306
0.936766
-0.137303
-0.661184
0.967589
0.451765
0.262001
0.921079
-0.959410
0.292825
0.999573
0.601550
0.292215
-0.258950
0.799677
-0.494613
0.453291
-0.715445
0.155614
-0.721366
0.207801
-0.995178
-0.578112
0.061922
0.521775
0.841243
-0.730522
-0.625477
-0.759514
-0.952452
0.566942
0.721122
0.518967
0.152135
-0.250160
-0.266457
-0.353923
0.734428
0.740776
0.660451
0.826289
0.330607
-0.516953
-0.983276
0.480514
-0.219520
0.149754
-0.793878
-0.370769
0.328227
-0.908811
0.928465
-0.079928
-0.210303
-0.416547
-0.815363
0.862484
-0.901364
-0.560350
-0.307474
0.831721
-0.455916
0.547655
0.524277
-0.594714
0.011933
0.395184
-0.220435
-0.406659
0.542650
0.646779
0.106601
-0.473189
-0.481735
0.833308
-0.117283
0.164281
0.790460
0.217200
-0.131809
0.581530
0.062410
-0.103427
-0.855281
-0.594714
0.837764
0.209571
-0.847957
-0.045747
-0.752556
-0.497787
-0.365581
-0.350810
0.069063
-0.677969
-0.690542
-0.744316
-0.750969
0.099887
-0.927000
0.520981
-0.757805
0.382794
0.551012
-0.232276
0.479415
-0.320475
-0.188818
0.008148
-0.722770
-0.017121
-0.951415
-0.861263
-0.498642
0.029145
0.055086
0.781182
0.295877
-0.640736
0.286966
-0.671255
-0.807611
0.242714
-0.656911
-0.236366
0.910031
0.527390
0.665090
-0.194983
-0.841060
-0.522141
0.272744
0.952696
-0.238746
-0.335917
-0.652333
-0.012970
0.400006
0.963805
0.476547
-0.510971
-0.690176
-0.259682
0.367107
0.942076
0.221656
-0.740959
0.849361
0.977905
-0.126438
0.404218
0.974609
0.330424
-0.599231
0.759331
0.024262
0.058443
-0.082980
-0.886593
0.241920
0.600696
-0.400555
-0.544725
-0.900327
0.225013
0.590625
-0.481429
-0.086886
0.435163
-0.971435
-0.059603
0.615589
0.896664
0.519456
-0.904538
-0.494308
-0.555040
0.362468
-0.331278
-0.220008
-0.261940
0.842830
0.028352
-0.337382
0.115757
0.902463
0.462691
-0.054048
0.229347
0.502731
-0.657643
-0.246559
-0.997559
0.991028
-0.729057
0.337748
0.486862
-0.216651
0.286599
-0.273659
-0.824946
0.676321
0.176305
0.027558
-0.667043
0.100009
0.966857
0.209143
-0.086276
0.625538
-0.346782
0.161962
-0.383099
0.038057
0.228370
0.861385
-0.345866
-0.710501
-0.924070
0.438765
0.784722
-0.357830
0.788873
0.975585
0.182775
0.316568
0.476180
-0.166967
0.699637
0.955382
-0.379070
0.328837
0.082308
0.216529
-0.449141
-0.425703
0.712516
0.807794
-0.414716
0.284524
-0.573168
0.274880
-0.079928
0.372723
-0.017914
-0.143712
0.313334
-0.856380
-0.272744
0.716910
0.634754
-0.104404
-0.954833
-0.126988
0.340129
-0.253456
-0.873531
-0.878597
0.934690
0.494247
0.637257
-0.715323
0.486923
-0.675405
0.844905
-0.914670
0.255959
-0.819758
-0.237648
0.961730
0.494308
-0.398602
0.875484
-0.862728
-0.510788
-0.147801
-0.986206
0.256996
0.904843
-0.855464
0.929380
-0.098178
-0.512741
-0.227760
-0.855708
-0.704703
0.195898
-0.032624
0.630970
-0.486373
0.822687
0.292581
0.886227
-0.487777
-0.837642
0.380169
0.963256
-0.718619
0.796014
-0.167943
0.022065
0.443098
0.549852
0.091952
0.963256
-0.398114
-0.306681
-0.897214
-0.295267
0.762200
-0.063082
-0.437971
-0.332804
0.124180
0.294107
0.586657
0.027680
-0.428266
-0.131687
-0.398602
-0.694021
0.163549
0.629078
0.261757
0.845454
-0.058870
-0.762261
-0.775445
-0.249672
-0.634449
-0.012116
-0.420820
-0.156285
0.695791
-0.079562
-0.249123
0.206214
0.620289
0.177282
-0.310465
-0.139988
0.456221
0.656240
-0.843867
0.160009
-0.773919
0.028413
-0.080599
-0.546312
-0.072726
0.182226
0.674490
-0.425947
0.304056
-0.845027
0.497909
0.726249
0.437117
-0.384320
-0.350810
0.331767
0.461531
0.961058
-0.466659
0.391827
0.726127
0.086886
0.635182
0.933042
-0.293313
0.898679
0.239784
0.097385
-0.013886
-0.378277
0.749870
0.439497
-0.387494
-0.024140
0.413556
-0.006867
-0.850459
-0.725333
-0.725089
-0.330119
-0.269509
-0.485702
0.159703
-0.447371
0.428388
0.511704
-0.491867
-0.354595
0.255165
-0.842708
-0.131138
-0.356609
-0.897153
-0.157201
0.864620
-0.715201
0.937803
0.127476
0.443525
-0.153050
-0.438581
0.705130
-0.771783
0.349956
0.250649
-0.265481
-0.225379
-0.970763
-0.411237
0.595508
-0.446272
-0.358989
0.800958
-0.866756
-0.531602
-0.838984
0.905698
-0.546495
0.717948
0.441816
0.995178
0.331095
-0.177404
0.388104
-0.042451
-0.705924
0.621204
-0.784906
0.952696
0.446272
-0.946898
-0.648610
0.954039
-0.909604
-0.460921
-0.451949
0.670217
-0.784845
0.770867
0.757988
-0.842647
0.906858
-0.275735
-0.652882
0.435713
-0.249428
-0.292276
0.200415
0.422224
-0.718558
-0.742546
-0.716056
-0.507553
0.549364
-0.306131
0.227821
0.984008
-0.140843
0.149571
0.490219
0.953063
0.749992
-0.116367
-0.334025
-0.501572
-0.725761
0.692740
-0.496933
0.963622
0.640858
-0.767388
0.187475
-0.669424
0.283425
0.062349
0.460738
0.117710
-0.582385
-0.776238
0.132115
-0.906308
0.148412
-0.831660
0.547349
-0.879391
0.191382
0.844478
-0.422712
-0.561632
0.269021
-0.243080
0.688528
0.703055
0.246254
-0.187536
0.658315
0.091586
-0.934324
-0.238136
-0.503220
-0.214454
0.547227
0.053072
-0.861446
-0.854060
0.112461
0.906430
0.466597
-0.107639
0.498093
-0.574694
-0.769951
0.598437
-0.480331
0.554613
0.419904
-0.184362
-0.050874
-0.301370
-0.336589
0.139683
0.567125
-0.187109
-0.798761
0.529344
0.455000
0.779534
-0.991516
-0.807001
-0.413739
-0.118259
0.623341
0.353374
-0.217566
-0.812250
0.244667
-0.796503
-0.906430
0.657277
0.662160
0.367656
-0.331767
0.783502
0.580737
0.177038
0.173132
-0.417402
0.902158
0.076144
0.827021
-0.256630
0.525864
-0.530808
0.109409
0.749565
-0.767998
-0.678945
-0.791253
-0.212806
0.209387
0.824702
-0.729911
0.250160
-0.210425
0.446821
-0.492904
-0.345256
0.951476
-0.334025
-0.760918
-0.221656
0.157140
0.713858
-0.083102
0.832026
0.083041
0.632801
0.199072
0.481429
-0.192907
0.963134
0.141820
-0.472213
-0.983459
-0.629200
-0.435652
-0.938536
-0.203101
0.530015
0.652577
0.900632
0.566027
0.571032
-0.136204
0.127293
-0.285379
0.408185
-0.805536
-0.465316
-0.482772
0.258400
-0.126316
0.795587
-0.125950
0.663930
0.545274
0.167089
0.448408
0.331462
-0.999756
-0.457442
0.760247
0.100070
-0.476974
0.663930
0.800165
-0.649098
0.912900
-0.694021
-0.275430
0.170141
-0.756035
-0.753044
-0.803949
-0.421003
0.426435
0.835994
0.930357
-0.857784
0.630116
-0.029511
-0.987182
0.268349
-0.365459
0.297220
0.547777
0.513291
-0.832820
0.447371
-0.799310
-0.798883
-0.707816
-0.879940
-0.800470
-0.326945
0.912656
-0.174108
0.353679
0.478256
-0.551561
0.102512
-0.343913
0.818232
-0.247047
-0.983581
0.029817
0.558092
-0.670461
-0.238563
-0.219153
0.116306
-0.087863
-0.832209
-0.678396
0.545946
0.471419
0.934202
0.725517
-0.880123
-0.291116
0.394024
0.676504
0.732719
-0.897458
-0.369610
0.375530
0.430708
0.564867
0.750603
0.966674
-0.615772
-0.222938
0.133335
0.045137
-0.386578
-0.737907
-0.538682
-0.190222
-0.219703
0.257241
0.351421
0.422956
-0.639882
-0.548753
0.394757
-0.860714
-0.496261
-0.353618
-0.580065
0.767266
-0.095920
0.409162
-0.209143
0.024567
-0.020783
-0.228248
-0.447432
-0.648915
-0.316141
-0.953429
0.237342
0.741142
0.262673
-0.182836
0.142979
-0.842341
0.257363
-0.833674
0.896603
0.091281
-0.919858
0.206153
0.116123
0.825922
-0.533982
-0.029389
-0.018159
-0.025727
-0.883114
-0.265725
0.530259
0.845393
0.848872
-0.180761
-0.516099
-0.793634
-0.443464
-0.047456
-0.571947
-0.998230
-0.693838
-0.762627
0.147984
0.591723
0.869991
0.799738
0.938597
-0.927549
-0.985778
-0.826838
0.699698
-0.758049
-0.145482
-0.514756
0.628407
0.771416
-0.411176
0.505783
-0.677969
0.147252
0.923032
0.622303
-0.896420
0.944639
0.499496
0.802973
-0.617969
0.995972
-0.357219
-0.389630
-0.139073
0.015656
-0.266335
0.329081
-0.593249
0.245399
0.524888
-0.731925
-0.610218
-0.319437
0.710685
-0.697256
-0.689444
0.442000
-0.937132
-0.283792
-0.476547
-0.146275
-0.554308
0.405011
0.871151
0.791559
0.022126
-0.489914
0.040742
0.862484
-0.035981
0.536546
0.456282
0.979614
-0.021210
0.022980
-0.482345
0.893124
-0.035066
-0.174047
0.000580
0.241737
0.108860
-0.921628
0.428816
0.685659
0.735893
-0.112461
0.231666
-0.316019
-0.772759
-0.166967
0.499069
-0.520493
-0.683462
-0.671194
0.147008
-0.147069
-0.923154
0.909970
0.305216
0.208777
0.912839
0.508713
0.740471
-0.443770
-0.132298
-0.219275
-0.872799
-0.052889
-0.439131
-0.455000
0.978698
-0.067171
0.065706
-0.601062
-0.949889
-0.396283
-0.958556
-0.427534
0.027924
-0.226844
0.432112
0.082430
-0.684561
0.868160
0.043550
-0.749565
-0.269692
0.089816
0.312418
0.646535
0.922788
0.405805
-0.421247
0.520798
-0.669362
-0.062593
0.175268
0.786493
-0.518845
-0.696768
0.645192
-0.384381
0.452925
-0.516831
0.401776
0.710807
0.311014
-0.236549
0.141636
-0.684866
0.326762
0.327250
0.324442
0.023347
-0.204566
-0.948729
-0.968444
0.455550
-0.735954
-0.927122
-0.483810
-0.143040
0.981811
0.688528
0.757256
0.686575
0.385601
0.146886
-0.670339
0.255531
-0.566576
0.899472
-0.096286
0.479659
-0.402448
-0.130161
0.685904
0.807306
-0.669057
0.306009
-0.887020
0.385601
-0.181860
-0.223670
0.113620
0.527512
-0.175817
0.873165
0.247841
-0.457869
-0.546190
-0.814508
0.038484
0.991089
-0.366802
0.104221
-0.193762
-0.567736
-0.873531
-0.978759
-0.678335
0.715751
-0.099460
0.486190
0.585192
0.891598
0.649525
0.882382
0.049409
0.794549
-0.707816
0.184912
-0.405255
0.366253
0.254494
-0.636891
0.571764
-0.221168
-0.650563
0.990539
0.222205
-0.578967
0.067782
-0.376507
0.791742
-0.189001
0.090426
-0.487167
0.646168
-0.503342
-0.162938
0.209326
-0.295511
0.007355
-0.138401
-0.373516
0.500534
-0.081820
0.908078
-0.877194
-0.813837
-0.909177
-0.560656
0.166295
-0.211463
-0.847774
0.450789
-0.857173
0.033174
-0.726066
0.381573
-0.127415
0.046907
-0.684744
-0.063631
0.395123
0.251137
-0.608509
-0.370769
-0.413312
-0.240150
-0.068880
-0.136570
0.172582
-0.406171
-0.716727
0.358013
-0.304178
0.023286
0.938963
0.734977
0.005768
0.352580
-0.572741
-0.920530
0.828791
0.458541
0.951048
0.284402
-0.016877
0.395001
-0.177953
0.993286
-0.198828
-0.623280
0.760552
0.952696
0.321146
0.454207
0.119724
-0.411908
0.810663
0.192785
0.099277
-0.385662
0.184912
-0.332072
-0.991150
0.493759
-0.117832
0.089511
-0.354289
-0.445418
-0.241737
-0.632618
0.847285
-0.417768
0.563524
0.931394
0.282632
0.695425
-0.435896
-0.883419
-0.455428
-0.680288
0.870479
0.428938
-0.395062
0.072298
-0.965087
-0.998901
-0.304544
-0.632191
-0.517991
-0.447127
-0.322550
0.561022
0.332743
0.167516
0.961974
-0.564623
-0.814020
0.197668
0.042940
-0.146275
-0.580248
-0.387982
-0.293252
0.379803
-0.425947
-0.903806
-0.020417
-0.313944
0.378582
-0.780084
-0.124241
-0.441206
0.987182
-0.016633
0.009125
-0.686758
0.982299
-0.945555
-0.869198
0.431867
-0.289224
0.010468
0.654469
-0.763054
-0.484970
0.895810
0.232826
0.411969
0.420392
0.408918
0.447493
-0.818293
0.842463
0.030366
-0.325785
0.966796
-0.123386
-0.595264
-0.813105
0.321451
-0.268410
-0.710440
-0.437971
-0.029328
-0.129429
-0.617725
0.446333
-0.243751
-0.578600
-0.660695
0.750603
0.306070
-0.580798
0.298502
-0.668508
-0.761406
-0.556810
-0.781487
-0.775750
0.714896
0.210730
-0.653310
-0.511338
0.150365
0.690847
-0.871395
-0.269448
0.900266
-0.700369
0.871151
-0.637867
0.728996
-0.259133
-0.527573
0.662587
0.878170
-0.947691
0.530564
-0.297952
-0.455855
0.423200
0.143284
0.191931
0.578784
0.342204
-0.287637
0.322367
-0.775506
0.641224
0.063875
-0.348247
-0.301859
0.995117
0.197180
0.108493
0.434004
0.441877
0.975768
0.169286
-0.200110
-0.515610
-0.927976
0.275246
0.098544
-0.663442
-0.522019
0.548875
0.666494
-0.123203
-0.104709
0.874569
-0.117344
0.870968
-0.683584
0.404523
0.900937
0.027131
0.110080
0.553331
0.915952
0.445357
-0.077364
0.543016
0.778436
-0.976135
0.708731
-0.438704
0.769463
0.385235
-0.796930
0.596362
-0.652211
-0.115513
0.146580
0.008759
0.682669
0.261452
0.578234
-0.094882
-0.216651
-0.499313
0.506394
-0.625599
-0.960204
0.460433
0.271401
-0.349345
0.985839
-0.166173
-0.088107
-0.736808
-0.903562
-0.995361
0.847957
0.238380
-0.565538
0.360149
-0.807611
-0.585986
0.955992
-0.377056
-0.995605
-0.069796
-0.711356
-0.234107
0.796503
0.957762
-0.203772
-0.929441
-0.392438
0.727836
0.739067
0.893246
-0.043916
0.924863
0.346232
-0.300027
-0.016755
-0.495041
0.609363
0.934690
0.100864
0.003204
-0.387616
-0.719474
0.455611
0.390667
-0.791986
0.879330
0.521836
-0.453963
-0.144627
0.069491
-0.863826
0.401837
-0.570421
0.207373
0.285806
-0.170324
-0.183325
-0.868282
0.963073
0.326090
0.106357
0.836116
0.399213
-0.438643
0.194800
-0.089633
0.989624
0.854732
-0.389996
0.314554
0.222266
0.637074
-0.627674
-0.953063
-0.076266
-0.034700
-0.297037
0.269448
0.133030
0.149205
-0.607898
0.452010
-0.082797
-0.445418
-0.359844
0.100009
0.441328
-0.355388
0.183935
0.625050
0.604114
-0.678518
0.520554
-0.076449
0.553087
-0.367718
0.041292
-0.775140
-0.609485
-0.100436
-0.111423
0.770806
0.384136
-0.658864
0.347575
0.890316
-0.006806
-0.760002
0.585803
0.030976
0.024445
-0.272073
0.552843
0.310038
-0.771294
0.244606
-0.147435
0.147313
-0.347880
-0.264992
-0.599475
0.543138
0.052767
-0.351848
0.679312
0.562426
-0.302652
-0.201880
0.403668
0.589343
0.848689
0.151769
-0.591601
0.913266
-0.743217
0.604175
-0.428327
0.209449
0.967162
-0.194800
-0.414472
-0.523118
0.757195
-0.900876
-0.613025
-0.004486
0.514756
0.640187
0.061373
0.865535
0.869869
-0.254006
-0.968749
0.691214
0.393414
0.552599
-0.657094
0.971862
-0.325541
-0.967956
0.862545
-0.237953
0.589160
0.435957
0.195471
-0.835688
0.073153
-0.772637
-0.859066
-0.784112
0.711295
0.563707
0.493759
-0.267251
-0.545213
-0.607776
-0.993713
0.673147
0.781549
0.222327
0.323771
0.583178
-0.391278
-0.365032
-0.296243
-0.313028
0.273049
0.593982
-0.665883
-0.816462
0.889096
0.619800
0.060884
-0.686209
-0.600574
0.889462
0.338054
-0.241127
0.628712
0.324625
0.214087
0.933592
0.653859
-0.269204
-0.835688
-0.263527
-0.196692
0.049104
-0.414899
0.319864
0.597949
-0.215552
0.759331
-0.558580
-0.054598
-0.328043
-0.892270
0.960631
-0.098788
-0.356243
-0.461776
-0.958129
0.308573
0.159337
-0.295694
0.627918
-0.370281
0.961852
-0.012848
0.744255
-0.718741
-0.677908
-0.987854
-0.801202
-0.214454
0.834407
-0.486129
0.238563
0.051180
0.824091
0.360271
-0.274697
0.095309
-0.567370
-0.449812
-0.606128
0.519028
0.439619
-0.004120
0.754753
-0.950255
0.886166
0.903012
0.203528
-0.537339
-0.438520
0.561022
-0.099826
-0.807367
-0.584643
-0.644032
-0.019684
0.951353
-0.041353
0.818964
0.660634
0.659658
0.714713
-0.478683
-0.197974
-0.990478
-0.215857
-0.368938
0.491501
0.967528
0.585253
0.941038
0.206641
0.531236
0.832881
0.182958
0.124607
-0.946715
0.817682
0.438581
0.137669
0.443648
-0.950743
0.461409
0.138890
-0.436750
0.324747
0.720573
-0.860652
-0.878292
0.285440
-0.019318
0.780450
-0.608203
-0.475387
-0.771783
0.802301
0.051912
-0.691397
0.759331
-0.967101
0.470870
-0.026704
-0.761101
-0.541734
-0.253822
0.059175
0.546434
0.937864
0.808710
-0.752678
-0.782220
0.126072
-0.093661
-0.841609
0.298563
-0.835200
-0.220923
-0.922788
0.419233
-0.293619
-0.162084
0.666311
-0.094089
-0.167882
-0.339702
0.729545
0.738578
-0.572558
-0.885739
0.089450
0.169286
0.576708
-0.575793
-0.359844
0.813593
0.540025
0.490585
-0.361370
-0.973754
-0.125401
0.775506
-0.703116
0.375896
-0.736991
-0.932005
0.737053
0.028108
-0.388653
0.440352
0.372478
0.852901
0.978759
-0.292215
-0.222510
-0.934019
0.902219
0.705863
-0.892819
0.218848
-0.322123
0.695242
-0.869015
-0.652089
-0.837642
0.209021
0.941832
0.097018
0.655385
-0.346477
-0.596240
0.624989
0.427656
0.975646
-0.599719
-0.889401
0.455245
-0.291543
0.945738
0.668081
0.924253
-0.290445
0.222755
0.484848
0.066195
-0.098178
0.607837
0.994568
-0.110569
-0.668386
0.748039
-0.101901
-0.633351
-0.144261
-0.249855
0.844417
-0.358013
0.768975
0.546800
-0.416059
0.820551
0.686819
-0.500412
-0.592639
0.902036
0.993591
-0.695853
0.682241
0.421979
0.169958
-0.742302
0.299112
-0.638295
-0.688223
-0.047334
-0.159032
-0.108860
0.152806
0.458541
0.287698
-0.494613
-0.096530
-0.945311
0.067782
0.119236
0.219398
-0.423688
0.270669
-0.319926
0.610462
0.435957
-0.168554
-0.135960
-0.395611
0.383587
0.501022
0.415571
-0.023713
0.067598
0.413495
-0.305094
-0.642750
-0.541429
0.064119
-0.005341
0.534776
0.199438
-0.490280
-0.811579
0.756218
0.943358
0.604236
-0.726005
0.349467
0.742729
-0.918088
-0.626392
-0.027802
0.551500
0.300943
-0.246254
0.802423
-0.097140
-0.540819
0.427046
0.983093
0.825861
0.095737
0.898312
0.633290
0.062166
-0.310404
0.618336
0.737724
-0.353496
0.168798
0.706412
0.228492
0.912900
0.142003
0.505539
0.569994
-0.011383
0.665334
-0.468368
0.160436
-0.160131
-0.642994
0.380230
-0.137303
0.929930
0.672048
-0.847530
-0.023957
-0.446638
-0.850764
0.963134
-0.037996
-0.091220
-0.555956
-0.907041
-0.763543
0.971923
-0.041597
-0.651112
0.341105
0.232154
-0.118809
0.192663
0.805597
-0.644948
0.451094
0.202185
-0.985595
-0.166967
0.254616
-0.572802
0.389508
-0.313639
-0.627918
0.202185
-0.798090
-0.721549
0.183325
-0.021638
0.325358
-0.694082
-0.353679
-0.261574
0.242775
-0.972533
0.860958
0.554796
-0.379620
-0.206580
0.730155
-0.144017
0.759636
-0.061373
-0.468184
-0.038179
0.241127
0.100864
-0.787103
0.450789
0.072604
-0.972106
0.218360
0.922178
-0.347514
0.935240
-0.331400
-0.285195
-0.136570
0.476730
0.696646
-0.854060
-0.393475
0.391644
-0.242531
0.831599
0.089633
-0.110508
-0.276284
-0.348613
-0.818049
0.835932
-0.422529
-0.078768
-0.851924
-0.198462
0.513840
0.334635
0.072787
-0.962706
-0.734184
-0.763787
0.289773
0.437056
0.465194
0.790399
0.127537
-0.448347
0.850642
-0.393780
0.283303
-0.283547
-0.863826
0.382305
-0.861446
-0.646168
0.352458
0.133641
0.329142
0.514817
0.472396
-0.437117
0.880734
-0.279214
0.135777
-0.861080
-0.776177
-0.830866
-0.717277
0.444380
-0.599475
-0.635792
-0.489242
0.355876
0.773980
-0.763421
-0.033662
0.618397
-0.444563
0.813532
-0.415387
0.376873
-0.540086
0.502060
-0.511093
0.226905
-0.197241
0.048494
0.363201
-0.651784
0.350566
-0.764153
0.609424
0.282083
-0.761467
-0.617847
0.102695
0.915769
-0.733329
-0.298013
-0.643422
0.236854
0.887082
-0.406293
0.911069
-0.580493
-0.804498
0.915464
0.755486
0.805109
-0.760613
-0.688894
0.599597
0.339702
0.954527
0.650441
0.804071
0.031892
0.042940
-0.355937
0.784478
-0.008454
0.105502
0.697806
0.699759
0.614124
0.340007
0.066744
-0.761467
0.470992
0.118809
-0.626759
-0.684072
0.470443
0.757439
-0.449385
0.492599
-0.150365
-0.212683
-0.725150
-0.071200
0.561815
0.045137
0.947386
0.687002
-0.379742
0.890439
0.290994
-0.806574
-0.038240
-0.134617
0.621570
0.673391
-0.607837
0.108127
-0.141942
0.370769
0.176611
-0.167943
-0.666555
-0.633961
0.836421
-0.814936
0.468612
0.804010
0.715873
0.799310
0.372051
-0.656240
0.880978
-0.655141
0.428571
-0.354961
-0.087436
0.400861
0.937559
0.700919
0.156529
-0.046175
-0.134434
-0.168615
0.993591
0.839106
0.774407
-0.850520
0.691153
-0.564989
-0.013276
0.312479
-0.600269
0.924131
0.053987
0.370525
0.856136
0.432783
-0.413923
0.526109
-0.643605
0.362651
0.507736
0.615467
-0.439009
-0.773980
0.802789
-0.874691
-0.306253
0.297281
-0.190527
-0.442183
-0.301065
-0.606861
0.128697
0.954772
0.916868
0.095309
-0.791559
-0.604968
0.842158
-0.274514
0.666311
0.277261
-0.473800
0.388226
0.412397
0.199683
-0.813044
0.391583
-0.363506
0.250526
-0.412030
0.360210
-0.280129
-0.479049
0.749504
-0.648793
-0.863643
0.653432
-0.445662
-0.712394
-0.596545
0.236732
-0.189428
-0.980468
0.147130
-0.137181
0.333720
0.327921
0.342387
0.654653
0.611255
-0.818903
-0.208289
-0.919919
0.611255
0.558763
-0.094760
0.863765
0.298196
0.153905
-0.157140
0.807672
-0.581225
-0.733085
-0.916807
-0.663686
-0.881161
0.203345
0.480575
-0.424604
-0.044343
0.487655
0.872433
-0.220862
-0.133213
-0.793512
-0.699698
0.917417
0.658681
-0.206763
-0.093051
0.235328
0.577136
0.566088
-0.429365
0.598498
-0.477645
-0.667226
-0.658376
0.435530
0.471541
-0.625538
-0.259133
0.090732
-0.330363
-0.879452
0.984985
-0.600269
-0.846065
0.827815
0.199194
0.300089
0.171789
0.575549
0.681631
-0.710929
-0.944273
0.890072
-0.719840
-0.457198
0.118809
0.310221
0.945738
-0.493271
-0.869259
-0.792962
0.522996
-0.227760
-0.060030
0.169774
0.843135
-0.949828
-0.198828
0.270608
-0.821345
-0.944823
-0.026093
-0.478866
-0.875301
-0.887753
-0.847835
0.832514
-0.031587
0.298563
0.288980
-0.207984
0.608936
-0.066988
0.377789
-0.431318
0.091098
0.225867
-0.246437
-0.739982
-0.185461
-0.098910
0.475997
0.993164
-0.518723
0.603931
0.356548
0.091586
-0.156224
0.905637
0.193884
-0.377972
0.316874
-0.280862
0.777337
-0.368816
0.514817
-0.062838
-0.776727
0.387921
-0.222938
0.104587
-0.793756
-0.059664
-0.255348
0.939940
0.645985
-0.696524
0.049959
0.515915
-0.584826
-0.413373
0.182043
0.913022
0.628712
0.376019
-0.409406
0.158361
0.077364
-0.317179
-0.909726
0.261940
-0.631153
0.771111
-0.371319
-0.836848
-0.661855
0.175939
-0.520127
-0.599719
-0.710257
0.226844
-0.073641
-0.685720
0.635060
0.386273
0.491623
-0.398663
0.485763
0.718009
-0.213904
-0.975341
-0.231971
-0.203589
-0.971007
0.099521
-0.582385
0.369854
0.308390
0.563097
-0.779962
-0.909604
0.641591
-0.558031
0.857967
-0.377483
-0.100314
-0.469649
-0.272744
-0.557115
-0.342814
-0.909909
-0.913572
-0.355266
-0.969848
0.586474
-0.900815
0.057894
0.565172
-0.728690
0.335185
0.998230
0.241493
-0.573412
0.289285
-0.041902
0.649098
-0.919675
0.483871
0.551378
-0.595264
-0.992065
0.714896
0.023835
-0.130650
0.830988
0.005280
0.643666
0.228065
0.026215
0.827998
-0.717826
-0.003571
0.657521
0.160680
0.499619
0.014679
-0.357768
-0.064730
-0.553941
0.993164
-0.633717
0.444624
-0.107334
0.670522
0.458480
-0.731620
-0.296915
0.648061
-0.462386
-0.719047
-0.940428
0.962157
-0.254494
0.304422
-0.244972
-0.542344
0.876705
-0.032319
0.864254
0.024445
0.918882
0.336039
-0.893612
0.759758
-0.184240
-0.127720
-0.788324
0.118686
-0.734733
-0.707938
0.603931
0.115879
-0.634693
0.877255
-0.287576
0.640065
-0.080477
-0.192541
0.225318
-0.055574
-0.784112
-0.924863
0.596362
-0.624439
0.090609
0.543870
-0.881527
-0.596973
0.089389
-0.285684
-0.123447
-0.988037
-0.461226
0.759819
-0.109348
-0.478133
0.340861
-0.606372
0.764092
0.893490
-0.698172
0.131077
-0.852779
-0.413800
0.809870
-0.491684
-0.668935
0.029511
0.671621
-0.178930
0.281045
0.769158
-0.077670
0.945006
0.425642
-0.647389
0.420759
0.800897
0.511216
-0.985412
-0.958251
0.026948
-0.164525
-0.773736
0.279153
-0.580004
0.172521
-0.829951
0.071078
-0.290323
0.702017
0.202795
0.660573
0.226234
0.254189
0.369488
-0.696097
0.026032
0.184545
-0.969298
0.639149
0.036225
0.189062
0.665761
-0.473434
-0.218482
0.374248
-0.086764
0.175878
-0.744316
-0.107395
0.913999
0.369182
-0.500229
-0.541856
-0.984436
0.595508
0.449995
0.052156
-0.095981
0.907407
-0.382366
-0.866512
0.222877
-0.687368
0.163915
0.665578
0.743461
0.514084
-0.069246
0.271401
0.148167
0.808771
-0.007538
-0.169164
0.490097
-0.039216
0.288491
0.831233
0.390057
-0.141636
0.900998
0.784783
-0.964843
0.769280
0.539659
0.024506
-0.959593
-0.994201
0.795526
-0.807978
-0.764092
0.813105
-0.272439
0.728996
-0.557421
0.291849
-0.656972
0.684561
0.298502
0.169225
0.535508
0.152745
0.198706
-0.770074
0.041841
0.650197
0.410688
-0.780511
0.981933
0.748344
0.427961
-0.966796
-0.458113
0.272011
0.624805
-0.997681
-0.634327
-0.623341
0.274026
-0.909299
0.214942
0.817377
-0.009552
-0.185888
0.461653
0.721244
0.663137
-0.305765
-0.024934
0.176855
-0.062532
0.060945
0.965819
0.952025
0.311747
-0.985656
-0.651051
-0.346599
-0.091525
-0.640065
0.190405
-0.360332
-0.015473
0.327860
-0.203955
-0.998657
0.241981
-0.108860
0.009674
-0.080416
0.001984
-0.506638
-0.721000
-0.284280
0.304910
-0.001129
0.054842
0.905820
0.998291
0.678579
-0.916074
0.570727
-0.124302
0.043184
0.159581
0.355327
-0.070833
0.336528
-0.109165
-0.590625
-0.223060
0.501694
0.055086
-0.418073
-0.670217
-0.567797
-0.906308
-0.817621
-0.241798
0.320963
0.315897
0.620411
-0.177587
-0.080844
-0.628956
0.237159
-0.371136
-0.481857
0.554491
-0.359478
-0.125706
-0.533982
0.506149
0.856868
-0.359050
0.032441
0.867367
0.611194
0.805353
0.433088
0.457076
0.049471
0.121982
0.826899
0.529649
-0.785760
-0.953734
-0.901303
-0.322428
0.586962
0.357646
-0.760491
-0.058992
-0.991028
-0.353923
-0.863704
0.686941
0.294351
0.724662
0.585376
-0.179540
-0.154149
-0.970092
-0.659658
0.890439
-0.411542
0.073702
0.007843
-0.347942
0.530564
-0.992798
-0.396649
0.649648
-0.732536
0.362163
0.580126
-0.619922
-0.261696
0.028962
-0.857662
0.602710
0.549608
0.536851
-0.342936
0.354289
-0.822382
-0.303995
0.975280
0.234840
-0.637745
-0.333110
-0.523545
-0.474899
-0.995361
0.516587
0.647694
-0.301675
0.881344
-0.673391
0.010773
0.889340
-0.512925
0.914182
-0.790704
0.883114
0.319803
-0.771722
0.068575
0.185156
0.918271
-0.514573
0.440596
-0.263161
-0.032746
0.104831
0.646352
0.837458
-0.218909
0.507920
0.329203
-0.164403
0.478683
-0.157201
0.529710
-0.846736
-0.837642
0.697867
0.796747
-0.796258
0.413617
0.865169
0.145238
0.767083
-0.583239
-0.781976
-0.324931
0.384503
0.025239
0.763970
-0.338115
0.335856
-0.919309
0.935667
0.933287
-0.239784
-0.700674
0.183325
-0.657338
0.484787
0.036592
0.929930
-0.846431
0.122593
0.243507
-0.047823
0.146092
0.002350
0.926939
0.250099
0.258644
0.493149
-0.573962
-0.532945
0.577807
-0.714347
0.818171
0.923338
0.487655
-0.806574
0.765191
0.325053
-0.207862
-0.964232
-0.885128
0.212134
-0.377178
0.165380
0.567980
-0.793756
0.943724
0.202979
-0.275979
0.122593
0.466536
0.541551
0.819514
0.007111
0.788934
-0.817804
-0.531358
0.162084
0.567186
-0.534593
0.721976
-0.777276
-0.462569
0.258278
0.752251
-0.653249
0.196142
0.161962
0.483444
0.580004
0.954039
-0.698904
0.472457
-0.540147
0.574389
-0.742424
-0.642506
0.920347
0.709830
0.711356
-0.814386
-0.440779
0.348613
-0.649281
-0.068331
-0.667653
0.984069
-0.384808
0.520615
-0.264992
0.318522
0.832026
0.666921
-0.465072
-0.684378
-0.689749
0.842586
0.117954
0.412580
0.954649
0.686453
-0.490158
-0.295450
-0.039521
-0.832453
-0.863521
0.915159
0.154515
0.814997
0.384564
-0.036348
0.541551
-0.673818
-0.974670
-0.057100
-0.378948
0.867672
0.565172
-0.680105
0.036225
0.378033
0.582812
-0.828730
0.116794
-0.810846
-0.880978
0.266396
-0.120273
-0.724845
-0.821406
-0.188879
0.048372
0.442915
0.408002
0.663503
-0.345073
-0.223182
0.011933
0.835261
0.786370
-0.350200
-0.029511
0.090487
0.037812
-0.386944
0.619190
-0.545091
-0.764336
0.477523
-0.344890
0.447432
0.992553
-0.101108
0.631581
-0.153294
-0.343730
-0.220435
0.002899
0.806330
-0.783013
0.798639
0.783258
0.128636
0.732902
0.384320
-0.119602
0.512864
0.838130
-0.560595
-0.831233
-0.413007
-0.104282
0.134007
-0.637684
0.538133
-0.643117
0.075900
0.751335
0.152806
0.890622
-0.826167
-0.135411
-0.920164
0.844111
0.503708
0.120151
0.128513
0.599353
-0.508835
-0.473189
-0.585803
0.385235
0.723930
-0.501328
0.164464
-0.889828
0.704398
-0.154454
-0.002655
-0.223853
-0.142918
0.001984
-0.514634
-0.962218
0.102023
-0.443464
0.816828
0.468123
-0.692984
0.144932
0.367046
0.093905
0.931822
-0.231849
-0.006806
-0.236732
0.175207
-0.400189
0.862911
0.907407
0.939879
0.343669
0.631825
0.259865
0.924680
0.204321
-0.219581
0.094760
-0.840449
-0.465682
-0.075900
0.547655
-0.706107
0.219031
-0.092135
0.580309
0.950865
0.862300
0.499252
-0.846919
0.461287
-0.164403
-0.509262
-0.833491
-0.711112
-0.746941
0.025727
-0.265175
-0.541063
-0.065645
-0.041536
-0.645619
0.303751
0.418683
-0.937071
-0.471175
-0.163244
0.092135
-0.099216
-0.586291
-0.931333
-0.509690
-0.837336
-0.956359
0.576525
-0.159948
-0.705618
-0.296609
-0.360088
0.901120
-0.779290
-0.993896
-0.744072
-0.828425
-0.020478
-0.758293
-0.654714
-0.480941
0.078402
0.556261
-0.537217
0.300027
0.386517
-0.473251
-0.676504
-0.970214
-0.625843
0.692679
0.458907
0.666433
0.512436
-0.393414
-0.687002
-0.430647
0.645253
0.967956
-0.905881
-0.802484
-0.852657
0.399762
0.691275
0.607105
0.679006
-0.566027
-0.029267
-0.186560
-0.648671
0.265297
-0.236366
-0.921690
-0.885495
-0.162694
-0.142918
0.185522
0.180700
-0.176611
-0.697501
0.767327
0.294534
0.064302
0.351970
-0.255898
0.664602
0.025483
0.336528
0.940001
-0.633534
-0.163549
0.798456
0.936460
0.031709
-0.525498
0.189367
0.226844
0.634327
-0.344157
-0.551988
-0.265664
0.186804
0.995605
0.768914
-0.244484
0.160070
-0.999573
0.874874
-0.607837
0.437178
-0.544237
-0.893612
-0.465987
0.615528
-0.230689
-0.360393
-0.545396
0.469161
0.834895
0.145482
0.083102
0.383404
0.977905
0.203467
0.014313
-0.425031
0.545457
-0.218909
-0.680654
0.909421
0.703482
-0.907529
-0.780084
0.129063
-0.996704
0.148717
0.687918
0.303385
-0.719535
-0.688589
0.033784
-0.685415
0.447798
-0.836604
0.545335
-0.808954
-0.254372
-0.992248
0.239784
-0.899655
-0.988220
0.308756
0.792230
0.815790
-0.466659
0.386029
-0.298807
0.467025
0.042634
0.676016
0.756340
-0.610462
-0.578906
0.871578
0.868343
-0.116489
0.671865
-0.746757
0.325236
0.695303
-0.275246
0.524766
0.536607
0.034272
-0.364177
-0.535752
0.328959
0.937803
-0.256264
-0.294900
0.854122
0.795160
0.345866
-0.042329
0.173193
-0.154393
0.456404
0.985229
-0.420454
0.460250
-0.791192
-0.353923
0.721793
0.022553
0.465499
-0.685110
-0.409772
-0.781610
-0.803034
0.995056
0.429548
0.549242
-0.806818
0.435224
-0.360637
0.879879
0.668874
-0.437849
0.725394
0.834590
-0.673391
-0.457442
0.364360
0.852779
-0.560900
-0.213904
0.644642
0.717582
0.513291
0.202673
-0.455489
0.369671
0.099094
-0.974303
0.712333
0.818598
0.305826
-0.485214
0.608753
0.964171
0.587024
-0.150792
0.075716
-0.859004
0.358074
-0.474288
0.393353
-0.802545
0.008332
0.572863
0.887326
-0.076998
-0.130161
0.893674
0.149998
-0.365032
-0.293924
0.050386
-0.062654
0.738823
0.282449
0.802606
-0.196509
0.072665
-0.418806
0.712027
-0.462996
-0.149632
-0.776116
-0.873898
-0.540513
-0.986084
-0.337321
-0.146641
-0.349101
-0.190893
-0.295633
0.841731
0.162328
-0.604114
0.928159
-0.825495
-0.719901
-0.692984
0.561388
0.694510
-0.097079
0.566210
-0.626148
0.569384
-0.905148
-0.721061
0.155126
0.111606
0.876583
0.509262
-0.664724
0.164342
-0.682608
-0.746757
-0.686087
0.366131
-0.009308
0.323283
0.057405
0.607532
0.854793
-0.045686
-0.470687
-0.008942
0.622608
0.946287
-0.485275
-0.392071
-0.318339
0.153233
0.401593
0.443587
-0.372478
0.133152
-0.518052
0.724418
0.473189
-0.229896
0.334880
0.018952
-0.403790
-0.318155
-0.145909
0.404706
-0.512375
-0.775018
0.482650
0.014557
0.362896
0.910215
0.216895
-0.725639
0.699576
-0.959960
-0.057100
-0.855831
-0.237098
0.382305
0.666982
-0.323649
-0.817804
-0.309427
0.203589
0.201941
-0.359294
-0.114780
-0.117588
-0.540635
-0.259377
-0.293130
0.837825
0.976196
-0.892514
0.655385
0.442732
0.017487
0.794305
0.025849
0.449263
-0.586291
-0.950682
-0.144688
-0.600574
0.579028
-0.490036
0.592212
0.867428
-0.965941
-0.115452
-0.699820
0.096347
0.745415
0.184729
-0.789483
0.592822
0.593127
0.571825
0.434187
-0.760247
-0.719474
-0.121677
0.646535
-0.507431
-0.002533
0.867977
-0.442732
-0.781182
-0.850215
-0.703604
-0.021577
0.745598
0.468429
0.835627
-0.698294
-0.324076
0.809015
0.923276
0.199133
0.037690
0.956053
-0.398785
0.358623
0.326823
-0.256691
0.404401
0.067171
0.007294
0.803156
-0.637257
-0.545640
-0.968871
0.256874
-0.820429
0.208472
-0.059725
0.659536
0.647511
-0.422529
-0.887326
-0.488937
0.365642
-0.531846
0.715812
-0.354106
0.819880
0.454939
-0.070467
-0.185583
-0.110935
-0.488266
-0.998840
0.767998
-0.160680
-0.721244
0.694693
-0.839106
0.869137
-0.323099
0.697439
0.580554
-0.732047
-0.317362
-0.453963
0.019562
-0.749565
0.075045
-0.365459
-0.898495
0.528733
0.968505
-0.133152
0.373272
0.685965
0.942747
-0.483322
-0.024018
0.412763
-0.416974
-0.143773
-0.992126
0.669607
0.243385
-0.882321
0.890439
-0.162511
0.844356
-0.651051
-0.948729
-0.080782
-0.481185
0.726310
0.236427
-0.145665
0.918271
-0.113498
-0.237403
-0.990661
-0.009247
-0.158605
0.025056
0.906674
-0.954833
0.036653
0.570849
0.254067
0.912412
0.117405
-0.949034
-0.662587
0.016572
-0.035859
-0.635487
0.839656
0.169958
-0.440413
0.306131
-0.852962
0.901486
-0.748894
-0.969726
-0.792474
-0.865658
-0.030610
0.644215
-0.998779
0.022980
-0.032868
0.242225
0.687307
-0.237281
-0.360454
0.694388
0.488815
0.185034
0.989624
0.500778
0.378948
-0.050142
-0.700247
-0.974425
-0.370525
0.148656
-0.425825
-0.578112
-0.713736
-0.870235
-0.688223
0.560656
-0.368267
0.358989
0.174963
0.276101
-0.300638
0.127598
0.114658
-0.760063
0.900571
0.921262
0.514939
-0.222633
-0.172399
-0.739372
-0.079928
0.936094
0.295206
-0.172094
0.906003
0.122593
-0.317789
0.690420
-0.341960
0.617176
-0.362835
-0.565172
0.819636
-0.719901
0.209326
-0.976196
-0.828425
-0.238197
-0.532090
-0.812067
0.707022
-0.470687
-0.327372
0.165014
0.662587
0.022309
0.056673
0.599841
-0.930601
0.249367
-0.713675
0.416669
-0.613392
-0.860775
-0.341716
0.476363
0.778436
0.958190
0.097934
-0.168126
-0.401105
-0.894528
0.021027
0.393170
0.646229
0.601794
-0.879147
-0.184606
-0.251137
0.580004
-0.855770
0.422102
0.246193
-0.906674
0.717582
0.975585
0.926145
-0.447859
-0.713492
-0.891964
-0.017304
-0.898068
-0.768059
-0.774712
0.555284
0.255715
0.223243
-0.304727
0.412091
0.092013
0.872799
0.134434
-0.658437
0.332804
-0.245766
0.604175
0.812372
0.612049
0.845820
-0.469588
-0.533982
0.248207
-0.537950
0.157628
-0.996216
0.833857
-0.262978
0.350749
0.030854
0.953185
-0.280496
-0.442366
0.419355
-0.658376
-0.854610
-0.256203
-0.245399
-0.200476
-0.052583
0.112094
0.424726
0.171117
0.565722
0.420820
0.917844
0.703970
0.122471
0.711051
-0.111240
0.098361
-0.478866
0.257302
0.557909
0.561815
-0.464888
-0.446760
0.003937
0.178991
0.946409
0.144627
0.914731
-0.088778
0.797540
0.123081
0.356426
-0.462813
-0.179846
0.091708
-0.874203
-0.152623
-0.899106
-0.583239
0.246437
-0.595019
-0.951598
-0.423688
0.171850
-0.813837
0.723807
0.419172
-0.741203
-0.589038
0.596728
0.146825
-0.928220
-0.121311
0.789727
0.830134
-0.917112
0.119541
-0.126621
0.273721
0.328166
0.675039
0.274880
0.041047
0.583361
-0.180029
-0.637867
0.451216
0.622486
-0.961608
0.266213
0.361797
0.119907
-0.434492
-0.495102
0.548692
0.760491
-0.690786
-0.531053
0.496811
-0.881832
0.462386
0.834712
-0.587573
0.867672
-0.880734
0.964599
-0.728141
0.889767
-0.791314
-0.641530
0.716971
0.834223
0.055513
0.218604
-0.389142
0.702322
-0.116184
-0.810236
-0.933103
0.010651
0.574328
0.338420
0.762017
-0.899655
-0.012726
0.431745
0.348186
0.152928
-0.834529
0.581042
0.774346
0.475326
0.727775
0.309793
0.329997
-0.382183
-0.233497
0.110935
-0.775140
0.885739
-0.437788
-0.445601
-0.484115
0.808405
-0.573840
-0.992065
0.194494
-0.872250
0.985107
0.034089
0.245949
0.869015
0.219214
0.524949
-0.505173
-0.944578
-0.432844
-0.361919
0.047578
-0.369182
-0.590320
0.595691
0.144993
-0.849116
-0.755425
0.409162
-0.762139
0.807184
-0.134251
0.592639
0.097629
-0.655080
0.858333
-0.073458
0.774590
0.438643
0.723197
-0.665090
0.216041
-0.913205
-0.057344
-0.061495
0.357891
0.588672
0.299783
0.345866
0.500351
0.665334
0.764641
0.245460
0.782098
0.288553
-0.740898
0.361064
0.564257
-0.221656
0.613147
-0.167394
0.536973
-0.266945
0.024934
-0.914121
0.361492
-0.646352
0.337687
-0.747307
0.659413
-0.274514
0.444990
0.203894
-0.837580
0.619068
-0.862239
0.259011
-0.165075
0.373211
-0.294839
-0.366314
0.780938
-0.577319
-0.398297
0.688040
-0.250526
-0.967284
0.493576
-0.962279
-0.949889
-0.196631
0.995911
0.592273
0.690664
-0.494736
-0.585559
0.579577
-0.449995
0.810968
0.803644
-0.376812
-0.600635
0.481918
-0.347392
0.931700
-0.416974
0.576464
0.514389
-0.336039
-0.828303
-0.761223
-0.112949
0.533494
0.401471
-0.367290
-0.337138
0.712271
0.209998
0.582751
-0.544725
0.099033
-0.316691
-0.515732
0.117954
0.012848
0.224769
-0.953673
-0.232704
0.374859
0.259438
0.428144
0.621754
0.440962
-0.713919
0.333354
-0.030366
-0.852229
-0.910398
0.623646
-0.421247
0.134495
0.925352
0.013947
0.859615
-0.497299
0.489486
0.413068
0.095065
-0.622730
-0.513596
-0.529832
-0.950926
-0.669607
-0.393170
-0.108066
-0.733085
0.731620
-0.272256
-0.909055
-0.621265
0.085482
0.148473
-0.270852
-0.279702
0.421186
0.673574
0.717826
-0.417951
0.794061
0.356487
-0.762505
-0.600146
0.963927
-0.284585
-0.660146
-0.800531
-0.688650
-0.765191
-0.306131
-0.392254
-0.945372
0.964049
0.039338
0.742302
0.830134
-0.973815
0.909604
-0.707144
0.698233
-0.149510
0.186621
-0.893246
-0.362163
-0.061678
-0.949522
-0.409894
-0.408246
-0.021821
0.885861
-0.761528
0.124851
-0.879635
-0.292215
0.608936
0.758232
0.224097
-0.329814
0.045808
-0.958007
-0.109958
0.217933
0.472945
-0.571459
0.090487
0.446944
0.564623
-0.991272
-0.790460
-0.767022
0.608509
-0.825190
-0.693716
0.693106
0.371868
-0.729423
-0.587390
-0.458968
-0.715751
-0.706961
-0.320963
-0.099643
0.249855
-0.292886
0.180761
0.136509
-0.600146
-0.564135
-0.804010
-0.729118
-0.899716
0.089694
0.770013
-0.459700
0.525071
-0.504563
0.376080
0.662282
-0.891659
0.589526
0.487411
0.370525
-0.811151
0.736259
0.871151
0.782769
-0.843257
-0.464949
-0.582385
-0.837825
-0.581408
0.177892
0.317667
0.636952
0.489731
0.420209
-0.600635
-0.561937
-0.470992
0.227882
-0.561693
0.220740
0.627064
0.161901
-0.747856
0.028779
-0.838923
-0.435530
-0.606372
0.467025
-0.471603
0.607959
0.252846
0.642994
0.571520
-0.730399
-0.616749
0.440535
0.007050
-0.705008
-0.138035
0.687979
0.171300
0.211524
0.497909
-0.216590
0.394147
-0.543931
-0.299478
-0.660329
0.315165
-0.322428
-0.179418
0.410810
-0.547227
-0.721366
-0.223487
0.863460
-0.659474
-0.742790
0.778314
-0.544603
-0.458113
0.412336
0.961486
-0.816401
-0.143468
-0.025300
-0.256325
-0.536302
0.030549
-0.273354
-0.283120
-0.295328
-0.717032
0.671926
0.886471
-0.159581
0.961730
0.319071
-0.928953
0.380840
0.639760
-0.358989
-0.725028
-0.455428
0.966674
-0.227577
-0.154576
0.036958
-0.414655
-0.492233
0.227943
-0.965758
-0.571276
-0.336833
0.131260
-0.061739
-0.293435
-0.636341
0.915708
-0.537828
0.897641
0.318827
-0.984008
0.611316
0.057039
0.149266
0.212195
-0.879086
-0.246681
0.826106
0.560289
-0.086398
0.946593
-0.713309
0.796136
-0.861690
-0.879818
0.288308
0.023896
0.354534
-0.019929
0.562670
-0.497360
0.422773
0.031098
0.333720
0.342814
-0.334758
0.346782
-0.738823
-0.074801
-0.141697
0.841304
0.872860
0.855647
0.619251
-0.640919
0.546495
-0.733329
-0.249672
0.892697
-0.893490
0.280007
0.102512
-0.758049
-0.904599
-0.558885
0.520615
0.427778
-0.216224
-0.060701
-0.566149
0.171545
-0.018952
0.425398
0.652638
0.753899
0.709586
-0.760735
-0.064669
-0.435408
0.804621
-0.139378
-0.113010
0.656911
-0.497665
-0.605640
-0.247536
-0.382611
-0.921201
0.903928
-0.333293
-0.934385
-0.397748
-0.595508
-0.075411
-0.905210
0.860836
0.329630
0.832575
-0.034089
-0.471114
0.281655
-0.294900
-0.630726
0.634449
0.881283
0.568163
-0.435774
-0.611194
-0.473922
-0.868160
0.710257
0.443464
-0.127232
0.595569
-0.297647
0.633656
-0.146580
0.847407
0.822687
0.274270
0.040376
0.620594
-0.479110
-0.932249
0.170690
-0.830561
-0.363628
-0.311258
0.643788
-0.972289
-0.626209
-0.893857
0.803339
0.410932
0.345378
0.706961
0.818049
0.826044
0.992126
-0.717765
0.971496
0.450545
0.696341
-0.059969
-0.824946
0.843928
-0.101901
-0.994446
0.516526
-0.447066
0.528123
-0.027009
-0.344951
0.174780
0.069430
0.569872
-0.122166
0.439070
-0.439314
-0.002350
-0.371868
-0.127720
0.853145
0.410627
0.319315
-0.393475
-0.565844
-0.304849
0.246010
-0.104526
0.129673
-0.387127
0.405805
-0.100253
-0.002167
0.369060
-0.956664
-0.695669
-0.272988
-0.330668
0.729789
0.330546
-0.150548
-0.672048
0.789544
-0.295083
-0.915281
-0.512070
0.887753
-0.851924
-0.876095
-0.481491
0.589953
-0.055208
-0.832026
-0.350322
0.707083
0.159581
0.532640
0.408124
-0.762078
0.058321
0.631764
-0.083590
-0.277688
0.300333
0.652516
0.117649
0.816095
0.461776
0.234535
-0.011200
0.901975
0.454085
-0.535081
0.804437
0.547716
0.398968
-0.497116
-0.486068
0.624744
-0.476547
0.144993
-0.705191
0.898801
-0.363567
-0.354900
-0.656545
0.906491
-0.249794
-0.899716
0.967528
-0.070956
-0.591296
0.715567
0.040986
-0.123508
-0.714591
0.260353
0.885617
-0.105991
0.613514
-0.971496
-0.359905
0.504196
0.009980
-0.384747
0.180212
0.096164
-0.742607
0.822382
0.652272
-0.424421
0.604846
0.005219
-0.317484
-0.013276
-0.849239
0.173620
0.324503
0.920042
0.871212
0.159154
0.807306
0.517136
-0.146580
-0.839045
0.147191
0.886410
-0.699026
-0.016022
-0.314859
-0.259377
-0.130528
0.279458
0.612110
0.070223
-0.102756
0.103732
0.545640
0.663930
-0.906796
-0.895749
-0.780267
-0.710318
0.244179
-0.351543
0.350078
-0.651540
0.504013
-0.794794
-0.262246
-0.187414
0.827631
0.293558
0.674123
-0.737663
-0.888363
-0.689749
0.708304
-0.167394
-0.394757
0.548448
0.840938
-0.118259
0.152013
0.720206
-0.794061
-0.803827
-0.172765
0.295938
0.303629
-0.457625
0.531907
0.972167
-0.154210
0.378826
-0.893979
-0.418867
0.278359
0.541124
-0.475387
-0.246010
-0.959288
-0.288308
-0.262856
-0.349406
0.627064
0.487594
0.715262
-0.931822
0.509812
0.858272
0.269082
0.241432
-0.009919
-0.094150
-0.804010
-0.353801
0.035615
0.540880
0.323893
-0.879879
-0.830622
0.085604
0.011383
-0.387982
-0.527696
0.517319
0.667592
-0.128025
-0.239113
-0.815729
-0.146214
-0.603381
0.003571
-0.192785
0.530015
-0.060274
0.037690
0.578051
0.008332
0.902158
0.649953
-0.831233
0.175695
0.913022
0.082492
-0.536363
0.548753
0.915342
0.027192
-0.174596
0.723685
-0.932859
0.170873
-0.289834
-0.217750
0.772393
-0.646290
0.442000
-0.781793
0.152440
0.403668
0.960143
0.945128
0.272378
0.708670
0.351665
0.948912
0.432905
-0.409955
-0.018586
0.147740
-0.158300
0.539354
-0.967650
-0.979125
-0.024262
-0.619739
0.268654
-0.429853
0.948057
0.419538
-0.166540
-0.824580
0.190100
-0.351665
-0.105014
-0.092563
0.764275
-0.943113
-0.047884
-0.139927
-0.383770
-0.874935
-0.386761
0.064730
-0.917295
-0.448958
0.659902
-0.451094
-0.035432
-0.719230
-0.792047
0.102573
-0.520737
-0.098849
-0.220496
-0.687002
0.404767
-0.541917
0.096713
-0.567370
0.727165
0.763909
0.411298
0.640675
0.104770
-0.745354
0.181555
0.262490
0.461226
0.461287
-0.090487
0.507736
-0.980163
0.156163
0.950804
0.291238
-0.908017
-0.761711
-0.890622
-0.302164
0.931761
0.419050
0.830561
0.654714
-0.030366
0.770989
-0.196692
0.372906
0.737724
-0.796808
0.786187
-0.879086
-0.201819
0.924070
0.467513
0.893307
-0.010651
-0.044893
0.173925
0.535264
-0.700674
-0.241371
0.238563
-0.111850
0.682058
-0.959777
0.842463
0.515732
0.126743
0.790399
-0.859859
-0.424299
-0.706107
-0.373821
-0.515671
0.398358
0.030122
-0.502976
0.559374
0.333781
-0.925474
0.815363
0.237953
-0.567492
0.268960
-0.923826
-0.026643
0.519700
0.584521
0.027558
-0.461470
0.226356
-0.722953
-0.546556
-0.073946
-0.459090
0.484237
0.633473
-0.779839
-0.558214
0.576220
-0.460128
-0.745476
0.175390
0.572985
0.836543
-0.132908
-0.259865
0.940428
0.739921
0.565661
0.141514
-0.922056
-0.193396
0.415448
0.977294
0.809992
-0.290750
-0.037507
0.918821
0.193579
-0.937620
0.004486
0.648793
0.955504
0.362651
-0.978698
-0.181860
-0.129795
-0.895932
0.078768
-0.414350
-0.608020
-0.868282
-0.982482
-0.698172
-0.146580
-0.703482
0.739128
0.899472
0.542894
-0.527268
-0.597278
-0.445723
-0.026948
-0.998169
-0.655568
0.177404
0.654103
-0.375652
0.531175
0.302103
0.682241
-0.037629
-0.636769
0.927915
-0.541856
-0.384442
0.636097
-0.115757
-0.153661
-0.066805
-0.524705
-0.724113
0.088290
-0.476485
-0.943480
-0.427107
-0.217689
-0.434736
0.923154
-0.092013
-0.757805
0.981262
-0.286172
-0.856990
0.547472
0.538194
-0.886654
-0.732109
-0.403302
-0.064669
0.838069
-0.306558
-0.521348
0.942808
-0.531236
0.001801
0.471114
0.654164
0.944823
-0.283547
0.981506
-0.085849
-0.470626
0.653554
0.741691
0.985290
-0.938475
0.418683
0.569018
-0.485641
-0.695669
0.609912
0.005829
0.863460
-0.795709
0.291055
-0.848872
-0.134678
-0.126865
0.296121
-0.004242
0.068453
-0.895749
0.929319
-0.426374
-0.468429
0.237648
0.621021
0.242775
-0.767327
-0.815851
0.104160
-0.593066
-0.846980
0.423200
-0.327738
-0.008576
0.099460
-0.215064
0.081820
-0.014435
0.327921
0.830561
0.662038
0.363445
-0.969909
0.642445
-0.806024
-0.303140
-0.254494
-0.162877
-0.878109
0.771661
-0.237587
0.613636
0.658559
-0.479659
0.569018
-0.351238
-0.651662
-0.415693
-0.581774
-0.346477
0.649525
0.816645
-0.931822
0.401349
0.098178
-0.960875
-0.238929
-0.958312
-0.382427
-0.633656
0.502487
0.512009
-0.466414
0.407270
-0.295694
-0.141453
0.860347
-0.340434
0.253456
-0.718863
-0.582385
-0.592761
-0.931394
-0.287820
0.342692
-0.565477
0.207984
-0.256264
0.559496
-0.130772
-0.409955
-0.285257
-0.233009
0.466842
0.390667
-0.229102
-0.490097
-0.350993
-0.822260
-0.290689
0.893612
-0.391522
-0.152867
-0.578539
0.506272
0.792230
-0.578295
-0.254067
-0.889218
0.076998
0.776360
0.543687
0.668142
-0.051973
0.350749
-0.191259
0.255593
0.994446
-0.086276
0.626514
0.442305
-0.966491
0.440107
-0.207862
0.683767
-0.823603
-0.836177
0.901547
-0.701529
0.147740
-0.130589
-0.272378
0.590014
-0.828730
-0.516587
0.694205
0.674368
0.735527
-0.969543
0.260048
0.578661
-0.450850
0.013825
0.025483
0.170751
-0.998169
0.285073
-0.625599
-0.516282
-0.559313
0.464095
0.463607
0.997375
-0.424238
0.972777
-0.627552
-0.560839
-0.673269
0.743767
0.225379
0.667714
-0.575671
-0.331400
0.099094
0.199499
0.076876
-0.154515
-0.472091
0.944578
0.016938
-0.308817
0.418928
0.709769
0.238624
-0.021821
0.190039
-0.964599
-0.260842
-0.139622
-0.057039
-0.074068
-0.423322
-0.050508
-0.515976
0.037568
0.556993
0.504868
-0.994934
0.885495
0.861751
-0.201209
0.237098
0.633473
0.930601
0.720328
0.888730
0.027314
-0.090365
0.679922
-0.817133
0.036164
0.978820
0.877132
0.303201
-0.237648
-0.129429
-0.005890
-0.436811
0.184484
-0.107150
0.377972
0.110569
0.293741
-0.232032
-0.227271
-0.020722
-0.811579
-0.399335
0.665944
0.301859
0.687185
-0.712455
0.309915
-0.506272
0.024506
0.680593
-0.517869
-0.776116
-0.808893
-0.183447
-0.954283
0.981933
0.480819
0.525864
0.373760
-0.944090
0.807367
-0.267434
0.698843
0.733329
0.352763
-0.241615
-0.548509
-0.464156
0.111057
-0.057161
0.649098
0.303385
-0.112033
0.892941
-0.602283
-0.063021
-0.678823
-0.326823
-0.429426
0.615040
-0.518113
-0.748955
0.724052
-0.705374
-0.379009
0.507126
-0.685415
0.310160
0.622913
0.125401
0.279336
0.882687
-0.272073
0.674734
0.042024
0.351238
0.087680
0.193579
-0.992676
0.940062
-0.285806
-0.407941
0.606433
0.872799
-0.613330
-0.817804
0.954772
-0.352702
0.077242
0.650014
0.186804
0.283059
-0.540757
-0.218909
-0.471419
0.353252
0.059725
0.253273
-0.829524
0.615528
0.619007
-0.192785
-0.995544
-0.948546
-0.780084
-0.890439
-0.714164
-0.869625
-0.250954
0.618946
-0.715751
0.106845
0.252235
-0.231239
0.985107
0.166540
0.747551
-0.220374
-0.096164
0.232215
-0.942686
0.411725
0.076998
-0.757622
0.222755
-0.027558
-0.709281
0.714835
0.062410
0.889523
-0.389874
-0.591968
0.438459
0.163671
-0.727653
-0.107089
0.791681
-0.987732
-0.994934
-0.153294
-0.490768
-0.982788
0.833552
-0.117527
-0.313456
-0.911252
0.437849
0.726127
0.846065
0.558702
-0.875668
-0.446516
-0.824091
0.714835
0.472152
0.300211
-0.149083
0.089145
-0.282022
-0.243324
-0.003204
-0.187231
0.942503
0.260659
-0.137059
0.349406
0.118564
0.800104
0.763970
-0.079562
-0.913022
-0.661550
-0.646840
-0.065950
0.518906
0.175573
0.791009
-0.269753
0.930174
-0.844478
0.370098
-0.044527
-0.191687
0.535447
0.160192
0.878109
-0.084384
0.326151
0.234901
0.958007
0.830500
-0.081210
-0.957091
-0.017426
0.789178
0.808588
0.486740
0.081759
0.891354
0.228553
0.270058
0.934141
0.731132
0.506638
-0.921873
0.477157
-0.483383
-0.042634
-0.847957
-0.566149
-0.260292
0.121372
-0.179724
0.968444
-0.540025
-0.835139
0.549669
-0.217200
0.263527
0.252358
-0.921690
-0.032014
0.960692
0.703726
-0.806391
-0.079134
0.084262
0.749504
-0.283425
-0.359416
-0.748833
-0.303690
-0.744194
0.715995
0.449812
0.314554
0.294046
0.317057
-0.684561
-0.738456
-0.831294
-0.497055
-0.543077
0.352519
-0.490402
-0.841365
-0.103671
0.491134
-0.303751
-0.127049
0.684194
-0.926634
-0.102695
-0.929075
0.753533
0.676199
-0.745964
-0.287820
-0.925718
-0.156285
0.771722
-0.131932
-0.828669
-0.216041
0.479476
-0.509018
0.067721
-0.211951
0.423261
-0.313395
-0.283303
-0.815729
0.052278
0.803217
-0.015351
0.640492
-0.436567
0.649648
-0.753288
0.626026
-0.235328
-0.845210
-0.341411
-0.153539
0.020417
0.780999
-0.833430
-0.536180
0.841792
-0.996643
-0.681570
-0.086032
0.683828
0.169103
0.937498
0.134678
-0.488144
-0.953185
0.722037
0.015534
0.700613
-0.618763
0.834162
-0.115757
-0.173254
-0.237220
0.538194
-0.160680
-0.080111
0.127476
-0.046968
0.743828
-0.268105
-0.802789
0.980224
-0.308878
0.588794
0.174718
-0.530076
-0.243568
0.387066
-0.995972
-0.311686
0.845576
0.297220
0.510910
-0.852412
-0.546190
0.736381
0.733695
0.862484
0.147923
0.173437
0.758904
-0.906003
0.582690
-0.671499
0.372478
-0.354656
0.865596
0.329447
0.840632
0.769768
-0.918638
-0.612476
-0.868465
-0.244972
-0.210425
0.556078
0.891354
-0.753960
-0.693411
-0.867428
0.486068
0.367901
0.586230
0.268593
-0.576830
0.712577
-0.490341
-0.651418
-0.536058
0.251259
-0.601428
-0.298379
-0.260109
-0.764885
-0.436750
0.206580
0.185461
-0.853572
0.698233
0.354961
0.600208
0.763665
0.938108
-0.666433
-0.348369
0.401471
-0.613636
0.688345
-0.867550
0.389935
0.929197
-0.866573
-0.216041
0.853755
-0.853877
-0.932859
-0.001617
0.855342
-0.867428
-0.642994
-0.287088
-0.036897
-0.956664
-0.042390
0.807245
0.308695
0.172155
0.922239
0.317484
0.194372
0.378643
-0.627979
-0.220313
-0.685842
0.675649
0.984619
-0.986206
0.650502
-0.211280
-0.435774
-0.337687
-0.890927
0.501572
-0.742607
0.794671
-0.044954
0.598193
0.974792
-0.108798
-0.888424
0.215857
-0.417585
-0.481918
0.385174
0.420698
-0.573840
-0.993774
-0.321512
0.818110
0.749565
-0.553270
-0.745598
-0.989013
0.568651
-0.684866
0.113254
-0.281594
0.567614
-0.963073
-0.454451
0.366253
-0.425153
-0.192480
-0.076388
0.963805
-0.815363
0.977721
-0.206641
-0.922544
0.085482
-0.681082
-0.670461
-0.285134
-0.342021
0.479537
-0.782769
0.931394
0.404767
-0.055086
-0.979186
0.972228
-0.225196
-0.186010
0.104465
-0.238258
0.945311
0.705130
-0.834773
0.553209
-0.877804
-0.897580
-0.557360
0.551012
0.923826
-0.542772
-0.334025
0.318278
-0.592273
-0.645009
-0.197302
0.781915
0.306253
-0.938658
-0.330241
-0.352275
0.029633
-0.240089
-0.528550
0.038850
-0.996887
-0.206397
0.324503
-0.831782
0.897092
-0.777520
-0.165197
-0.140172
-0.685110
0.010590
0.787103
0.729362
0.500473
0.154027
0.010224
-0.162328
-0.372845
-0.936888
-0.518784
-0.370098
-0.768059
0.511032
0.729728
-0.028413
-0.643910
0.460799
0.605518
-0.904965
-0.044404
0.084323
-0.527451
-0.731010
-0.856319
-0.714774
-0.109287
-0.997620
-0.172338
-0.962157
0.848262
0.596850
0.303018
-0.144871
-0.391949
0.858638
-0.633168
0.698111
0.229163
-0.216651
-0.486373
-0.360576
0.826899
-0.973815
0.774957
0.592822
0.633473
0.969420
0.766961
-0.578051
0.922300
0.199927
-0.493271
-0.259682
0.857784
0.210181
0.561327
-0.284707
0.333232
-0.866695
-0.909482
0.188391
0.860225
-0.673269
0.347575
-0.575243
0.570177
0.615406
-0.801508
0.803583
0.392987
0.007721
0.224281
0.762688
-0.527146
-0.302957
0.966918
-0.690237
0.885495
0.160497
-0.117100
0.412214
-0.281716
0.167821
-0.433699
0.578051
0.576708
0.513230
0.803400
0.941588
0.578417
-0.717826
0.022187
-0.835200
0.898434
-0.533982
-0.300882
0.468062
0.927793
0.736503
0.284951
0.101657
0.107700
0.192846
-0.787347
0.572130
-0.498215
-0.105075
-0.449568
-0.066073
0.169958
-0.007294
-0.139256
0.461287
0.404218
-0.733146
-0.169897
0.010041
0.891720
-0.108432
-0.770318
-0.615467
-0.135105
0.232826
0.771477
0.020295
-0.696768
0.493759
0.420637
-0.704031
0.247780
-0.978881
-0.271828
-0.213660
0.291604
0.083407
-0.254982
-0.230689
-0.691336
0.934812
-0.919248
-0.700308
0.483383
0.976318
-0.330241
-0.838557
0.703177
0.827631
0.806452
-0.988586
-0.622669
0.121128
-0.987365
0.027070
-0.255959
-0.168798
0.299783
0.370647
-0.272500
-0.048616
0.387616
0.782220
0.409589
0.331217
-0.557176
0.613880
-0.824213
-0.513474
0.899899
-0.381451
-0.398968
-0.806024
0.925596
-0.195837
-0.865169
-0.316080
0.091647
0.667653
0.650746
-0.756890
-0.183874
0.119846
0.920957
-0.959777
-0.862850
0.414655
0.079562
0.986267
0.381146
-0.606006
-0.863399
-0.557115
-0.712088
0.362590
-0.395001
0.591052
0.155919
0.903195
0.303751
0.271828
-0.431684
-0.053621
-0.601123
0.112522
-0.734977
-0.593371
0.746025
0.750969
-0.279336
-0.303079
0.595202
-0.030976
0.992492
-0.564684
-0.277871
0.549730
0.400555
0.655080
-0.952208
-0.331095
-0.398114
-0.168920
-0.191687
0.634816
0.622242
0.035737
0.338542
0.787469
-0.593066
0.535569
0.531297
0.371380
0.454085
-0.857967
0.034700
0.192846
-0.908200
-0.370830
-0.749138
0.875057
0.963500
-0.470748
-0.802973
-0.476730
-0.718741
0.620594
-0.706839
0.613086
-0.587390
-0.581164
-0.862545
0.913144
-0.639027
-0.014801
-0.667043
-0.743889
-0.296548
0.362774
-0.572985
0.969726
-0.451949
0.954894
0.026948
-0.220069
0.073153
0.157201
-0.846431
0.999939
0.211158
-0.443770
-0.103977
0.816523
0.039399
0.006806
-0.570482
-0.513535
0.440779
0.900571
0.458724
-0.743950
0.595813
-0.061129
-0.850154
0.814936
-0.130161
-0.277993
0.613453
-0.901608
-0.342998
0.467086
-0.000092
0.249672
-0.256264
-0.832636
0.271706
0.554491
0.754204
0.505905
0.713004
-0.838923
-0.759453
-0.165136
-0.759392
-0.601978
0.980224
-0.465560
0.578295
0.501755
-0.958190
-0.937132
-0.643971
0.567125
0.184973
0.010529
0.198767
0.533006
0.152440
0.469771
-0.134983
0.015595
-0.579028
0.034822
-0.500961
0.801691
-0.028962
-0.257912
0.058992
0.814814
0.638356
0.264931
0.982971
0.366436
-0.389630
0.674429
-0.843867
-0.495041
-0.370037
-0.920652
0.241371
0.274636
0.467818
-0.542222
-0.565233
0.697134
0.227515
-0.008271
-0.289590
0.288675
0.045137
-0.780877
0.615589
-0.075777
-0.254128
-0.685537
-0.321207
-0.137547
-0.980529
0.810297
-0.505295
0.742912
-0.320902
0.073397
0.545946
-0.631703
-0.436750
-0.153050
0.826777
0.085055
-0.354411
0.171484
0.329569
-0.426862
0.914365
-0.002289
-0.542833
-0.140538
0.583178
0.802850
-0.576403
-0.634571
0.196936
0.523423
-0.294656
0.803278
-0.805475
-0.882992
0.606189
-0.268654
0.491256
0.065767
-0.002594
0.583422
-0.357219
-0.867061
0.297098
-0.018403
0.154271
0.686880
0.749016
0.148473
0.496261
0.903012
-0.934141
0.227943
-0.610157
0.157872
-0.502121
0.329997
0.924436
-0.073092
-0.610462
0.109653
0.069185
0.498276
-0.712760
0.694266
0.142613
0.816156
0.660451
-0.229774
0.800775
0.765007
0.298074
0.643544
0.107822
-0.792230
-0.556200
-0.916135
-0.748833
0.091220
0.731925
0.768059
-0.536302
-0.071322
0.986084
-0.867977
-0.284829
0.975768
0.944273
0.447127
0.736076
-0.590808
-0.027924
-0.070040
-0.064180
0.821955
0.826655
-0.298868
0.778008
0.347758
0.533555
0.403424
-0.824885
-0.273354
0.440046
-0.707144
0.465438
0.624561
-0.493820
0.615040
-0.465804
0.519395
-0.102817
-0.921079
-0.357830
0.465804
0.938231
0.241005
0.523484
-0.948485
0.495834
0.611682
-0.684561
-0.142308
-0.152501
-0.702445
0.883297
0.735160
-0.898740
-0.009491
-0.898801
0.210425
-0.770135
-0.882382
-0.346171
-0.667837
-0.220740
0.963561
-0.080844
0.272439
0.316752
-0.422529
0.495895
-0.006561
0.678823
0.279031
-0.061617
0.294229
0.082919
0.572863
-0.739372
0.547838
0.164953
-0.712943
-0.227454
0.442793
0.004425
-0.253883
0.810541
-0.958861
0.201575
-0.208655
0.925291
-0.534837
0.066317
0.462325
-0.910947
-0.474593
0.984375
0.150121
-0.514878
-0.397015
0.020478
0.036164
0.441511
0.097812
0.823420
-0.371563
-0.928404
-0.243812
-0.106540
0.208228
0.184973
-0.810358
-0.723807
0.999268
-0.970397
0.897397
-0.255715
-0.128208
0.428938
0.105625
-0.469771
-0.604907
-0.124424
-0.264443
0.672353
0.049226
-0.854793
-0.187231
0.036103
-0.590136
-0.007965
0.630482
-0.925108
-0.881466
0.488693
-0.020539
-0.609973
0.450056
-0.426496
-0.243507
0.155370
0.290201
0.367290
0.264687
0.466842
0.336467
-0.178381
-0.483077
0.680837
-0.666677
-0.737602
-0.143223
-0.197241
-0.844172
-0.609851
-0.792413
0.989746
0.552660
0.299478
-0.737053
0.228126
-0.637745
0.080905
-0.068453
0.250038
-0.985473
0.567675
0.347880
0.750359
0.129002
-0.211585
-0.237526
0.966857
-0.975768
-0.309183
0.622974
-0.313395
-0.050386
0.695791
-0.840754
0.740226
0.851985
-0.352519
-0.214576
-0.953185
-0.509995
0.719596
0.629872
-0.727103
-0.290628
-0.158727
0.507492
0.166234
0.689627
0.205359
0.645314
0.628407
0.976684
-0.578967
-0.525010
0.588305
0.113132
-0.126926
-0.196203
0.738517
-0.321451
0.851436
0.677114
0.197668
0.552232
0.012055
-0.755181
0.161290
0.211280
0.733024
0.944761
0.602893
0.876705
0.926756
-0.686697
0.088839
0.318827
-0.127293
-0.259987
-0.231056
0.136387
0.631581
0.473434
-0.395001
-0.680288
0.604053
-0.804682
-0.099399
-0.087313
-0.203345
0.472823
0.193518
0.583605
-0.642689
0.402203
0.574816
0.919980
-0.057161
-0.243385
-0.504685
0.257546
0.480392
-0.049654
-0.876400
-0.142735
0.887204
-0.868404
0.316813
0.242775
-0.691641
0.717093
0.267190
0.509751
-0.561937
-0.319864
0.887448
-0.578722
0.484298
0.905881
0.996277
-0.899655
-0.659108
0.924314
0.367473
-0.867550
-0.470565
-0.664174
0.705130
-0.108615
0.472884
-0.760063
-0.393902
0.899411
-0.336406
0.980651
0.574572
-0.964171
-0.711234
0.520676
-0.851192
0.405499
-0.124729
0.757378
0.204505
0.679373
0.516037
-0.907956
0.495651
-0.278726
0.242042
-0.434004
-0.503159
-0.688528
0.100070
0.875607
0.608631
-0.219214
0.501022
0.578173
-0.211646
0.367229
-0.600391
0.802728
-0.330180
-0.891964
-0.130955
-0.223853
0.233375
-0.921140
0.632191
0.479049
0.089206
0.793878
0.112949
0.742363
-0.563280
-0.422651
-0.430952
0.098300
0.762139
-0.277932
-0.130100
-0.302225
0.336467
0.243751
-0.519089
0.606372
0.577502
0.046541
0.217872
0.791742
0.336711
-0.689016
0.332987
0.115390
-0.824702
0.917234
-0.504379
-0.359722
0.690481
0.715445
-0.769707
0.567858
0.954894
0.457137
-0.626576
-0.884213
-0.867611
0.198340
0.113254
0.650624
0.331950
-0.011322
0.173070
-0.614307
-0.238258
-0.342570
0.702689
0.959044
0.247291
0.510300
-0.561815
0.201697
0.174963
-0.251503
0.695181
-0.589160
-0.076083
-0.576952
-0.245155
-0.561327
-0.151341
0.736991
-0.791437
0.910581
-0.124790
-0.492843
-0.178625
-0.115879
-0.227515
-0.400555
-0.522813
-0.736930
0.162633
0.148473
0.769280
0.276650
-0.668325
-0.624744
0.797052
-0.661794
-0.096347
0.815180
-0.267006
0.595569
0.440229
0.768120
-0.278848
-0.515488
0.029267
0.784356
0.670583
-0.400433
0.923338
-0.002533
0.505112
0.193152
-0.707938
-0.881771
0.433760
0.616138
-0.849605
0.900327
0.802118
-0.987609
-0.475814
0.891476
0.088595
-0.419843
-0.082064
-0.717460
0.608325
-0.288614
0.144688
-0.333293
-0.514634
-0.676504
-0.417768
-0.479293
0.458296
-0.305765
-0.082369
0.222144
-0.920835
0.113681
0.442244
-0.586535
0.870357
-0.335734
-0.040010
-0.472762
-0.999878
0.443159
0.372112
-0.716971
-0.958556
-0.462264
-0.000824
-0.030000
-0.626270
0.068148
-0.295450
-0.672964
0.793207
0.608264
-0.118870
0.833003
-0.108737
-0.701956
-0.636769
-0.780267
-0.233558
-0.039460
0.327921
0.020173
0.629688
0.534227
0.245705
-0.036042
-0.132847
-0.865108
0.945738
0.033479
0.122593
0.059053
-0.143895
-0.007660
0.961486
-0.959288
-0.517441
0.199133
0.679983
0.075167
0.188147
-0.481063
-0.179113
-0.879025
0.336039
-0.855464
0.958861
0.994446
0.857967
-0.859004
0.317972
0.766289
0.311258
-0.475265
-0.216529
-0.023103
-0.513413
0.690481
0.871212
0.978576
-0.371319
0.998718
-0.784417
-0.279824
-0.666738
0.335246
-0.859371
0.285562
0.181860
-0.543748
0.874874
-0.501938
0.177770
-0.069002
-0.026826
0.904599
-0.954955
0.494552
-0.490951
0.450056
0.453536
0.622974
0.597705
-0.843135
-0.768487
-0.855647
-0.185522
-0.880062
0.630299
0.697012
-0.929685
0.131321
-0.299173
-0.152745
0.506272
-0.754631
-0.152867
-0.318644
-0.029756
0.598865
0.617115
0.681326
-0.361431
-0.203528
-0.205054
0.698599
-0.655690
0.176183
-0.143590
-0.161596
-0.824946
-0.734855
-0.150365
-0.933592
0.903012
0.740226
0.764946
0.350444
0.809198
0.204199
-0.545457
-0.850032
-0.534837
0.091708
-0.833491
-0.934080
-0.965880
0.016022
-0.246376
-0.537095
-0.346232
-0.130222
-0.379192
-0.123325
-0.536119
-0.007721
0.473922
0.019257
-0.158971
-0.284402
0.930662
-0.805780
0.402814
0.602344
0.058565
-0.065279
-0.656240
-0.313334
0.900266
-0.323527
-0.333659
-0.967345
-0.950255
-0.721549
0.868648
0.920774
0.342692
0.204138
0.651296
0.976012
0.721183
-0.825495
0.207434
0.550035
0.338054
0.107456
-0.344096
0.669973
0.961119
0.153478
-0.817438
0.865169
0.741020
-0.357341
0.450545
-0.813410
-0.595019
0.753899
-0.157628
0.729240
-0.061312
0.718741
0.097568
0.971252
-0.181310
0.374004
-0.093844
-0.758049
-0.141392
-0.126438
0.022187
0.631520
-0.269204
0.373272
-0.540330
-0.346232
0.226234
-0.499130
0.332316
-0.023591
-0.684439
-0.576159
0.900693
-0.470443
0.073031
-0.673269
-0.611072
-0.694449
-0.473861
-0.887875
0.133641
-0.836787
0.494186
0.135899
0.626759
0.948119
-0.523301
-0.209449
-0.984252
0.241432
0.656301
-0.251381
0.624012
-0.948546
-0.924131
0.678823
-0.948241
0.757622
-0.944517
-0.752922
0.423322
-0.378765
0.909116
0.215674
0.339518
0.176183
0.024934
-0.548021
0.101474
0.809442
-0.628285
0.660512
-0.235023
0.846736
-0.507187
-0.350810
0.590197
-0.546129
-0.948302
0.944639
0.448042
-0.332377
-0.009919
0.566088
0.746208
-0.132664
0.362468
-0.226783
0.437361
0.000702
0.908322
-0.401593
-0.328532
0.876400
0.425642
0.976745
0.655873
-0.165258
0.007355
0.286538
0.283853
-0.889340
-0.796136
-0.887814
0.096225
0.199927
0.173498
0.042268
0.136937
0.541978
0.883908
-0.684805
0.265847
-0.168310
-0.573107
0.125340
-0.509140
0.272805
0.508957
-0.598804
0.882382
0.084811
0.179662
-0.130222
0.632191
0.576281
-0.138279
0.217261
0.819025
0.097629
-0.256569
-0.839167
0.444441
-0.815485
0.597400
0.243202
0.299722
0.205908
0.087436
-0.838679
0.228431
-0.172094
0.626209
0.443831
0.344707
-0.392987
0.846187
-0.711966
0.772515
-0.975707
-0.253761
-0.630116
-0.534471
0.273965
-0.422895
0.438704
0.672903
-0.882076
0.526536
0.509995
-0.389386
-0.880551
-0.731254
0.468123
-0.096103
-0.431562
0.439436
-0.108066
-0.639637
0.409955
-0.901608
-0.084933
0.638478
0.490097
-0.756096
-0.065523
0.372662
0.429731
0.439680
-0.021332
-0.681814
0.440718
-0.382061
-0.451155
-0.921995
0.394940
0.120640
0.745109
-0.026093
0.460799
-0.958434
0.490219
-0.374981
-0.382366
0.931639
-0.336161
0.795709
0.362590
0.929746
-0.040803
0.075533
0.920103
-0.617359
0.274697
-0.046419
-0.730888
-0.985168
-0.546312
-0.149876
0.298379
0.711905
-0.816034
0.667531
0.403241
0.979919
-0.129734
0.423322
0.836848
-0.857173
-0.708670
-0.472152
0.126804
-0.658986
0.855647
-0.731193
0.872005
-0.607532
-0.733940
0.065584
-0.770501
-0.419538
0.408368
-0.945006
0.406659
-0.570971
-0.726188
-0.427351
0.468245
-0.470626
0.730461
0.090182
-0.226112
0.479720
0.953307
-0.827509
0.355876
0.000580
0.328715
0.017609
0.551256
0.288675
-0.357524
-0.860103
-0.799554
0.671377
0.366558
0.761406
0.724662
-0.375408
0.855403
-0.528184
-0.605640
-0.783624
-0.734672
0.721305
0.102573
0.038728
-0.991272
-0.292825
-0.046785
-0.309671
-0.443831
0.218177
-0.020051
0.872555
0.398419
-0.002289
-0.695120
0.160985
0.981384
0.189489
-0.947569
-0.484359
0.425886
-0.572192
0.328837
-0.408246
-0.154332
0.134434
-0.419477
0.913633
-0.925169
-0.414777
-0.355205
-0.025361
0.618519
-0.690909
-0.196814
0.325541
0.638173
-0.619007
-0.847774
-0.286966
-0.214942
-0.827815
0.602466
-0.667776
-0.306314
-0.879879
-0.180822
0.254555
-0.052217
-0.919919
0.417096
-0.906186
-0.668508
-0.178320
-0.278787
-0.026276
0.178320
-0.767937
0.406903
0.857601
-0.369915
-0.210913
0.330790
-0.695059
0.618824
0.865902
-0.133457
-0.284280
0.383160
0.430586
-0.943968
-0.874752
-0.666616
-0.297281
-0.109958
-0.386822
0.075900
-0.670644
0.030061
0.387188
-0.589831
0.643056
-0.715751
-0.394269
-0.888241
0.564196
-0.850276
-0.998657
0.312174
-0.288797
0.733451
-0.632740
-0.710929
0.279275
-0.634999
-0.030427
-0.520554
-0.748589
-0.787042
-0.051973
-0.472518
-0.495163
0.217872
0.767510
0.180395
0.372784
0.653737
-0.217627
-0.155675
0.227515
-0.368633
-0.022553
-0.386883
0.644398
0.855708
-0.053682
-0.418317
0.710562
-0.051241
-0.828730
-0.742424
-0.959044
0.652577
0.665761
-0.117527
0.063997
0.222510
0.043184
-0.523545
0.138218
-0.674612
-0.926206
0.417341
0.065157
0.753410
0.792413
0.367351
-0.442244
0.266945
0.219092
0.360881
0.229041
-0.120518
-0.243812
0.863826
0.662770
0.895505
-0.676809
-0.381390
0.128391
-0.984680
0.292520
0.087191
0.503220
0.819025
-0.711356
0.303323
0.964110
-0.059053
0.912961
0.948241
-0.989013
0.249245
-0.543260
0.461409
0.385540
0.340861
0.665395
-0.001556
-0.554308
0.665883
-0.384747
0.049837
0.561083
-0.406781
-0.233070
-0.468184
0.089328
-0.269692
-0.743706
-0.837397
-0.502121
0.808954
-0.513291
-0.063692
-0.807978
0.450056
0.084201
0.507126
-0.387188
-0.879635
-0.721366
0.295572
-0.832759
0.592456
-0.226844
0.130833
-0.447615
0.221046
-0.835749
-0.759941
0.037141
0.348979
0.975341
0.397992
-0.736930
-0.846004
-0.634388
0.049287
0.127659
0.249367
-0.421796
-0.784051
0.311808
-0.648610
-0.812128
0.002716
0.014252
-0.674551
0.212928
-0.488083
-0.543931
-0.076571
-0.847591
-0.018159
-0.283242
-0.474715
-0.988220
0.959410
-0.535386
-0.802973
0.379437
0.321268
-0.855037
0.377300
-0.383953
-0.045320
-0.812860
0.505600
-0.779351
0.910886
-0.206091
-0.095676
0.433882
-0.156285
0.875240
0.227393
-0.857356
-0.453352
-0.310953
-0.212439
-0.851924
-0.601611
0.752190
0.075106
-0.140965
0.532945
-0.418134
0.780816
0.473983
-0.456832
0.833674
-0.365337
-0.286416
-0.466414
0.394757
0.374371
-0.833003
0.331767
-0.002167
-0.845698
-0.686880
0.673635
-0.083407
0.709281
0.280923
0.173315
0.305826
0.583789
0.410138
-0.109226
0.748283
0.741142
0.675283
-0.690420
0.571764
0.863155
0.035676
0.537278
-0.502548
0.654347
-0.226661
-0.459029
-0.816645
-0.537828
-0.117832
-0.769097
-0.775628
0.526231
-0.430036
0.203406
0.172216
0.169164
0.936399
-0.042756
-0.863033
-0.759148
-0.110752
0.394635
0.533799
-0.869991
-0.638173
0.420515
-0.463973
-0.346599
0.892636
-0.548997
0.798273
-0.862484
-0.368023
0.645741
0.010956
0.003876
0.836299
-0.326029
0.850337
0.170202
0.913022
-0.170141
0.884518
-0.418561
-0.920652
-0.693411
0.999817
0.181310
0.696402
-0.556200
-0.091464
0.638417
0.341533
-0.239845
0.301859
0.138157
-0.318155
0.583483
0.209204
0.554247
0.210791
-0.909238
0.127415
-0.689077
-0.089694
-0.428388
-0.517869
0.249733
-0.098483
-0.274209
0.983337
0.812067
0.146397
-0.190588
0.437971
0.851009
0.262123
0.440596
0.582629
-0.615284
0.511643
-0.121982
0.497482
0.603381
-0.967406
0.584887
-0.834895
-0.557421
0.366802
-0.110019
0.736930
0.035859
-0.647084
0.559435
0.067598
-0.641591
-0.554796
0.090915
0.083407
-0.625111
-0.479659
0.542711
-0.456221
0.003327
0.235206
-0.288919
0.760308
0.208411
-0.002472
-0.532823
-0.164708
-0.464339
-0.387005
0.066927
0.982360
-0.599963
-0.329875
0.246132
-0.508652
0.440352
-0.274270
-0.087252
0.900937
-0.746879
-0.645375
-0.749992
0.939512
0.817621
0.123997
-0.958129
-0.200354
-0.075289
0.556566
0.033296
-0.694266
-0.077609
-0.855281
0.138829
0.539537
0.089755
-0.522385
-0.689322
0.484848
-0.046907
0.544115
0.880306
-0.745781
-0.144993
0.274026
-0.816156
0.460677
0.090854
-0.619739
0.287027
0.295450
-0.076754
-0.435835
-0.381817
-0.123508
0.788629
-0.853694
-0.674490
0.428205
-0.992859
0.186377
-0.831172
-0.144444
0.309915
0.152806
-0.240883
0.276101
-0.506394
0.206702
-0.042024
-0.929258
-0.481735
-0.839290
-0.749992
-0.983215
-0.642506
-0.823115
0.900693
0.065706
0.916196
0.264504
0.710685
0.327311
0.326090
-0.357952
-0.818110
0.824458
-0.066073
-0.975585
-0.094882
-0.421125
0.292642
-0.101474
-0.016938
-0.407880
0.469039
-0.150243
-0.698965
0.283059
-0.019074
0.001679
0.458296
0.945189
0.675039
0.631458
0.170934
-0.213782
-0.140843
-0.976318
-0.038728
-0.888363
-0.999390
0.624989
0.943785
0.215674
-0.696219
-0.438520
0.521775
0.541551
0.478744
-0.417035
-0.193396
0.674184
0.014008
-0.505661
-0.427961
-0.273110
-0.734428
0.138462
-0.443892
0.685781
-0.324686
0.992004
0.923521
0.272622
-0.570238
-0.562853
0.700125
0.891110
-0.125889
0.772027
-0.006684
-0.783746
-0.008698
0.020722
0.809259
0.992309
0.261330
-0.391888
-0.719169
0.598621
0.210669
-0.040803
0.118381
0.948790
0.966674
-0.912412
0.094516
0.283853
-0.872250
0.234230
-0.621754
-0.577685
-0.737297
-0.380535
0.527879
0.030183
-0.648671
-0.628651
-0.042879
-0.527635
0.479049
-0.308206
-0.313456
0.809687
-0.902341
-0.676626
0.192236
-0.498581
-0.834223
0.380047
0.164769
-0.621082
0.479720
0.602893
-0.008759
-0.549791
0.508591
-0.895444
0.771722
0.099338
0.046297
0.664846
-0.315958
0.243202
-0.008209
0.638539
-0.491745
0.007294
-0.428938
-0.460067
-0.875851
0.483871
-0.687002
-0.634388
0.793634
-0.865535
-0.908383
0.717093
-0.959532
0.399823
0.547166
0.788018
0.941527
0.078402
0.198584
-0.723930
0.638600
-0.961791
0.560167
0.284036
-0.112705
0.822382
-0.425642
-0.729301
-0.547594
0.711417
-0.326518
-0.883969
-0.835994
0.806146
0.782830
0.361492
-0.554125
0.691580
0.577868
-0.311563
0.129307
0.246010
0.307779
-0.301675
-0.635670
0.156652
-0.502426
0.055025
0.441694
0.705252
-0.157750
-0.946471
-0.663625
0.385296
-0.395734
-0.322855
0.787469
0.914304
0.827754
-0.795404
-0.275063
0.202368
0.681387
0.431501
-0.143101
-0.158849
-0.757134
-0.433210
0.229347
0.674184
-0.962340
0.867855
-0.428938
-0.988220
0.642933
-0.923765
-0.763482
-0.946348
-0.328104
-0.283181
0.558397
0.080233
-0.551561
0.322611
-0.577136
-0.023835
0.686392
0.647816
-0.119114
-0.350993
0.484603
0.931944
-0.394452
-0.095920
-0.048616
0.276711
-0.988769
-0.660573
0.770257
0.199438
0.844172
0.822687
0.019074
-0.576159
0.058931
-0.887936
-0.443342
0.972411
0.792291
-0.814814
-0.712699
-0.378460
0.247108
-0.163244
0.617237
0.782830
0.299112
0.108310
-0.585681
0.872250
0.638783
-0.887020
0.785760
0.230445
0.260842
0.817133
0.982238
0.656117
-0.886166
0.340617
0.746086
0.615345
0.722526
-0.659169
-0.588794
0.188879
-0.404706
-0.960448
0.070956
0.820856
0.229347
0.457930
-0.876278
-0.070223
-0.474105
0.420515
0.511093
-0.553575
-0.571703
0.891476
-0.041353
0.339213
-0.405194
0.205237
-0.465743
0.190466
0.919797
-0.245705
-0.165197
-0.113437
-0.285928
0.696646
0.114292
0.482894
-0.640980
0.244667
-0.334208
0.308084
-0.754936
0.099338
0.770257
-0.631825
-0.192053
0.591113
0.523423
-0.885250
-0.524583
-0.910092
-0.144749
0.638234
0.336406
0.248085
-0.947935
-0.650014
0.345256
0.637074
0.095981
-0.785089
0.873836
-0.658681
-0.867306
0.597461
-0.576342
-0.927915
-0.618763
0.783197
0.310831
-0.637196
-0.203040
-0.761101
-0.864254
0.409223
-0.198523
0.673574
-0.149083
-0.883602
-0.608936
-0.037935
0.238746
-0.084323
0.937315
-0.004669
0.611805
-0.086947
-0.009857
0.518357
-0.451338
0.932432
-0.600879
-0.980956
-0.522996
0.016022
0.062044
-0.269326
-0.082980
0.944029
0.615894
-0.190466
-0.802484
0.336406
-0.618580
0.751396
0.457259
0.899228
0.874142
0.108493
0.743522
-0.621876
0.194128
-0.430158
-0.978698
-0.218848
-0.392743
0.467513
-0.094638
-0.566393
0.630787
0.770623
0.926328
0.427778
-0.065645
0.630787
0.145848
0.028962
0.371197
0.540696
-0.069124
0.601978
-0.550645
-0.832026
-0.298685
0.619007
0.558275
0.928037
-0.538011
-0.687918
-0.739799
0.357036
0.933409
0.533006
-0.037812
-0.651234
0.091342
0.382122
-0.722221
0.316874
-0.069552
0.169836
-0.605762
-0.654592
-0.738151
-0.728019
-0.245033
0.390362
0.359355
-0.556932
0.371258
0.594348
-0.735405
-0.851985
-0.924314
-0.222999
-0.433271
-0.523240
0.029206
0.163854
-0.535020
0.203040
-0.205725
-0.584155
0.930845
-0.449751
0.287637
-0.978027
0.779290
0.226905
0.924009
-0.881771
0.462996
-0.706168
-0.736381
-0.205847
0.401593
0.426557
0.476608
-0.049348
-0.341044
0.133885
0.935789
-0.228980
0.780084
0.496689
0.251198
-0.132481
0.600940
-0.011689
-0.941710
-0.833613
0.843623
0.939756
0.873165
0.593982
-0.691336
-0.788385
-0.674795
0.625111
-0.521775
0.636219
-0.916623
-0.241249
-0.658742
-0.209387
-0.215796
-0.019501
-0.745903
-0.334635
-0.722465
0.276955
-0.351238
-0.210608
-0.499191
0.262612
0.401471
-0.624989
-0.705435
0.982971
0.673574
-0.955321
-0.527635
0.955748
-0.962279
-0.297769
0.456343
0.512986
0.702078
0.111362
-0.207678
0.506333
-0.356182
-0.256508
-0.143834
0.438154
0.466292
0.457564
-0.936033
0.080844
-0.209449
-0.425153
0.898556
-0.352824
-0.004791
-0.089938
0.064852
0.573534
-0.884335
-0.677419
0.087374
-0.020722
-0.283242
-0.650380
-0.339518
0.864254
0.549974
-0.516648
0.065828
-0.893124
-0.191198
0.656240
0.968627
-0.673818
-0.205969
0.494430
0.904965
0.668569
-0.198706
-0.095492
-0.226661
0.583850
-0.955260
-0.446089
-0.357341
-0.348430
0.427351
-0.191137
-0.811090
-0.479354
0.972045
0.691519
0.073336
-0.975036
-0.274880
-0.580859
0.574267
0.537095
0.945189
0.088290
0.786126
-0.377544
-0.610828
-0.934629
0.696463
0.057955
-0.490585
0.647389
-0.545335
-0.725211
-0.627735
0.553758
-0.854915
0.290811
-0.887204
-0.185949
-0.624195
-0.807001
0.736686
0.611377
-0.003327
0.233436
-0.917722
0.646229
0.258827
-0.398968
0.755852
-0.418134
-0.272073
-0.068331
0.850764
0.134617
-0.735832
0.618641
0.265969
-0.629383
-0.619495
-0.012787
-0.566881
0.773125
0.293069
0.394024
-0.732414
0.640248
0.974853
0.315531
-0.846614
-0.620899
-0.473861
0.486862
0.777154
-0.744560
0.174047
0.153722
-0.379131
-0.836238
-0.787347
0.500900
0.928465
-0.021088
-0.801874
-0.681936
-0.043306
-0.947508
-0.290567
-0.032929
-0.675710
-0.583789
-0.011750
0.712088
-0.729301
0.254921
-0.229774
-0.524094
-0.361919
0.211280
-0.379681
0.084262
-0.612232
0.085543
-0.915647
-0.939207
0.465316
0.491684
-0.030488
-0.964110
-0.175512
-0.966185
-0.933775
-0.169530
0.425153
0.563952
-0.375958
-0.721244
-0.984619
-0.915342
-0.106052
0.851802
-0.488021
0.858882
0.049348
0.143284
-0.209815
-0.711356
-0.201331
-0.717277
0.697134
-0.873226
0.002045
-0.664235
-0.900388
0.582263
0.603748
-0.244606
-0.219886
0.883053
0.194250
0.946898
-0.007538
-0.141697
-0.486618
-0.991821
-0.509507
-0.897031
0.207312
0.708914
-0.158116
-0.713675
-0.847957
-0.230689
-0.160680
-0.832270
-0.343974
0.503891
0.822199
0.882626
-0.146397
-0.110813
0.720695
-0.940916
-0.397137
0.121311
0.635121
0.330729
0.199927
0.723319
0.763176
0.804987
0.221717
0.266030
-0.513352
0.051912
-0.189550
0.765130
0.431745
-0.825251
0.712088
0.815851
-0.686453
-0.474899
0.380902
0.528916
-0.620960
-0.375286
-0.536790
0.329569
-0.740287
0.857540
0.972594
0.682485
0.046968
-0.506943
0.468245
0.804682
-0.597095
-0.395184
-0.448836
-0.570116
-0.481613
0.445479
-0.012055
-0.314737
0.731437
0.841548
0.776299
-0.855403
-0.381573
0.170324
-0.535020
-0.880367
-0.629688
0.481185
0.039827
0.251991
-0.733634
-0.676077
0.688162
0.468490
-0.941649
-0.153233
-0.244423
0.362224
-0.922971
-0.273965
-0.794000
0.062166
-0.125767
-0.508957
-0.101718
0.653066
0.212317
-0.194922
-0.008515
0.209021
-0.786554
0.266823
0.792230
-0.497299
-0.517319
-0.706778
-0.644765
-0.547105
-0.985351
-0.352824
0.150792
-0.627247
0.699149
-0.827876
-0.889462
0.081210
-0.763848
-0.703909
0.365398
0.940733
0.274209
0.867977
0.986755
0.882443
-0.417219
-0.111789
0.044343
0.483016
-0.926145
0.696707
-0.706656
-0.845943
-0.517808
-0.820246
-0.197913
0.507859
0.519211
-0.440352
-0.165502
-0.039399
0.311502
-0.671621
0.298379
-0.362285
0.937498
-0.111423
-0.927244
0.641041
-0.126255
-0.536180
0.527024
-0.257363
0.164281
-0.158910
-0.456893
0.566881
-0.875240
-0.492172
0.355144
0.322733
0.394696
0.745964
-0.482894
0.149998
-0.850642
-0.755058
-0.687674
0.140904
-0.715018
-0.201758
0.916990
-0.899777
0.388287
0.642445
-0.370525
0.105991
-0.695791
0.005036
-0.520432
-0.066561
0.114170
-0.579272
-0.471969
-0.594775
-0.664296
-0.619678
-0.829340
0.729240
0.158849
-0.126133
0.758965
0.887448
0.528733
-0.609363
0.848811
-0.861507
0.889401
0.939512
0.391705
-0.304605
0.399823
0.650075
-0.820856
-0.358196
-0.565111
-0.480514
0.853633
-0.850948
-0.815363
-0.134312
-0.201758
0.056673
0.162938
-0.949828
0.218604
-0.121799
0.439436
0.033113
0.727409
-0.704337
-0.593799
-0.677419
0.746391
0.204993
-0.107578
-0.118564
0.036897
0.374126
0.439009
-0.447188
-0.328410
-0.222694
0.545701
0.568712
-0.239601
0.667898
0.703909
0.702261
0.242714
0.451216
0.026460
-0.372662
0.058565
-0.578661
-0.711844
-0.952086
-0.988769
0.423688
0.188696
0.159215
-0.366497
0.505112
0.650563
-0.996948
-0.629261
-0.384259
0.964904
-0.718802
0.392499
0.423688
0.597522
-0.812983
-0.654225
0.305094
0.467330
-0.179662
0.362224
-0.426557
0.510117
-0.254189
-0.368755
-0.991211
-0.660146
-0.740898
0.852901
0.750664
-0.179601
0.922361
-0.118870
-0.383587
-0.640553
-0.068941
-0.127903
0.908750
0.738029
0.876766
-0.752312
-0.227454
0.287515
0.465499
-0.210913
0.166540
-0.773247
0.756767
-0.829279
0.509690
0.971862
0.483566
-0.751152
0.066073
0.231056
-0.982116
0.416242
-0.868954
0.697745
0.542955
-0.664174
-0.919919
-0.847285
0.994140
0.365825
-0.656362
0.790094
-0.666616
-0.011567
-0.629688
-0.422590
-0.282632
0.555589
0.640675
0.464400
0.122288
0.662832
0.794733
-0.748955
-0.011078
0.465194
0.934507
0.928831
0.449446
-0.753105
0.165746
0.306681
-0.301248
-0.442915
0.439558
-0.264748
-0.927183
-0.775201
-0.241981
-0.259255
0.396588
-0.434614
0.805109
-0.618580
0.163732
-0.909482
-0.933897
0.139866
-0.888485
-0.965026
-0.501999
0.162023
0.752068
0.012055
-0.187536
0.657277
-0.576891
0.110569
-0.564501
-0.729667
-0.578356
-0.254372
0.204932
0.239357
-0.219031
-0.424116
-0.131687
0.150182
0.255715
0.799677
0.444929
-0.897580
-0.924497
0.142552
0.512925
0.096896
0.031831
0.848811
-0.515000
0.459029
-0.541917
-0.010834
0.934874
0.109348
0.667776
-0.602039
-0.963256
0.494613
0.411481
0.550707
-0.818720
0.991272
0.916318
0.696646
0.828730
0.594104
0.069796
0.556993
-0.336100
-0.297220
-0.689322
0.902524
-0.886044
-0.181616
-0.210669
0.322245
0.291787
-0.037629
0.360149
-0.504013
0.428144
-0.368877
-0.031465
0.283914
0.854060
-0.902158
-0.005036
0.944029
0.597034
0.874996
-0.881649
-0.208106
0.652638
-0.851619
0.261940
0.614063
0.994629
0.998291
0.182775
0.147374
-0.614490
0.215857
-0.730461
0.938292
0.050874
-0.468307
0.108737
-0.107883
-0.721000
0.066256
0.383465
-0.172277
0.009308
-0.185095
0.666738
0.347392
0.470931
-0.018281
0.671621
-0.663747
0.935118
0.972655
0.521104
-0.596973
-0.356914
0.861690
0.599780
0.574511
-0.027375
0.141881
0.550218
-0.443403
-0.095370
-0.425459
0.976562
0.874203
-0.146336
0.947996
0.417035
0.202368
-0.075777
-0.440657
-0.850887
-0.798212
0.654775
0.231483
0.389080
0.170324
0.313272
-0.322794
0.448164
-0.176794
0.805353
-0.975585
0.408979
0.515488
-0.741386
-0.687002
0.883297
0.217261
-0.654714
-0.222694
0.414777
-0.443464
-0.594653
-0.273354
-0.911618
-0.760063
-0.566881
-0.164830
-0.089938
0.165441
-0.010346
-0.344890
-0.482894
-0.461348
-0.896664
-0.835505
0.784600
-0.694082
0.221534
-0.836482
0.887692
0.215979
-0.725333
0.329752
-0.615833
-0.176977
-0.082369
-0.252907
-0.121250
-0.256081
-0.992370
0.719596
-0.168493
0.481796
-0.615711
0.682485
0.074435
-0.872005
0.012299
-0.976073
0.596118
0.256569
0.550035
-0.370647
0.159642
-0.678823
0.406354
-0.039644
0.314554
0.869991
-0.651601
-0.517930
-0.634449
0.888058
-0.277444
-0.749748
0.861263
-0.417951
-0.648915
-0.528916
0.164647
-0.081332
-0.832881
0.846126
-0.331767
0.229163
0.650502
0.514756
0.216224
0.193091
-0.873165
0.407392
-0.704093
0.513230
-0.007538
0.820551
-0.438276
-0.405194
-0.072604
-0.972533
0.253029
-0.459395
0.159337
-0.263161
-0.930174
0.775445
-0.159154
-0.789605
-0.932798
-0.388592
0.602527
-0.145360
0.132176
0.068148
0.343852
-0.903256
-0.394879
0.258278
-0.674429
-0.641346
-0.391888
0.652455
0.624989
0.940977
-0.357097
0.535630
0.016816
0.629444
0.020600
-0.032563
-0.657155
-0.162694
0.686453
-0.441328
0.432112
-0.905637
-0.998962
-0.623341
-0.366070
0.696951
-0.958434
-0.707572
0.027802
0.329814
-0.015107
0.081576
-0.629749
-0.525987
0.134739
-0.408979
0.843623
-0.587939
0.156835
-0.714164
0.667226
0.642750
0.082797
-0.513718
-0.364849
0.519517
-0.353801
0.609546
0.641530
0.923399
0.513657
0.727287
-0.743034
0.783685
-0.027924
0.752861
-0.581286
-0.740837
0.636525
-0.430952
-0.704581
0.391217
-0.261086
0.410504
-0.608570
-0.957091
0.562365
0.811945
-0.048860
0.935179
-0.418378
-0.564379
-0.273171
0.593371
-0.126133
0.090365
-0.827754
0.016572
0.360881
0.253883
0.124546
-0.118137
-0.553941
0.412152
-0.963073
0.096286
0.608570
-0.472579
-0.175451
-0.491073
0.516526
0.947508
-0.613697
-0.403912
-0.777093
0.069124
-0.135166
-0.069246
-0.994446
0.067904
0.707327
0.250710
-0.585803
-0.993469
0.589404
0.935911
-0.913083
0.635426
0.265358
0.709098
-0.100558
0.195959
0.405866
-0.628468
0.007660
-0.458419
-0.512803
0.386090
-0.651723
0.886532
-0.206641
-0.879452
0.158544
-0.503403
0.593982
-0.436079
0.077975
0.634205
0.560595
-0.672414
0.394696
-0.931578
0.483688
-0.256081
0.998840
0.465926
0.353069
0.875851
0.605396
0.971557
-0.135960
0.247902
-0.190649
0.293741
0.411603
-0.886410
-0.465133
0.606250
-0.364360
-0.930296
0.441939
0.578600
0.579577
0.830866
-0.147740
0.847896
0.524339
-0.022980
-0.242347
0.244728
-0.438948
-0.514206
0.472274
-0.914487
-0.035737
-0.137364
-0.507859
0.843501
0.428510
0.681326
0.124912
0.511338
0.230689
0.346355
-0.549608
0.967528
-0.619434
-0.108310
0.176611
-0.340617
-0.177404
-0.373943
-0.047639
0.914731
-0.249977
0.439131
0.699759
0.194983
0.095859
0.579882
-0.471847
-0.397504
-0.738639
-0.279702
-0.206519
0.953673
-0.854305
-0.882931
-0.136448
-0.268471
0.538865
-0.317179
0.153905
0.229896
0.939879
0.780389
-0.005036
-0.799738
0.864132
-0.447981
0.894284
0.316691
-0.299112
-0.403241
-0.244911
0.768487
-0.815851
0.807245
0.615406
0.294412
-0.460494
-0.820429
0.468062
-0.028413
0.369060
0.408612
-0.273965
-0.930296
-0.662832
0.079989
0.894711
-0.715079
0.719718
0.273537
0.013092
0.664846
0.878842
-0.611744
0.427961
0.537400
0.725944
-0.996765
-0.538194
-0.243568
0.235817
0.585742
-0.461837
-0.424238
-0.926206
-0.140599
0.326395
-0.535081
0.398724
-0.354106
-0.531602
-0.821284
-0.095981
0.990661
0.450179
-0.606738
-0.839961
-0.613392
-0.820246
0.220862
-0.680715
-0.091037
-0.164220
-0.083773
0.247291
0.071017
-0.453352
-0.913205
-0.857784
0.216651
0.465682
0.719352
-0.294717
0.259438
0.802057
-0.664785
-0.076571
0.582568
-0.627735
-0.412091
-0.470504
-0.089084
-0.767083
-0.387005
-0.801080
-0.031220
0.958495
-0.553758
0.548631
-0.265297
-0.874386
-0.180822
0.998230
-0.892880
0.567797
-0.353313
0.557482
0.791925
-0.039033
-0.481124
0.601978
0.225806
-0.695303
-0.491501
-0.300455
0.346965
0.859676
0.607959
0.549913
-0.974120
0.105014
0.107150
-0.899777
-0.030793
0.277688
0.226173
-0.101291
0.908017
-0.943907
0.313150
0.749382
-0.115452
0.951476
-0.077914
0.729606
-0.551378
-0.032563
-0.918638
0.634022
-0.423139
0.093295
-0.933409
-0.093783
-0.873043
0.190405
-0.010163
-0.878536
0.639821
0.836604
0.517319
0.082614
0.301370
-0.310770
0.029084
0.591968
-0.122044
0.931272
0.532334
-0.039094
0.435835
-0.639149
0.640980
0.321329
0.658864
0.688955
0.934507
-0.200903
-0.423444
0.605518
-0.992248
0.614185
0.514328
0.178442
-0.474654
0.168859
0.078890
0.146702
-0.408551
0.186377
0.991943
-0.329264
0.749504
-0.036531
0.583239
0.101962
-0.077486
0.798029
-0.243263
-0.665212
0.608142
-0.344462
0.242103
-0.697195
0.639088
-0.863887
0.942930
0.182409
-0.176489
-0.195166
-0.803522
-0.134739
-0.223975
-0.052278
-0.244972
0.263771
-0.747002
0.816156
-0.697378
-0.990051
-0.695914
0.422163
-0.680166
0.112644
-0.447066
-0.053133
-0.891781
0.132786
-0.081210
-0.175512
-0.212256
-0.558092
-0.907285
-0.434858
-0.920774
-0.875301
0.079562
0.377911
-0.315531
-0.911496
0.119114
0.657582
-0.923582
-0.057405
-0.701224
-0.603320
-0.487533
0.209143
-0.830012
-0.413251
0.082003
-0.570788
-0.319010
0.669057
-0.397443
0.725333
-0.261330
0.099643
0.175756
-0.616321
-0.288247
-0.910276
0.215613
-0.981323
-0.812189
0.584704
0.762322
-0.118381
0.296793
0.543199
-0.106235
0.876583
-0.086520
0.580309
-0.953001
-0.154271
-0.948912
-0.964049
0.062471
-0.313028
0.759270
0.532151
0.763115
0.865841
0.837886
-0.920042
-0.118381
-0.115818
0.680349
0.801263
-0.852412
0.269265
0.557787
-0.675222
-0.652638
-0.356243
0.657582
-0.078219
0.168615
-0.558702
0.187841
-0.558947
0.643605
0.828303
-0.138585
0.108737
0.001312
-0.604541
0.070528
0.252724
-0.256569
0.182104
0.066134
0.015900
0.754692
-0.406354
0.452925
-0.879818
0.260964
-0.222755
0.313883
0.743583
0.448164
0.016511
-0.724357
0.573107
-0.447310
0.708304
-0.171422
-0.903684
-0.761834
0.483932
0.212134
0.193091
-0.930906
0.037873
-0.819880
0.091037
-0.105197
-0.774834
0.957274
-0.253456
0.956236
0.991943
-0.301431
0.714408
0.527879
0.699210
-0.233070
-0.432478
0.907163
0.405011
-0.862178
0.931028
-0.435896
0.665090
0.246864
0.190588
-0.736259
-0.584216
-0.409955
-0.059053
0.973510
0.502182
0.391583
-0.766655
0.368206
-0.587939
-0.350444
-0.312235
-0.254433
0.780633
-0.126194
-0.470260
0.164220
-0.773858
0.827021
-0.383648
-0.383587
0.081393
-0.416974
0.512436
0.049165
-0.419538
0.213294
0.680410
-0.955138
-0.933103
-0.584948
0.845759
0.975219
0.782525
-0.606372
0.600635
-0.560656
-0.198828
0.310770
0.308512
-0.199011
-0.329875
-0.388104
0.372234
-0.365764
0.320048
0.545335
0.927061
-0.106723
-0.192663
-0.815668
0.023103
0.616504
0.451643
0.267006
-0.642384
-0.021516
0.929136
-0.836299
-0.378765
0.502243
0.886654
0.286721
0.519456
-0.755974
-0.363140
-0.746452
-0.467208
-0.236671
-0.501389
-0.883419
0.477584
0.690359
-0.656178
-0.028047
-0.070101
0.703909
0.914304
0.259316
0.575610
0.731864
-0.529710
-0.934080
-0.451704
-0.813227
-0.666189
-0.252907
0.818476
-0.950865
-0.111057
0.175207
-0.304666
0.610523
0.601306
-0.069308
0.505234
0.690054
0.620167
-0.253639
-0.492416
0.135289
-0.475265
-0.481429
0.112156
0.421430
0.777398
0.197058
0.459029
-0.840022
0.446699
-0.134007
0.425153
-0.669240
0.762383
-0.670278
0.118320
0.048555
-0.935545
-0.486068
0.922788
-0.322367
-0.289590
-0.003754
-0.842891
-0.893490
-0.499619
0.978271
-0.590991
-0.004791
0.185949
0.011261
-0.392438
-0.192297
0.622120
-0.211341
0.896359
0.442061
0.127537
0.316874
0.370220
0.270730
-0.387005
-0.222083
-0.262185
0.403424
0.043367
-0.603809
-0.028108
0.985412
0.792474
0.620899
-0.989135
0.342998
-0.543504
-0.062105
0.573534
0.789605
-0.314005
-0.376690
-0.850703
-0.095737
0.600269
-0.250038
-0.772393
-0.904477
0.346049
-0.238685
-0.173376
0.262490
-0.636586
0.923765
0.386639
0.366558
-0.078402
-0.029817
-0.911557
0.725700
-0.514328
-0.751885
-0.339702
0.843562
0.479171
-0.316507
-0.264321
-0.413373
0.002716
-0.126255
0.823847
-0.478500
0.072726
-0.377850
0.957091
-0.775689
-0.058199
-0.773492
0.075350
-0.623829
-0.935972
0.833552
-0.787835
-0.544603
0.266945
-0.827570
-0.456160
0.840632
-0.306803
-0.019562
0.364177
-0.864132
-0.925779
-0.568957
0.047334
-0.468368
0.898618
0.880184
-0.937620
0.012665
0.037080
0.239723
-0.899960
0.226600
0.387555
0.293741
-0.624378
0.825007
0.101718
-0.732292
0.170690
-0.910459
-0.043550
-0.035249
0.674612
-0.343852
0.432295
0.780389
-0.809870
0.148473
0.061129
0.908689
0.764641
0.535020
0.606311
-0.947203
0.309244
0.020966
-0.362896
-0.048494
0.268960
0.287515
0.060030
0.034394
0.906552
0.891659
-0.830012
0.519333
0.261147
-0.361614
0.783502
-0.737358
-0.153722
-0.261818
-0.984191
-0.322977
-0.852107
0.562426
-0.733940
0.027131
0.986084
-0.191870
0.971191
-0.582507
0.802179
-0.113681
-0.308145
-0.216224
-0.065279
0.345134
-0.906369
0.200720
-0.054292
-0.859737
0.384564
0.818903
0.060152
0.566088
-0.227760
0.742790
0.781915
0.659169
-0.496689
-0.837031
-0.252968
-0.113010
-0.952635
0.054720
0.878719
-0.065523
-0.012299
-0.244850
0.904782
0.400189
-0.818354
-0.267922
0.301431
0.215796
-0.246864
-0.143040
0.725150
-0.399640
0.479720
0.493637
-0.004608
-0.637684
-0.863826
0.716666
0.690359
-0.638417
0.358745
0.970397
-0.581103
0.944456
-0.410199
-0.517197
0.830561
-0.836665
-0.331156
0.744865
-0.573901
-0.404950
-0.371136
-0.630909
-0.768120
-0.432295
0.263405
-0.359966
0.399579
0.611805
0.025117
0.067721
0.794244
-0.054598
-0.180944
-0.741630
-0.366680
-0.192236
0.252907
0.413678
-0.761040
0.452559
-0.093478
0.771111
-0.034394
-0.386212
0.184118
-0.701102
0.366802
0.257302
-0.689688
0.956969
-0.338359
-0.570544
-0.966308
0.836421
0.565600
0.016327
0.599658
0.491379
-0.453658
0.225135
-0.444929
-0.226051
0.568285
0.601367
-0.051668
0.485763
-0.612537
-0.606922
-0.514878
-0.841426
0.460433
0.075777
0.205176
-0.723807
-0.471969
-0.150548
0.239784
0.250404
-0.061678
0.921262
-0.785516
-0.537156
-0.230567
-0.614551
0.859127
0.686758
-0.183447
-0.486007
-0.613758
-0.801263
-0.496017
0.269265
-0.797052
0.896115
0.786065
-0.148045
0.516282
-0.271096
-0.901975
-0.902768
0.395978
0.762444
-0.578417
-0.469405
-0.143223
-0.820429
0.524583
0.895993
0.522935
0.538926
-0.559923
-0.029939
-0.563402
0.597217
-0.753960
-0.526780
-0.425764
0.012360
0.207862
0.891415
0.631520
0.237220
-0.652821
0.019990
-0.358928
-0.082980
0.498764
-0.956664
-0.015595
0.103610
-0.082064
-0.038179
0.360820
-0.401410
-0.498093
-0.821223
0.275857
0.737663
0.686270
0.060518
-0.387860
0.928648
-0.920347
-0.718802
0.844295
0.256874
0.900571
-0.234474
-0.539232
0.468184
-0.724845
0.041536
-0.843867
-0.355571
-0.536912
0.815790
-0.645741
-0.117832
-0.929807
0.584338
-0.373394
0.288125
0.312540
-0.909238
0.567675
0.603320
0.393292
0.444685
-0.310526
-0.230934
-0.943602
0.712760
-0.101352
0.746208
-0.622852
-0.205298
-0.882382
-0.098727
0.854610
0.397748
0.613086
0.271401
0.866695
-0.080050
0.593616
-0.979553
-0.448469
0.057405
0.639943
0.399457
0.176733
-0.054048
-0.470626
0.523057
0.059481
-0.349406
0.016999
-0.725028
0.100070
-0.184851
-0.862911
-0.344707
-0.008942
0.284707
-0.414045
-0.119236
-0.835078
-0.487045
0.749504
0.552538
0.542161
-0.432600
0.937803
0.201819
-0.857112
0.544725
-0.610462
-0.472152
0.624622
-0.791681
-0.392071
-0.360759
-0.192969
-0.337992
0.591540
0.611682
0.249306
0.870296
-0.478133
-0.325297
0.939207
0.839473
0.470992
-0.659841
-0.841304
0.271096
0.690298
0.784112
-0.411969
-0.499130
-0.955138
0.795038
0.709891
-0.465011
0.154210
-0.398297
0.577197
0.996460
0.802362
-0.108188
-0.992981
-0.205542
0.180639
0.334574
0.262429
-0.671316
0.524583
-0.080294
-0.715323
0.041353
-0.292276
0.426008
-0.460067
0.129368
0.355449
-0.669912
-0.459761
0.228980
-0.959960
0.470199
0.104099
-0.114048
0.121555
0.775750
-0.583178
0.623157
-0.206030
0.375896
-0.045015
-0.581835
0.902768
0.399884
0.336100
-0.595935
0.092929
-0.219337
0.156590
-0.395367
-0.147557
-0.624561
0.881161
0.517869
