0.832392
0.568773
-0.071749
-0.583850
-0.564013
-0.622059
0.191137
0.903745
-0.898434
-0.874691
-0.670278
0.505905
0.760491
0.193701
-0.334696
-0.150182
0.758904
0.861751
-0.590320
0.156285
0.865108
0.532701
-0.770867
-0.201331
-0.157201
0.263955
0.905698
-0.431318
-0.096347
0.659780
-0.091586
0.211951
0.351054
0.190100
0.688284
-0.204749
-0.272378
-0.002716
0.506577
-0.531419
0.779778
0.253639
0.612781
-0.815851
-0.449934
0.132786
0.581103
-0.064974
0.912351
0.455855
0.620655
0.075228
-0.140538
-0.923093
-0.329814
0.285562
0.858638
0.068697
0.091037
0.744926
0.584277
0.771416
0.769463
-0.927366
0.343913
-0.232215
-0.557543
0.601856
-0.493515
-0.153600
0.058199
-0.452620
0.248085
-0.984802
-0.015656
0.631886
0.926084
-0.371075
0.876278
-0.270486
0.394635
0.692068
0.018403
-0.906247
0.574755
-0.599963
-0.049776
-0.272073
-0.410321
0.981567
-0.809626
0.464217
0.780328
0.903256
-0.129490
0.310953
-0.088961
0.501572
-0.908200
-0.366802
-0.119541
0.101718
-0.182714
0.726615
-0.752617
0.687857
0.110996
-0.650624
-0.113010
0.186621
0.537706
-0.226966
0.087252
-0.573595
0.535142
0.915464
0.400006
-0.165319
-0.428205
0.118625
0.558031
-0.063509
-0.098361
0.133213
0.771477
0.715995
0.729667
-0.127354
-0.284951
0.903623
0.599658
0.499252
0.519883
0.251869
-0.182470
-0.594897
-0.919126
-0.138157
-0.278237
-0.350261
-0.006012
-0.377300
0.614673
-0.582568
0.434004
-0.172704
-0.834529
-0.943602
-0.713187
-0.974303
-0.900327
0.262795
-0.151952
-0.819758
-0.015107
0.971313
-0.599902
0.182775
-0.072604
0.515976
-0.018891
0.798578
0.991882
0.622303
-0.342265
0.098178
-0.844966
0.794305
0.614307
0.440107
-0.391827
-0.341533
-0.629566
0.066622
-0.780999
0.827448
-0.558824
0.375713
0.966674
0.845332
-0.250465
-0.069246
0.161534
-0.221961
-0.893185
0.271828
-0.737114
0.010163
0.070956
-0.410749
-0.893124
-0.188208
0.496689
-0.676260
-0.643178
-0.762749
0.089450
-0.245582
-0.011444
0.918149
0.275796
-0.362102
0.624195
-0.686514
0.702567
-0.039766
-0.474960
0.979980
0.677725
0.865047
-0.941832
-0.576769
0.864742
-0.180212
-0.552965
-0.905454
-0.456282
0.082858
-0.379009
0.093966
0.751396
-0.466414
0.973754
0.143468
0.611988
0.928831
0.845454
-0.608509
-0.827143
-0.353130
-0.460738
0.613025
0.056124
-0.016877
-0.313700
0.365337
-0.761284
0.057894
-0.230384
-0.335368
-0.725150
0.401349
0.622181
-0.256203
0.271523
0.275369
0.708914
-0.544969
-0.069185
0.797296
-0.993164
-0.120457
-0.028901
0.926389
-0.704154
0.706656
-0.760552
-0.624073
0.671010
-0.055086
0.828486
0.514328
0.090915
-0.472091
-0.491501
-0.684011
-0.226478
0.376995
0.790033
-0.573412
-0.747978
-0.516526
-0.073458
-0.597034
0.903378
0.573107
0.171606
-0.807611
0.761895
0.914731
0.602466
-0.088168
-0.569201
-0.163854
0.822382
0.990783
0.903989
-0.490280
0.854427
-0.260109
0.109531
-0.430219
-0.460921
-0.592090
0.989624
0.124180
-0.251320
0.789483
-0.072604
0.723930
-0.269997
-0.554369
0.334086
-0.148961
0.889096
-0.399030
-0.791253
0.489731
-0.670888
0.778619
-0.516587
0.341166
-0.544298
0.235572
0.965636
0.245399
0.960082
-0.737602
-0.308939
-0.626453
-0.505783
0.407819
0.499252
0.751030
0.350200
-0.308390
0.644093
-0.324137
-0.545152
0.868831
-0.748161
0.594104
0.994751
-0.193030
0.440107
0.994385
-0.018708
0.038789
0.908078
-0.115146
-0.929258
-0.446211
-0.186438
-0.585437
-0.049959
-0.110019
-0.253578
-0.798395
0.601428
-0.410504
0.612720
-0.068697
0.759209
-0.920530
-0.758843
-0.214087
0.869686
-0.958495
0.525498
0.269265
0.867794
-0.668142
0.913511
0.988037
0.082675
0.514939
0.056856
-0.046968
0.584582
-0.927671
-0.566576
0.962096
-0.714347
0.350627
-0.245277
0.627674
-0.892697
0.309305
-0.028901
0.611560
0.526231
0.132664
-0.313089
-0.371136
-0.188208
0.767083
-0.201392
0.784478
-0.732109
-0.553575
-0.832453
0.803400
-0.209387
-0.731010
0.141270
0.718741
-0.945128
-0.113498
0.733757
0.579089
-0.357219
0.370159
0.279397
-0.262490
0.425581
0.314066
0.371807
-0.714408
-0.487838
0.239967
-0.100192
0.194433
0.076754
-0.635060
-0.005646
-0.275491
-0.622852
-0.204749
-0.302591
-0.331095
0.277932
-0.792291
0.166540
0.989624
-0.410810
-0.917051
0.226661
0.411664
0.534959
0.551012
-0.917539
-0.462996
-0.337809
0.913083
-0.996887
0.039705
-0.495529
0.901608
-0.207739
-0.493942
-0.688528
-0.258889
-0.144627
-0.518052
-0.842219
0.072176
-0.321940
0.289102
-0.257118
-0.198706
0.526048
0.174230
-0.805048
0.939146
0.181005
-0.648183
-0.808405
0.489242
0.523728
0.504868
-0.291177
-0.549608
0.777520
0.303995
0.711722
0.994629
-0.775689
-0.490097
0.099155
-0.116672
-0.794000
0.219275
0.214759
0.184301
0.223060
-0.181616
0.236671
-0.647694
-0.056429
0.205847
0.759087
-0.265175
-0.064669
-0.152379
-0.122959
-0.433210
0.932188
-0.773431
-0.911313
0.515488
0.448897
-0.751274
0.325114
-0.160985
0.555528
-0.830561
0.422712
0.220740
0.625111
-0.398419
0.348796
-0.658315
0.865596
-0.832209
-0.506088
0.253700
-0.549486
0.360454
0.343120
0.616138
-0.941038
-0.829463
-0.161718
-0.141820
-0.361370
0.049104
0.744621
0.329630
-0.796197
0.762749
-0.666433
-0.497971
-0.518784
0.706351
0.694815
-0.716300
0.215979
-0.764519
-0.011078
-0.490097
0.950011
-0.419050
0.954955
-0.328227
0.085849
0.906919
-0.016511
-0.054231
0.048067
0.077425
-0.930540
-0.413373
0.354839
-0.308451
-0.044343
-0.254067
-0.588122
-0.048982
0.780450
0.778863
0.842036
0.921690
-0.457930
-0.898129
-0.837825
0.753105
-0.308512
-0.335978
0.620533
0.416730
0.166845
-0.906919
0.006134
0.526597
-0.818171
-0.418928
-0.755791
0.804193
0.080416
0.569689
0.588549
-0.249001
0.570482
0.299661
0.224219
-0.910337
-0.351238
0.285379
-0.906613
0.538133
-0.469955
0.778253
0.755608
-0.522629
0.892331
0.280313
-0.904172
-0.922971
0.751152
-0.828303
-0.306436
-0.559923
-0.724784
0.513718
-0.336772
-0.670461
0.856136
0.089572
-0.219337
-0.960143
-0.255837
0.747002
-0.293008
-0.024567
-0.436628
-0.896847
0.122715
-0.501816
-0.982299
-0.323832
0.584155
0.607898
-0.898679
0.504013
0.915586
-0.983764
0.125095
-0.684988
0.948668
-0.821345
-0.127659
0.311319
0.421979
-0.154820
-0.804559
0.627796
-0.146580
0.693533
0.366985
0.529893
0.197668
0.606677
0.496811
0.411786
0.101413
-0.842524
-0.671926
0.657949
0.568346
-0.137059
-0.274880
-0.569445
-0.152623
0.770135
0.164647
0.445051
0.355815
0.937254
-0.456404
-0.203528
0.449690
0.370952
-0.383953
-0.100436
0.854976
-0.015900
-0.628712
-0.396344
0.571276
-0.865413
0.666066
0.546922
0.060152
-0.690298
-0.577380
0.810602
0.531846
-0.483627
-0.293252
-0.062960
-0.858394
-0.057833
0.996155
0.373211
0.909116
-0.552782
-0.047029
-0.597522
-0.827631
-0.548326
-0.986450
0.627491
-0.609729
-0.220618
-0.894101
-0.934080
0.104404
-0.978698
0.809259
0.922422
-0.126072
0.981506
-0.732536
0.098239
-0.004486
-0.233375
-0.831294
0.502609
-0.178808
-0.916196
-0.895749
0.226173
0.485763
0.306681
-0.381817
0.641346
-0.142369
0.874081
0.261696
0.490219
0.524033
-0.416364
-0.036775
0.023347
-0.375408
0.341960
0.027863
-0.747734
0.344646
0.933958
0.078036
-0.622669
-0.118992
0.375103
0.247963
-0.546129
-0.306253
-0.592334
-0.055391
-0.640736
0.854671
-0.295877
0.487899
-0.876583
0.306253
0.339763
-0.058504
-0.315287
0.843867
-0.902097
-0.551317
-0.865596
0.631947
-0.830500
-0.616749
-0.488083
-0.930906
0.809137
0.630543
0.213111
0.812433
0.511460
-0.690970
-0.925413
0.774712
-0.730827
0.246559
-0.803644
-0.092685
0.475570
-0.477889
0.564806
0.579943
-0.966063
-0.612720
0.539476
-0.628895
0.237281
-0.121311
0.265481
0.081149
-0.021210
0.434431
-0.926145
0.779839
0.858150
-0.173070
-0.066500
-0.297220
-0.256081
-0.275124
0.015168
-0.192969
-0.644032
0.196142
-0.567492
0.799554
-0.570177
0.465072
0.220679
0.451033
0.025300
-0.764153
0.615711
0.007355
0.542589
-0.105075
0.697439
-0.488998
-0.992553
0.904843
0.458296
-0.154637
-0.811151
0.701773
0.359966
-0.686209
0.110996
-0.590075
-0.559069
-0.432844
-0.478195
0.684439
-0.962096
0.690420
-0.117954
-0.004364
-0.817927
0.262734
0.435713
0.667653
-0.265664
0.202490
-0.075289
-0.017304
-0.679006
0.209693
-0.488266
0.665517
0.132969
-0.381024
0.471175
0.057405
-0.349528
0.474960
0.213233
0.296121
-0.643727
-0.357341
-0.798029
-0.189489
-0.500412
0.766289
0.330790
-0.554735
-0.026704
-0.113193
-0.683279
-0.473617
0.366802
-0.466109
-0.322245
-0.819208
-0.742546
-0.898495
0.853999
0.222205
-0.197546
0.322123
-0.964415
0.916318
-0.305765
-0.349467
-0.738395
-0.063326
0.541673
0.370708
0.349040
-0.174596
0.739250
0.237587
-0.782464
0.269387
0.887326
-0.533494
0.171300
0.505966
-0.174352
0.883053
-0.300455
-0.830195
0.342570
-0.954894
0.359844
0.893857
0.622486
0.150670
0.305643
-0.023713
0.494003
-0.457564
0.021088
0.427107
0.541917
0.623768
0.824763
0.705191
-0.855953
-0.003937
0.706290
0.460067
-0.502487
0.632130
0.056673
-0.410260
-0.305643
-0.103061
0.856441
0.927488
-0.088107
0.228431
-0.117466
0.869686
-0.222144
-0.708914
-0.502182
-0.741691
-0.025666
-0.585253
0.585009
0.829463
-0.857784
-0.869137
-0.812799
-0.459822
0.149022
0.619251
-0.581225
0.087924
0.782464
-0.123142
0.207251
-0.067049
0.932432
-0.577380
0.430708
0.137425
-0.676443
0.349101
0.011567
0.333354
-0.138646
-0.465194
-0.469771
0.132298
0.653615
0.828913
-0.079501
0.288491
-0.229286
0.021332
0.809687
-0.071383
0.806330
0.410260
-0.934141
-0.839656
0.301370
0.780084
0.114475
-0.627369
0.093966
0.601550
-0.413190
0.539598
0.657765
0.267739
-0.136387
-0.159520
0.490341
-0.823054
-0.925230
0.909665
-0.384014
-0.523606
-0.880245
0.026643
0.263283
0.278176
0.268899
0.561022
0.781549
0.160253
0.909909
-0.016694
-0.142247
0.765801
0.001251
0.754936
-0.903073
-0.688284
0.795221
-0.590625
-0.971679
0.820978
-0.607593
-0.862300
0.599719
-0.111362
0.691763
0.189795
-0.777581
0.797052
-0.703482
-0.595141
-0.569811
-0.209815
-0.059359
-0.816095
-0.787164
0.321024
0.996643
-0.785089
0.089328
-0.916013
-0.371746
-0.734550
-0.019379
-0.354839
0.150121
0.353618
0.946532
-0.517624
0.156713
0.610767
0.847774
-0.751579
-0.016144
-0.852107
0.997131
0.069002
0.064119
0.238441
0.860286
-0.311686
-0.260231
-0.869869
-0.129124
-0.724662
0.094882
-0.201880
-0.579211
-0.297891
0.369854
-0.047945
-0.910825
-0.892514
0.520005
-0.390423
0.171545
0.558702
-0.518418
0.548753
0.573107
-0.377483
-0.292642
0.951842
0.126988
0.659963
-0.466536
0.552965
0.401227
-0.344951
-0.057894
0.602283
0.056612
0.392315
-0.720023
-0.041108
-0.182592
-0.206214
0.497116
-0.374554
0.118076
-0.771416
0.467147
-0.963622
-0.511521
-0.391766
-0.047273
0.412641
0.739616
-0.920896
-0.222449
0.495163
-0.987548
-0.874752
-0.232154
-0.029756
0.753166
-0.106235
0.026215
-0.101657
-0.324198
0.555467
-0.900327
-0.540635
0.776849
-0.486984
0.605274
0.327189
0.461653
0.269753
0.874325
-0.015107
-0.151952
-0.229957
-0.820429
-0.705252
-0.692618
-0.973876
-0.893307
0.634083
-0.693655
0.841792
0.632252
-0.089999
-0.387310
0.446211
-0.528428
0.766045
-0.074007
-0.149144
-0.740654
0.291910
-0.002899
-0.258583
-0.876766
0.550645
0.298685
-0.282998
0.215979
-0.766411
-0.692007
0.690115
-0.233985
-0.242286
0.466842
0.258583
0.210913
0.116245
0.878353
0.863643
-0.025422
0.795892
0.805963
-0.455733
-0.547777
-0.926878
0.034455
-0.896725
0.764397
0.001801
0.157689
-0.505478
0.842830
-0.595874
0.853999
-0.753410
0.411725
-0.820856
-0.787469
-0.266823
0.425153
0.239113
0.173437
0.104099
0.524339
-0.612232
-0.857295
-0.311075
-0.922910
-0.547594
0.846431
-0.314371
-0.638539
0.982604
-0.515122
0.947020
-0.543077
0.826960
0.250893
-0.322855
0.404462
-0.097324
-0.726981
-0.149266
0.198950
-0.532090
0.047578
0.167272
0.176550
0.210730
-0.578722
0.353069
-0.641713
-0.532701
-0.812738
0.623646
-0.686209
0.881405
0.356792
-0.881954
-0.893185
-0.182409
0.169042
-0.880428
0.885189
0.841060
0.902280
0.872677
-0.321940
0.576098
0.547655
-0.189123
-0.037385
0.256325
0.409162
0.007843
0.562609
-0.721366
-0.308267
0.662099
0.441633
0.073519
0.140233
0.430769
0.953429
-0.395856
0.791498
-0.577074
-0.888546
-0.192541
-0.097568
-0.334208
-0.558824
0.288369
0.116306
-0.144505
0.975768
-0.419233
-0.070345
-0.793573
0.959777
0.287820
-0.477157
0.210059
-0.177831
0.412702
0.015778
-0.883358
0.981140
0.194250
0.212745
-0.047823
0.043367
0.758293
-0.102878
0.882626
0.960936
-0.101718
-0.259682
0.738945
-0.293069
-0.702689
0.885617
0.514145
-0.966185
0.503891
0.270669
-0.354289
0.875973
-0.026154
0.751213
-0.103854
-0.041169
0.492050
0.087130
0.642689
-0.821039
-0.715506
-0.144871
0.390667
0.314371
0.135105
0.349284
0.321268
0.630726
-0.181799
0.532456
0.687796
0.943907
0.160680
-0.899167
-0.129124
-0.297830
0.044832
-0.275246
0.907712
0.650868
0.665822
0.527268
-0.694754
0.640858
0.354595
0.863460
0.952086
-0.855525
0.280984
-0.536363
-0.060640
0.041292
-0.653249
-0.998108
-0.894406
-0.765252
-0.415876
-0.847285
-0.884396
0.665151
0.369060
-0.801141
0.887692
0.277749
0.764885
0.252358
-0.819452
0.511765
0.306375
0.150975
0.153661
0.870907
-0.461715
-0.906552
0.711600
-0.861812
0.620106
-0.924558
0.446944
0.798578
-0.690664
-0.811945
-0.006806
-0.770135
0.637196
-0.156713
0.600024
0.227149
-0.413251
-0.013215
0.743828
-0.579516
-0.911008
0.361858
0.586291
0.150487
0.646840
0.886776
0.092380
0.362712
-0.099338
-0.792474
-0.378338
0.084994
0.448042
0.489425
0.804559
0.048189
0.229774
-0.491195
0.515976
-0.984863
-0.205420
-0.891476
-0.240333
0.378094
0.755791
0.079073
0.274636
-0.411115
-0.249123
0.527757
0.677175
0.983337
0.218848
-0.200842
0.950194
-0.437422
-0.694815
-0.991638
-0.906980
0.294656
0.209143
-0.749565
0.743828
0.496811
-0.715873
-0.452437
-0.413434
-0.136509
0.205542
-0.402387
-0.643056
-0.298929
0.516404
-0.614307
-0.743156
-0.068270
0.865108
0.721366
-0.407086
-0.570177
0.246925
0.764397
-0.550768
0.252358
-0.438215
0.601184
-0.791681
-0.672903
0.801019
0.934324
-0.268044
0.159581
0.175634
-0.051729
-0.985351
0.122410
0.498337
-0.587024
0.122776
-0.110752
-0.868038
0.088473
-0.769890
0.575610
0.817072
0.492660
-0.434614
-0.850887
-0.309671
0.094882
0.080721
-0.327677
-0.192236
0.997986
0.656301
0.939207
0.483505
-0.829402
0.652272
0.069491
-0.242286
-0.706290
0.620899
0.622120
0.306558
0.281838
-0.008454
0.790521
-0.895260
-0.456832
0.540391
0.243141
-0.843989
-0.959593
0.458296
-0.829707
0.601367
-0.784906
0.828364
0.100986
-0.480941
-0.163121
-0.673574
0.051241
-0.271096
-0.157811
0.957030
-0.432295
-0.087802
-0.777093
0.635914
0.227760
-0.638600
-0.971313
-0.565844
-0.840876
0.670644
0.544725
-0.706107
0.142125
0.680044
-0.291910
0.029511
-0.144627
-0.012848
-0.174902
-0.573351
0.829707
0.336589
0.651173
0.251198
-0.329325
0.201392
0.897092
0.981017
0.113987
-0.131870
0.223426
0.072604
-0.525681
0.338725
-0.214087
0.575915
0.052339
-0.639332
-0.606494
0.908628
0.060396
0.899350
0.342753
0.603931
-0.369121
-0.636647
-0.009674
0.842524
0.468551
0.897336
-0.873531
0.582995
0.710257
-0.947447
0.211463
0.102084
-0.446028
-0.850154
-0.462447
0.757683
-0.779656
0.645985
-0.619556
0.786737
0.807917
-0.183874
-0.800104
-0.048921
-0.393780
0.066439
-0.044954
0.843623
0.427900
0.186377
0.594409
-0.333781
0.522996
-0.143651
0.784906
0.294290
0.637989
0.721000
0.941343
0.437483
-0.218665
0.341533
-0.380902
-0.288491
0.259255
-0.660390
-0.666860
0.432417
0.542772
-0.954833
0.864437
0.945616
0.530015
-0.039705
-0.882260
0.303140
0.764946
0.352275
0.592822
0.100803
0.176061
-0.711783
-0.469283
0.287942
-0.103061
-0.576769
0.799310
0.762383
-0.268838
-0.144871
0.578539
-0.437056
0.824702
0.358257
0.909909
-0.527390
-0.892880
-0.691763
-0.828974
-0.156468
-0.933958
0.611377
0.539232
-0.542161
0.414411
-0.050630
0.504746
-0.764092
-0.783563
-0.345805
-0.501450
0.604663
0.032075
0.523667
0.695181
0.338725
0.643910
-0.109409
-0.946471
-0.313334
-0.071566
0.259255
0.659780
0.594714
0.434492
-0.179907
0.431806
0.840999
0.231178
-0.844111
-0.749077
0.892026
-0.412397
-0.547777
0.581103
0.294778
-0.952391
0.524033
-0.361248
0.415998
0.461287
-0.029145
-0.823176
-0.658071
-0.464583
-0.225929
0.943602
-0.249306
-0.532517
-0.352336
0.880184
-0.430403
0.222388
-0.544664
-0.880917
0.230384
-0.982482
0.006745
0.845576
0.334574
0.576952
0.545091
-0.914975
-0.458907
0.717277
0.238380
-0.521287
0.489975
-0.171361
-0.012421
0.110080
-0.427656
-0.187658
-0.136876
0.444441
0.361980
-0.961791
0.483322
0.444502
0.518479
0.883847
-0.353923
-0.075838
-0.023896
0.418195
0.527818
-0.796930
-0.769707
0.793085
0.760613
-0.875729
-0.466048
-0.097140
0.700919
-0.501999
-0.183203
0.877377
0.202612
0.033479
0.139683
0.968749
0.205725
0.821589
0.496567
0.395245
0.454695
0.430769
0.776605
-0.295022
-0.342326
0.678884
0.699210
-0.778558
-0.600085
0.143162
-0.466292
-0.866451
0.123630
-0.529160
0.417219
-0.207251
0.486312
0.553697
-0.917722
0.779717
0.411054
0.627186
-0.192541
0.302835
-0.859676
-0.640919
0.402631
-0.508103
0.606677
-0.011444
-0.957518
-0.852168
-0.568529
0.577685
0.760125
-0.487289
-0.133946
0.440168
0.412458
0.621632
0.986023
-0.193030
-0.067721
-0.201331
0.452376
-0.205969
0.676382
-0.139073
0.151280
0.731864
0.685171
0.590747
0.025483
-0.077914
-0.336100
-0.958983
-0.590503
0.881893
-0.500107
-0.765435
0.181127
-0.861202
-0.873226
0.820734
-0.958007
0.639698
-0.450728
-0.748955
-0.760247
-0.165746
-0.159581
-0.962279
-0.956664
-0.501694
-0.075777
0.656178
-0.714164
-0.643422
0.955565
0.654286
-0.714774
-0.430647
-0.889523
-0.468184
-0.543077
0.145054
-0.400433
0.951781
-0.069491
0.340556
0.715323
0.845759
-0.517685
-0.887204
0.728385
-0.023164
0.097446
0.683584
-0.556566
0.521958
-0.527329
0.279763
-0.772271
0.236183
0.773736
0.112156
-0.675466
0.761284
-0.041292
0.655141
0.264931
-0.358013
-0.019562
-0.710562
0.189001
0.611255
0.180395
-0.629261
-0.109714
-0.292581
0.186254
-0.213660
0.394940
-0.213355
0.626026
0.063265
-0.111240
0.991699
-0.028779
-0.911252
-0.195532
-0.259926
-0.178869
0.507492
0.881527
-0.204688
-0.058809
0.855953
-0.989380
-0.018403
-0.632191
-0.501205
-0.322672
0.105869
0.891781
0.427778
0.813715
-0.350261
-0.766472
0.986389
0.874508
0.792901
0.222144
-0.416913
-0.052461
0.331462
-0.709647
-0.544481
0.711966
0.053194
0.599414
0.547227
-0.943358
0.132359
-0.896054
0.560961
-0.828730
-0.893612
0.872494
-0.750298
0.922605
0.997375
-0.027375
-0.990905
0.327982
-0.859859
-0.763604
-0.167577
0.940123
-0.719291
-0.783624
-0.308390
0.953001
-0.494552
0.646107
0.407086
-0.155736
-0.433638
0.716178
0.067476
-0.635548
-0.838130
0.480453
0.063265
0.686819
-0.261574
-0.297464
-0.203955
0.529344
-0.627003
0.456771
-0.873959
0.062593
-0.698782
-0.204810
-0.379742
-0.585376
-0.348369
0.794244
0.664113
-0.413739
0.949889
0.291665
-0.501205
0.589221
0.955138
0.628529
-0.752983
-0.381146
-0.609546
-0.293374
-0.010651
0.075350
0.130833
0.675527
0.953856
-0.755791
-0.589709
-0.439253
0.881405
-0.549791
-0.388775
0.145604
0.629994
0.495773
-0.801630
0.419965
-0.921323
0.197546
0.359416
-0.092563
0.395856
0.832881
0.915647
0.184362
-0.267495
0.309000
0.064119
-0.097690
-0.595752
-0.132542
0.515122
0.627430
0.624134
-0.864010
0.585437
0.808100
0.848262
0.340739
0.812555
0.184851
-0.202246
0.491073
0.649770
-0.046785
0.218909
-0.650502
-0.193518
0.993896
0.443587
-0.000519
-0.204688
-0.519150
0.813471
-0.177099
0.248634
0.182104
-0.970031
0.700858
-0.432600
0.762993
0.492477
0.248817
0.464217
-0.593249
0.687002
0.900571
-0.036287
-0.935789
-0.311563
0.650685
0.422224
0.643727
-0.161229
0.271523
-0.870418
0.456343
0.663015
0.813776
-0.944334
0.226417
0.086398
0.205664
0.303568
0.981811
0.014924
0.761956
0.832331
-0.865047
-0.659108
0.415448
0.012238
0.068270
0.438032
-0.515915
-0.425764
-0.464522
0.205847
-0.214637
-0.483871
0.192419
-0.271157
-0.089145
-0.471175
-0.431257
-0.389752
-0.526353
-0.495590
0.794000
-0.955382
0.140965
-0.311258
0.389569
-0.308634
0.263894
0.040864
0.439985
0.410993
0.918088
-0.637623
-0.544420
-0.072420
0.166295
-0.241432
-0.761345
-0.520432
-0.643056
0.994140
0.066683
0.521043
0.269570
0.305704
-0.496323
-0.463668
0.920591
0.234474
-0.846309
-0.969298
0.842219
0.040376
0.667898
0.758965
-0.353923
-0.739250
-0.682241
0.254982
-0.315592
0.976562
0.447798
0.724723
0.621815
-0.652760
-0.880978
-0.635426
0.729301
0.978820
0.257179
0.168493
0.713675
0.685232
-0.383831
0.285379
0.894589
-0.792169
0.871639
-0.009674
-0.458357
-0.546312
-0.844966
-0.668935
-0.815790
0.816034
0.342265
-0.486618
0.706534
0.139500
0.408063
0.086337
0.039949
0.892270
0.159886
-0.008148
-0.733757
-0.892453
-0.337077
-0.460799
0.942747
-0.342387
-0.330912
-0.631581
-0.537217
-0.578478
0.362163
-0.535875
0.264443
0.910703
0.732292
0.282632
0.698416
0.913572
0.891598
-0.945128
-0.630665
-0.277566
0.643727
-0.672048
-0.237831
-0.494980
0.619861
0.807062
0.965819
-0.617725
-0.706412
-0.439558
-0.692984
-0.223182
0.187353
-0.348857
-0.292459
-0.407453
0.582324
0.255837
0.575671
0.789483
0.045259
-0.664724
-0.954344
-0.085421
0.084078
-0.082308
0.377667
-0.846492
-0.755486
0.058016
0.329752
0.463363
0.961364
0.535325
0.315653
-0.649953
0.475143
-0.648854
0.159642
-0.146702
0.128819
-0.908811
0.262123
-0.699393
-0.645070
0.212561
-0.012848
0.393475
0.667348
0.319315
0.085910
-0.812128
-0.031159
0.489059
-0.032746
0.532579
0.488205
0.712455
-0.371319
-0.474227
0.657949
-0.491073
-0.940062
0.554796
-0.753105
-0.219703
0.931700
0.479781
0.058443
-0.034761
-0.618213
-0.475387
-0.492355
0.557299
0.712088
0.437422
-0.609302
-0.951781
0.807367
-0.517441
0.157018
-0.639760
-0.910337
-0.171728
0.998596
0.828303
-0.179357
0.890194
0.068026
0.796258
0.563402
0.194739
-0.861995
-0.111362
0.617237
-0.674673
0.014557
0.020539
-0.762200
0.511887
-0.983398
0.208472
0.455000
-0.572008
0.835078
0.244301
0.300027
0.757927
0.082308
-0.704703
-0.743522
0.094882
-0.153233
-0.507675
-0.254311
0.734611
-0.437361
-0.431684
-0.540086
0.925352
-0.490280
0.611011
0.355998
0.137608
0.253700
0.990600
0.121067
-0.083773
0.340922
0.526048
-0.075961
-0.123508
0.559252
0.952330
-0.735527
0.407575
0.078158
0.750420
-0.268471
0.645436
0.779901
-0.596484
0.485580
-0.722343
-0.905576
-0.858211
-0.724845
0.743217
-0.348186
-0.763054
-0.198401
0.388531
0.061739
0.911069
-0.756645
-0.856258
-0.863765
-0.079379
0.753716
-0.719047
-0.134861
0.879330
0.742790
-0.183691
-0.541734
0.380902
-0.241920
-0.879879
-0.233131
0.986206
0.774651
-0.704215
0.395917
-0.864925
-0.292093
-0.109104
-0.179418
-0.952452
-0.038179
-0.496933
0.819330
-0.325358
-0.175390
0.842830
-0.464827
0.763421
0.524888
-0.184606
0.479598
-0.902646
-0.240333
0.185705
0.788934
0.975341
0.508896
0.386578
0.048128
-0.009186
-0.054048
0.034944
0.993469
0.174841
0.259926
0.717338
-0.594409
-0.435286
0.199377
0.606861
0.508042
0.260781
-0.848262
-0.524400
0.180822
0.034089
0.570544
-0.336467
0.303568
-0.452681
0.562243
-0.433027
0.540025
0.251686
0.446211
-0.791009
-0.123630
-0.978332
-0.900204
0.454878
0.225867
0.591113
-0.099094
-0.566271
-0.587390
-0.147984
0.080477
-0.269265
-0.153478
-0.920408
-0.701651
-0.089633
0.202246
0.145299
-0.746269
-0.065279
0.414594
0.780694
-0.856685
0.038911
-0.697134
0.954833
0.779839
0.625660
-0.863643
0.427046
0.182897
0.742119
0.454207
-0.461653
-0.544420
-0.298624
-0.549120
0.303446
-0.241859
-0.589282
-0.758293
-0.134129
-0.808222
-0.030549
-0.681326
-0.620594
0.405744
0.098849
0.511032
0.377300
-0.261086
0.966857
-0.238685
-0.307779
0.709525
0.969237
0.031709
0.990173
-0.335612
0.030793
-0.349895
-0.020600
0.401837
0.988525
0.411542
-0.642140
-0.421369
0.618885
0.745231
0.561815
-0.284524
-0.127354
-0.739494
0.377056
-0.388043
-0.120823
0.984863
-0.523606
0.984924
-0.717826
-0.395184
0.945555
-0.859004
-0.529099
0.024323
-0.140965
0.498032
-0.732475
0.551073
-0.029633
0.765374
-0.365398
-0.975097
0.577197
0.597705
-0.035615
0.200049
-0.374737
0.533860
0.512436
0.693228
0.112827
0.033113
0.538743
0.811335
-0.141392
0.421613
0.718253
-0.430036
-0.304727
0.561754
-0.617298
0.216590
0.151402
-0.943785
-0.841670
0.569201
-0.315958
-0.199561
-0.440657
-0.515549
0.524766
0.694449
0.101657
-0.232765
-0.798578
0.327555
-0.501755
0.833979
-0.202002
0.448714
-0.500290
-0.558031
-0.984436
-0.966185
0.940794
-0.201147
-0.903684
-0.236244
0.557421
-0.638295
-0.326762
0.724601
0.135289
-0.358257
0.608631
0.143223
0.553087
0.324198
0.882504
-0.029206
0.282693
0.017975
-0.404706
-0.874020
0.908872
-0.054048
0.145543
-0.788934
-0.768670
-0.110202
-0.353801
0.513108
0.510971
0.700980
0.641713
-0.897153
0.422956
0.690481
-0.811762
0.843989
0.280068
0.210181
0.360027
-0.875729
-0.912717
-0.261879
-0.756645
0.123142
0.991577
-0.219886
0.482223
0.425520
-0.312113
-0.099887
0.436323
0.796869
0.345866
-0.807733
-0.984558
0.930418
0.617298
-0.493210
-0.747734
0.979553
-0.711173
-0.257912
-0.324870
0.688040
0.142064
0.515915
-0.454939
-0.069674
-0.418073
-0.472091
0.017731
-0.525681
-0.401410
0.926206
-0.705496
-0.220252
0.622669
0.990112
0.823603
0.643666
-0.161840
-0.558092
0.614673
-0.493698
-0.485275
0.700247
0.729728
-0.769890
0.922056
0.386700
-0.988708
-0.837092
0.388531
-0.600146
0.112644
0.299539
-0.932737
0.867489
-0.110141
0.353374
0.971435
0.290078
0.221168
-0.449446
0.841548
0.188879
0.313334
0.959288
0.407819
-0.430097
-0.440596
0.166662
0.608814
-0.483077
0.009857
0.116245
0.329936
-0.774041
-0.480880
-0.082553
-0.775689
-0.206519
-0.369182
-0.559313
-0.822321
0.071261
-0.736869
0.510117
-0.019623
-0.100009
0.258400
0.506211
-0.230811
-0.965819
-0.142430
-0.808710
-0.199011
-0.928465
0.163549
0.570299
0.121006
0.697806
-0.345012
0.598621
-0.312113
-0.438765
0.813715
0.550890
-0.481429
-0.911496
0.927366
0.861934
0.415326
-0.446028
0.130772
-0.747246
-0.163549
-0.284219
-0.251686
-0.044954
-0.524461
0.330668
0.998718
-0.155614
0.108615
-0.139561
-0.873531
0.297525
-0.725700
-0.317911
-0.978637
0.584094
0.348613
-0.885678
-0.611744
-0.394024
0.575915
-0.426740
-0.469344
-0.202918
0.620289
0.169164
-0.189856
-0.004364
-0.801569
0.057283
-0.156224
-0.898373
-0.642384
-0.144688
-0.497848
-0.667959
-0.040376
-0.560717
0.771477
0.885983
0.935484
0.431379
-0.459700
0.832575
-0.128636
0.691031
-0.624256
0.034333
0.489547
-0.877071
0.349467
0.917783
0.585803
0.114170
0.977599
-0.095859
-0.013092
-0.088351
0.336100
-0.686697
0.089999
0.255043
0.414777
0.552293
-0.453780
-0.425642
-0.228614
-0.598560
-0.348247
-0.931761
0.549852
-0.788568
0.008087
-0.027863
-0.076327
0.822260
0.014557
-0.668874
0.027802
-0.982849
0.755303
0.589282
-0.558580
0.325480
0.843135
0.307352
0.283853
-0.016083
0.783197
-0.677541
-0.013886
0.872127
-0.581530
-0.338664
-0.198706
0.232032
-0.979980
-0.480026
-0.885067
0.985961
0.583728
-0.377728
-0.380535
-0.535997
-0.102756
-0.729789
0.413739
0.354961
-0.061312
-0.602161
0.091342
0.691336
0.169713
0.941527
0.879513
-0.316935
0.285806
-0.161046
0.891354
0.210730
0.986084
0.970458
-0.446333
0.791620
-0.674917
0.353008
0.273415
-0.169103
-0.790826
-0.098483
-0.595508
0.970824
0.599780
0.068575
-0.421491
-0.650807
-0.013764
0.675893
0.460250
-0.418378
-0.308878
-0.750847
0.992676
-0.722037
0.569262
-0.829646
0.191565
0.907102
-0.335673
0.957457
0.554552
-0.178686
-0.614856
0.986877
-0.855342
-0.746208
-0.236610
0.969115
0.413617
0.101291
0.356365
0.491012
-0.175878
0.303812
-0.643422
-0.062960
0.337565
-0.364971
0.470931
0.101535
0.825434
0.715690
-0.868282
-0.194555
0.470443
0.060884
0.602832
-0.170873
0.217872
-0.023408
-0.458235
0.473922
-0.659780
-0.885006
-0.417524
-0.934446
0.177709
0.503586
0.499496
0.711295
-0.883175
0.858211
-0.483261
0.622974
0.870418
-0.004852
0.323466
-0.680105
0.119785
0.152135
0.359539
-0.977599
-0.416059
0.032868
-0.067049
0.549608
0.576098
-0.613880
-0.268105
-0.966552
-0.888668
0.933042
0.293497
-0.238136
-0.372112
-0.546312
-0.007416
0.462996
-0.616443
0.847896
-0.888058
-0.656301
-0.409284
0.979064
0.558031
-0.805719
0.352397
-0.882443
0.782098
0.871944
-0.539171
-0.206458
-0.527146
0.476058
0.123020
-0.128330
-0.420454
-0.473006
-0.326762
0.662526
0.230384
0.461653
0.337260
-0.119663
0.107639
0.757378
0.109409
-0.738334
-0.157506
-0.002045
0.805841
0.656362
0.992065
-0.806940
-0.644704
0.403729
0.160314
0.664480
-0.608386
0.806513
-0.173254
-0.189550
-0.791131
0.514817
0.444319
-0.937437
-0.857601
0.632923
-0.631031
-0.654347
0.438276
0.361126
-0.815302
-0.645680
0.673452
0.985168
0.984558
-0.041108
-0.210852
0.025727
-0.828181
0.051729
-0.199622
0.361248
-0.656789
-0.851497
0.243019
0.134739
-0.183691
-0.944517
0.422346
0.259438
0.364177
-0.084750
0.524583
-0.666066
0.719596
0.944639
0.654286
0.780023
0.411054
-0.824152
-0.140110
0.015717
0.493759
0.514878
0.210181
0.476424
0.737297
0.427534
-0.015961
0.295206
0.832636
0.568224
-0.964354
0.457015
-0.818293
0.661794
0.398846
0.236976
-0.168737
-0.048128
-0.809076
0.736869
-0.886410
-0.471419
0.880978
0.331645
0.556993
-0.152806
-0.016694
0.838862
-0.371929
0.750603
-0.760674
0.222510
0.869015
0.308817
0.350444
0.645619
0.991333
-0.213233
0.323405
-0.318155
0.489364
-0.946287
0.492782
-0.499130
-0.663991
-0.253151
0.280435
-0.162084
-0.677175
0.500534
0.756584
-0.438643
0.606800
-0.444746
0.063814
0.650929
-0.972716
-0.942076
-0.233253
-0.602283
-0.245033
0.365215
0.190527
0.640126
-0.165624
0.664480
-0.190588
-0.153294
-0.815363
0.222694
0.749199
0.860103
0.619190
0.577258
-0.535020
0.112522
0.447432
0.980529
0.657704
-0.872555
0.221107
-0.589099
-0.509140
0.118259
-0.812128
-0.537461
0.171178
0.497299
0.013947
-0.573046
-0.045747
-0.892453
-0.660878
0.877743
0.639576
-0.010224
-0.273782
-0.927427
0.615040
0.496384
0.567736
0.483810
-0.484237
-0.433332
0.511582
-0.230079
0.558397
0.974059
0.969359
-0.498093
0.613269
-0.641896
-0.731193
0.955077
-0.922117
-0.144688
-0.986328
-0.719718
-0.386273
-0.861141
0.212622
-0.633168
-0.191870
0.681814
0.740410
-0.291604
0.825312
0.055147
-0.306436
0.586352
0.107578
-0.926634
0.203589
-0.118870
-0.809931
0.600940
0.268593
0.825800
-0.308634
0.830012
-0.832026
-0.987365
-0.457991
0.844783
0.021149
0.967406
0.514206
0.282815
0.053499
-0.399335
-0.885434
0.906247
-0.868343
0.852718
-0.097018
0.896298
0.131077
0.840327
-0.701041
-0.317606
-0.302164
-0.178503
0.939940
0.119480
0.967772
0.288308
0.651540
-0.175329
0.804865
-0.498947
0.094943
0.487533
-0.878048
-0.222999
-0.848506
0.964904
0.845820
0.844905
0.108860
0.973449
0.088961
-0.421491
-0.290506
-0.807611
-0.908139
-0.577929
0.126072
0.589343
-0.503891
0.818720
0.924436
0.780389
0.512864
0.956297
-0.922727
0.238502
-0.451888
0.141209
-0.908139
0.162206
-0.152684
-0.885434
0.312479
0.816340
0.722404
0.621509
-0.538133
0.158422
0.922849
-0.452986
-0.516526
-0.437544
0.714347
0.931211
0.746513
0.453047
-0.773492
0.175146
-0.322916
0.661916
0.632862
0.751640
0.877865
0.320109
-0.274880
-0.268715
-0.202368
0.096957
0.445235
0.438459
0.015656
-0.399701
-0.064425
0.547838
0.199988
0.748527
-0.327189
0.935423
0.805536
-0.072237
0.245033
-0.404218
-0.427839
-0.252358
-0.663625
-0.061678
-0.113742
0.206091
-0.518601
-0.225562
-0.931761
0.077364
-0.848933
0.309427
0.648000
0.335307
-0.266396
-0.550096
-0.308695
0.423933
-0.027985
0.741142
-0.760308
-0.811579
0.421735
0.244545
0.925962
-0.721366
-0.510544
0.670339
-0.172460
0.837947
-0.382427
-0.924314
0.621448
-0.710746
-0.825678
-0.557665
-0.898068
-0.967895
0.614917
0.445173
0.124241
-0.138462
0.473312
-0.275002
0.036164
-0.077792
-0.250404
0.977844
0.661061
0.010895
0.254067
-0.827387
0.893490
-0.961730
-0.529771
0.211097
0.971313
-0.536058
-0.499069
0.340434
-0.514634
0.516282
0.658071
-0.366375
0.190466
0.010041
-0.740104
0.847957
0.679250
0.574328
0.197729
-0.025239
-0.017670
-0.897214
-0.165807
-0.206275
-0.843867
-0.760491
-0.202857
0.743217
-0.077853
-0.288186
-0.770745
0.419172
-0.581225
0.324198
0.058199
0.016327
0.129490
0.423994
0.848262
-0.977660
-0.950926
-0.347209
-0.203284
0.479110
-0.849300
-0.204749
0.437422
0.122471
-0.783807
-0.461837
0.613208
-0.286599
-0.907895
0.952147
0.281350
-0.126377
0.434248
-0.491623
0.712638
0.736808
0.002594
0.443281
0.648183
-0.270852
-0.429975
-0.717032
-0.024873
0.791620
-0.493515
-0.659108
0.485092
0.355327
0.101169
-0.000092
0.276284
0.384136
-0.313639
0.592700
-0.636525
-0.204321
-0.376507
-0.308267
-0.942869
0.573778
-0.784112
0.622852
0.674429
-0.114963
0.609119
-0.987548
0.144993
0.511826
0.742607
-0.815851
0.073702
0.913633
0.414228
-0.786004
-0.176855
-0.769280
-0.479293
-0.540696
-0.822504
0.540941
0.536729
0.372600
0.151769
-0.316874
-0.706046
0.412519
0.507431
0.959838
-0.875729
-0.134373
-0.462142
-0.969237
-0.571703
-0.609241
-0.314127
0.310892
0.732170
-0.901914
0.555589
-0.816034
-0.704947
0.976135
0.881466
0.346171
-0.669424
0.479049
-0.983276
-0.409894
-0.096835
0.086398
-0.495773
0.343364
0.563158
0.648305
0.290994
0.273049
0.782586
-0.672536
0.150975
-0.730277
-0.745781
-0.047090
0.876156
-0.877804
0.116672
0.594409
-0.199438
0.196570
0.167028
0.173803
-0.781549
-0.568468
0.125278
0.923032
0.259377
0.962828
0.011139
0.502365
-0.216956
-0.311441
-0.302713
0.591784
-0.143773
-0.910764
0.700552
-0.233131
0.374126
-0.386578
0.273843
-0.527085
0.388348
0.942747
-0.138524
0.909116
0.705313
0.448103
0.980590
-0.365520
-0.684133
-0.849971
0.590075
-0.289102
0.219947
-0.504807
-0.989013
0.191443
-0.792169
0.262062
0.460189
-0.229102
-0.838557
0.907468
-0.740959
0.407514
0.437300
0.667837
-0.218604
-0.269204
0.893735
0.726249
-0.798273
-0.953429
-0.873775
0.758538
-0.893368
0.752251
-0.528916
0.170995
-0.967711
-0.025483
0.341594
-0.658376
-0.009980
0.243019
0.459029
-0.821772
-0.957274
0.010407
0.540025
0.304971
0.994751
-0.166112
-0.995849
0.190588
0.256874
-0.971740
-0.736686
-0.469344
0.950804
-0.394879
-0.844966
0.195837
0.312967
0.308756
0.083956
0.059420
-0.537156
0.562975
0.431867
-0.984069
0.596545
-0.859676
0.800165
-0.495712
0.668203
-0.633717
-0.352947
-0.153722
0.623280
-0.328654
0.881283
-0.284951
0.244057
-0.696890
-0.024262
0.044404
-0.328227
0.011200
0.163121
0.692007
-0.333842
-0.482894
-0.724235
0.169347
-0.333476
-0.418012
0.793268
0.750237
-0.284158
0.484359
-0.341655
-0.729301
-0.689627
0.720328
0.426435
0.933470
-0.761773
-0.260475
0.308023
0.427595
-0.532212
0.528367
0.669668
-0.321635
-0.849849
-0.147008
-0.446883
0.537645
-0.202857
0.975951
0.777703
-0.271523
-0.302469
0.656911
0.186132
0.356182
0.634022
-0.748222
0.598315
-0.701834
0.963683
-0.278115
0.033967
0.785333
0.123753
0.365276
0.767693
-0.512986
0.626576
-0.916135
-0.221656
-0.587085
0.604297
-0.002167
0.155553
-0.056551
0.967406
0.220252
0.025910
-0.698294
0.238990
-0.395489
0.560656
0.779229
-0.872555
-0.723258
-0.371319
0.028291
-0.100436
-0.234230
0.655934
0.733146
0.616993
0.543748
-0.745598
0.972350
-0.701346
-0.211280
-0.816156
-0.414655
0.071932
0.183020
0.206946
0.855464
0.373028
-0.441145
-0.597949
0.821345
-0.737480
0.204260
0.496139
-0.469588
-0.084262
-0.358318
0.778191
0.545946
0.350993
0.691702
0.158666
0.020173
-0.540330
-0.365764
-0.064791
0.647389
0.398907
0.280374
-0.171911
0.806879
0.410016
0.766411
0.847407
0.211463
-0.874569
0.883175
0.555223
0.370952
0.426801
0.752922
0.284707
-0.814447
-0.084811
0.666860
0.878414
-0.019807
-0.941649
0.894589
0.508835
0.292703
0.075594
-0.720878
-0.856319
0.728813
0.623524
-0.570116
-0.781915
-0.804437
0.345195
-0.675100
-0.924314
0.826594
0.344829
-0.863216
0.742973
0.910642
-0.348918
0.092929
0.597156
-0.862423
-0.268960
-0.816034
0.491379
0.472152
-0.882931
-0.467757
-0.100375
0.969848
-0.789727
-0.767327
0.643727
-0.153722
-0.678701
0.479110
0.764092
0.113681
0.012604
-0.212012
-0.901364
-0.904904
0.803888
-0.867061
-0.869442
-0.868587
-0.697134
0.800714
-0.331950
-0.209143
-0.174963
-0.216407
0.919126
-0.103916
0.563524
0.518662
-0.477462
0.679678
-0.627247
-0.212622
-0.900449
0.380596
-0.772515
0.588244
-0.113498
-0.404218
-0.579394
0.793939
0.012360
-0.303323
-0.438948
-0.593616
-0.016266
-0.374187
0.435652
0.222510
0.938536
-0.615894
0.796381
-0.278420
0.232582
-0.477462
0.136021
0.988830
0.920042
0.949767
0.514634
0.485824
0.691275
0.369060
-0.501022
-0.518540
0.830134
-0.343547
-0.721488
0.955931
0.753288
0.492843
0.018586
-0.211463
0.693838
0.562365
0.515488
-0.954833
0.092502
0.629872
0.213660
0.174108
0.257851
0.809748
-0.349956
-0.074740
0.858760
-0.661489
-0.614673
-0.195227
0.811335
0.164220
0.487045
0.877010
-0.877010
0.663991
0.625233
-0.273598
0.255898
-0.196265
0.844172
0.392682
-0.427412
0.051668
-0.927244
0.090548
-0.574023
-0.642323
-0.565172
-0.472701
-0.543321
0.512131
-0.576464
-0.369121
-0.340678
0.195898
0.001068
-0.499924
-0.218482
-0.965697
0.686819
-0.609790
-0.383038
0.967772
0.696280
-0.453780
-0.244240
-0.749687
0.193274
0.696524
-0.646107
-0.608753
0.718009
-0.981689
0.485641
0.348918
0.853084
-0.610340
-0.360820
0.292093
0.190832
-0.262123
-0.079379
0.239784
-0.336528
0.298441
0.526292
-0.107395
-0.700858
0.597034
-0.951781
0.967833
-0.533372
-0.033723
-0.826655
0.351054
0.670095
0.410077
-0.660024
0.376812
-0.042329
-0.371502
0.913816
0.550401
-0.994079
-0.985107
-0.554003
0.023713
-0.057894
0.438581
-0.423933
-0.862423
-0.032502
0.624683
-0.859127
-0.657277
0.844050
0.944761
-0.945494
-0.187414
0.306558
-0.570605
0.518845
0.059359
-0.536363
0.816706
0.129490
0.867367
-0.751274
-0.552599
0.438704
0.854366
-0.014801
0.821772
0.537523
0.974975
-0.873592
0.627064
0.219825
0.277749
-0.765130
-0.947996
0.291726
-0.771416
-0.738578
-0.802057
0.586962
-0.086764
-0.811640
-0.599597
0.252358
-0.569201
-0.902097
0.273110
-0.134434
-0.208106
0.729057
0.287576
-0.053316
0.632374
0.585192
0.699881
-0.572619
0.056429
0.655324
-0.361919
0.639637
-0.078707
-0.189550
0.161901
0.385723
0.875179
-0.061129
0.107517
-0.346110
-0.537828
-0.118259
0.530564
-0.459700
0.606067
-0.767815
0.558580
-0.059481
-0.215003
-0.939512
-0.533494
0.573351
0.210852
-0.373394
-0.212317
0.898923
-0.675710
0.144688
0.271401
0.494125
-0.080782
0.659902
0.501877
0.447188
0.208289
-0.898556
-0.010895
-0.665273
0.142613
-0.425886
-0.455000
0.342814
0.297708
0.949950
-0.242409
-0.904660
0.638478
-0.176366
0.374676
0.752434
-0.524827
0.893979
-0.589526
-0.060518
-0.075900
0.832698
-0.211829
0.072542
0.183935
0.705130
0.328471
-0.360820
0.941221
-0.996704
0.899838
-0.000214
0.217261
0.355449
0.540757
0.270547
0.969298
-0.026826
0.366985
-0.149022
-0.242775
0.900143
0.076937
0.158788
-0.209754
0.123325
-0.133213
0.133763
0.663930
0.610523
0.568468
-0.926084
0.102145
-0.664052
-0.177221
-0.633412
0.014496
0.356792
-0.899960
0.675771
0.183386
-0.997497
-0.618702
0.149449
-0.107883
0.240822
0.311441
0.209204
0.806879
-0.718986
0.638295
0.483749
-0.574816
-0.521104
0.748772
-0.550157
0.403729
-0.395672
-0.884457
0.342875
-0.923643
-0.465133
-0.533738
0.899045
0.477767
0.437788
0.487655
-0.507553
-0.818415
0.502487
0.877804
-0.770806
-0.730705
0.286843
-0.441877
0.560717
0.739128
0.738517
-0.141575
-0.020600
-0.330607
-0.044832
-0.513596
-0.641346
0.448592
-0.254616
-0.904172
-0.499741
-0.616382
0.052461
-0.735954
0.450545
0.000153
0.304300
0.692312
0.149571
-0.653615
-0.248207
-0.558519
-0.025971
-0.386456
-0.142369
0.015595
0.737663
0.385052
0.798212
0.104648
-0.289346
-0.172887
-0.858028
-0.198767
0.222205
0.133641
0.765740
-0.898740
0.406049
-0.463179
0.071139
0.503525
0.654286
0.197302
-0.434309
0.517808
0.340129
0.285318
0.868465
0.897458
-0.627003
-0.433943
-0.795587
-0.594470
-0.852229
0.801141
0.449995
0.929991
0.451399
0.279092
0.791009
0.757683
0.888852
-0.212439
0.057283
0.822016
-0.608814
-0.661245
0.795099
0.735405
0.368450
0.961974
0.140172
0.419416
-0.931455
0.874508
0.554796
0.144871
0.707450
0.344462
0.489486
0.795038
0.929197
0.557054
-0.965697
0.163427
0.162633
-0.202612
-0.380108
0.099948
-0.566454
0.262551
0.832148
0.316446
0.197241
0.814264
-0.597217
-0.334635
-0.247414
0.986389
-0.561693
0.703665
0.801080
0.558397
0.949217
0.353801
0.712516
0.007477
-0.257241
0.475814
-0.939390
0.152684
-0.257851
-0.839106
0.990478
0.302347
-0.207190
0.561388
0.979980
-0.781793
0.020173
0.067049
0.559679
0.208838
-0.199011
0.642872
0.550523
0.663442
0.409528
-0.861568
-0.615101
-0.659352
0.402997
0.383465
0.071566
-0.276894
0.807184
-0.120457
-0.632313
0.751152
0.165441
0.903745
-0.279336
-0.752434
0.513718
0.833674
-0.458419
-0.652760
0.343608
0.508042
0.373760
-0.758232
-0.383770
-0.564867
0.517624
0.554064
0.889462
0.661184
-0.324381
0.654103
-0.379192
0.110935
0.179296
-0.771783
-0.290933
0.214759
-0.639821
-0.584399
-0.664296
0.631764
0.628468
0.822626
-0.829218
-0.115818
-0.179235
0.729362
0.003815
0.713981
0.380108
0.799860
-0.136937
0.974670
-0.069613
-0.391278
-0.314188
0.870968
-0.192114
0.296793
-0.398114
0.358196
0.112156
-0.332499
0.892819
-0.485092
-0.160619
0.038362
-0.310953
-0.299966
0.659597
0.157872
-0.531114
0.308329
-0.098483
0.501755
0.419599
0.935240
-0.693289
-0.739616
0.724723
-0.234779
-0.884274
0.330424
-0.160131
-0.005158
0.048799
-0.377606
0.819330
-0.896725
0.743522
0.997986
-0.244728
0.783380
-0.787835
0.147496
-0.606250
0.345012
-0.118748
-0.277383
0.988037
-0.595752
0.774895
0.034394
-0.546617
0.669362
0.406110
0.630909
-0.115085
0.637379
0.936949
-0.934080
0.501083
-0.986633
-0.829035
0.171850
0.075411
0.664907
-0.059542
0.148473
0.919553
0.923826
-0.550035
0.781243
-0.521043
0.048372
-0.859798
0.100497
-0.395245
-0.341655
-0.366497
0.795221
0.563463
0.954833
-0.676199
0.692068
0.848201
-0.462264
-0.826106
0.614795
-0.147557
0.633778
0.282083
-0.066378
0.470077
-0.453230
-0.219398
-0.880367
0.683340
-0.856563
-0.370769
-0.384869
-0.798212
-0.813654
-0.134800
0.332499
-0.785150
-0.672475
0.873348
-0.904721
-0.680837
0.574572
0.237342
0.332682
-0.314615
-0.958373
0.736564
-0.659597
0.524949
0.798700
-0.950743
0.420637
0.920347
-0.370037
-0.274514
-0.786615
-0.918577
0.516404
-0.008026
0.531724
0.089877
0.651723
-0.048433
0.013153
0.194006
0.807611
-0.260170
0.900449
-0.282693
0.857784
0.201025
0.263283
-0.356914
0.275796
0.646229
-0.025666
-0.063631
-0.582751
0.255715
0.751396
0.667653
0.399884
0.688894
0.578356
-0.000885
-0.606006
0.463057
-0.182043
0.097446
-0.864620
0.665029
0.328410
-0.966063
-0.526658
0.556383
0.895749
-0.263649
0.766411
0.636708
0.295999
0.053316
-0.061678
-0.274575
0.298257
0.994873
0.006684
-0.373577
-0.078219
-0.788690
0.896542
-0.063448
-0.740532
0.772881
0.351665
0.561937
0.180151
0.312052
0.756523
0.502976
0.222449
0.592761
0.679861
0.471969
0.992676
0.566759
0.954588
-0.094882
-0.621448
0.981811
0.104343
-0.068636
0.892758
-0.397870
0.931028
0.861080
-0.543443
-0.894589
-0.925718
-0.243568
0.939207
-0.282083
-0.643178
0.646718
0.761650
-0.350200
0.726798
0.950255
0.880795
-0.605274
-0.389508
0.666066
0.464400
0.954527
0.488083
-0.102206
-0.430158
0.052095
-0.495956
-0.728324
0.139927
0.395611
-0.074618
0.811823
-0.373394
0.055757
-0.739921
-0.165014
-0.442915
-0.981689
0.848323
-0.572558
0.353252
-0.023957
-0.261757
0.066317
0.717399
-0.580065
-0.339579
-0.052034
0.897641
-0.904660
0.911496
0.585681
0.143834
0.882565
-0.039033
-0.760125
-0.332072
-0.833857
0.593005
0.742607
-0.579516
-0.244362
-0.603931
0.278542
-0.003693
-0.581469
-0.587451
-0.313272
-0.018769
-0.910520
0.760857
0.843074
0.053011
0.818293
0.043184
0.688162
0.148656
-0.482528
-0.649586
-0.538133
-0.989624
-0.425459
0.677664
0.707572
0.423505
-0.611072
0.561815
0.608081
-0.542650
-0.102206
0.755119
-0.783441
-0.976440
0.152257
-0.254555
-0.855525
0.062777
0.007355
0.937620
0.268349
-0.327311
0.987426
0.306558
0.019318
0.490219
-0.610401
-0.663503
-0.182714
-0.360088
0.688894
0.056978
-0.788812
0.561449
-0.694632
-0.010529
0.290017
0.028413
0.798517
-0.183386
-0.075350
-0.329081
0.548204
-0.413434
0.405255
0.314798
-0.011811
0.264931
0.035188
0.449568
0.451643
0.447005
0.244362
-0.862117
-0.307108
-0.957518
0.784967
0.679006
-0.852474
-0.254250
-0.428571
-0.661916
0.993286
0.102878
0.727775
-0.544542
-0.926389
0.990112
-0.596118
-0.753838
0.748405
-0.686331
0.924558
-0.395917
-0.268777
-0.253945
0.832514
0.222388
0.978942
0.308512
-0.611438
0.342692
-0.306681
-0.384869
-0.908139
0.445784
-0.500473
0.588427
0.780999
0.196081
-0.137791
0.460799
0.880856
0.952818
-0.197851
-0.126621
-0.644337
0.159825
-0.022675
0.885006
0.932432
-0.073092
0.188269
0.703970
-0.844905
-0.885189
0.373089
0.954772
-0.165380
-0.762871
0.152135
-0.707205
-0.544786
-0.509262
0.986755
-0.821223
-0.899594
-0.772515
0.013276
0.626331
-0.538987
-0.819514
-0.384014
-0.265908
-0.512009
-0.244118
-0.200232
-0.183813
0.251808
-0.295694
-0.572863
-0.057711
0.571520
-0.516831
-0.619556
-0.299295
-0.023774
0.623463
-0.287454
-0.003632
-0.439314
-0.587817
-0.151769
0.696707
0.298074
0.204688
-0.101291
0.937376
-0.627979
0.677114
0.152562
0.900937
0.091281
0.334086
0.804010
0.880612
-0.051668
0.581896
0.982604
0.441572
0.385235
-0.318888
-0.853816
-0.507492
0.829340
0.890133
-0.100436
0.079867
0.560228
-0.887082
-0.699087
0.717154
0.972167
0.363384
-0.280007
0.061800
-0.207373
-0.641957
0.308817
-0.247414
-0.178686
-0.449263
0.148350
-0.780694
-0.249733
0.920835
0.133702
0.277749
-0.370708
-0.172216
0.659719
0.322306
0.537828
0.245094
-0.829768
-0.071200
-0.973266
0.685293
0.632862
-0.320109
-0.108005
0.128636
-0.998047
0.025666
-0.157262
-0.731193
0.732902
0.992065
-0.373211
0.386944
0.408856
-0.451216
-0.824763
0.167455
-0.455977
-0.548875
-0.670888
0.767510
0.625111
-0.634510
0.711234
-0.547044
-0.547288
0.093661
-0.696219
0.113559
-0.152684
0.706656
-0.702933
0.968810
-0.220008
0.401593
0.768914
-0.221473
0.991943
-0.106784
0.759087
0.869259
-0.835444
-0.846126
-0.698843
-0.710135
0.703177
-0.687185
0.973449
0.408490
-0.804315
-0.471480
-0.468490
0.263161
-0.389203
0.646290
0.186682
0.979492
-0.704276
0.453352
-0.910215
0.566210
-0.161901
0.344218
0.586108
-0.596728
0.853267
0.208289
-0.199255
0.733024
-0.240394
-0.646535
-0.880062
-0.532090
0.605518
0.276467
0.128758
0.627857
0.008698
-0.906064
-0.432173
-0.282327
-0.728324
-0.553941
0.873531
0.359600
0.735771
-0.314982
-0.139134
-0.508286
-0.564745
0.161657
0.115207
-0.554613
0.115757
0.421918
0.652150
-0.786248
0.677236
-0.874081
-0.590014
0.224891
0.106235
0.502609
-0.863094
0.930601
-0.041536
0.151219
-0.765130
-0.475570
-0.545152
0.004059
0.123142
-0.898679
-0.747002
-0.739067
-0.316324
0.570910
-0.042512
-0.890866
0.351543
-0.363201
0.430525
0.041353
0.411725
-0.844172
-0.034089
-0.417096
0.065950
-0.812128
-0.610828
-0.757073
-0.168554
0.049715
-0.854427
0.499252
-0.166173
0.685415
-0.561205
0.632130
-0.442305
-0.334391
0.483505
0.217444
0.616321
-0.871578
-0.066927
-0.907285
0.103244
0.973754
-0.453963
0.608692
-0.911252
-0.375958
0.152928
0.977660
-0.176550
0.664968
0.986755
-0.467208
0.210852
-0.324198
0.438948
0.710135
-0.887570
0.565355
0.303995
-0.435347
-0.952940
-0.276894
0.574389
-0.364299
-0.152318
-0.700003
0.849116
0.970885
-0.163060
-0.069735
-0.582080
-0.876400
0.085726
0.207251
0.083956
0.935972
0.315287
-0.774468
-0.213355
-0.081759
0.007294
-0.497604
-0.911252
-0.960448
-0.717338
0.590014
0.588549
-0.259194
-0.887143
0.692190
-0.679922
0.982604
-0.574328
0.596973
0.205420
-0.859066
0.667714
-0.761406
0.618458
0.563646
-0.612964
-0.799371
-0.874081
-0.401837
-0.602771
-0.526902
0.466170
-0.094028
-0.913755
-0.224342
-0.171728
-0.126499
0.432478
-0.239540
0.495285
-0.066134
0.289712
-0.594348
-0.087313
0.611072
-0.494858
-0.086886
0.245338
-0.900937
0.430952
-0.577380
0.484848
-0.810602
0.393353
0.854976
0.170995
0.357646
-0.318827
0.196020
-0.211829
0.823603
-0.383587
0.535508
-0.099704
0.396222
-0.730644
0.171484
0.086825
-0.083834
0.380596
0.094028
-0.258156
-0.891293
-0.947325
-0.839656
-0.201270
-0.340983
-0.225929
0.273598
-0.556688
-0.677053
0.336894
-0.121616
0.877987
-0.114963
-0.787469
0.085055
0.198645
0.777215
-0.053621
-0.264931
-0.552110
-0.830561
0.134434
-0.278970
-0.093722
0.346538
-0.455245
0.872372
-0.316019
-0.818598
0.946043
-0.279702
-0.323344
0.519639
0.205054
0.454146
0.946287
-0.714225
-0.782952
0.381512
-0.409589
0.125340
0.229957
-0.795099
0.162633
-0.605640
-0.874142
-0.572619
-0.294229
-0.690970
0.222266
0.199255
-0.538743
-0.932127
0.154820
-0.081088
0.316691
0.759453
-0.594836
-0.099643
-0.946287
0.867122
-0.964599
0.419111
-0.539659
-0.815241
-0.807550
-0.550340
-0.632496
-0.045381
0.943907
-0.592761
-0.324625
-0.960082
0.009003
0.205542
0.429182
-0.053560
-0.053743
-0.056856
0.009308
0.502609
-0.639210
-0.467635
0.496689
-0.986450
0.693777
0.580798
-0.723563
-0.300211
-0.844295
0.839961
-0.057283
0.233375
-0.631886
0.532701
0.566027
-0.815363
0.273293
-0.127964
0.387249
0.191382
-0.123020
-0.916196
0.999451
0.663015
0.385479
-0.754204
-0.919675
-0.167333
-0.700858
-0.744255
0.738578
-0.030427
-0.973388
-0.759148
0.535020
-0.436445
0.579760
-0.279153
-0.756767
0.295083
-0.085910
0.838069
-0.590014
0.603076
0.475814
0.965880
0.779412
-0.337626
0.518357
-0.991211
0.642628
0.584521
0.751274
-0.293497
-0.823603
0.653127
0.883297
0.254128
0.831599
-0.592883
0.622608
-0.448653
-0.164525
0.384381
-0.303323
0.393475
0.869869
-0.662465
0.454024
-0.084323
0.986999
0.735343
-0.389569
0.604175
-0.172826
-0.638661
0.702689
-0.814142
0.198523
0.823481
-0.189184
-0.289895
0.083346
-0.215125
0.113987
0.133335
0.132542
-0.268532
-0.161107
0.721061
-0.289285
-0.913755
-0.832942
-0.421674
-0.445540
-0.516221
0.660634
-0.378399
0.107028
-0.982421
0.770196
0.304483
-0.409772
0.272866
0.987548
0.410260
0.878292
-0.043855
0.205481
-0.777459
-0.765923
-0.063997
0.846736
0.388531
-0.028413
0.505844
0.325053
-0.215430
0.106601
-0.318094
0.401227
-0.300089
-0.942076
-0.650868
-0.004425
0.647816
0.462447
0.067110
0.020478
-0.880978
0.165014
-0.651601
-0.205786
0.588977
0.447981
-0.777398
-0.399579
0.090793
-0.440107
-0.102512
0.953551
-0.331767
0.609241
-0.669485
-0.865902
-0.980895
0.882199
-0.476730
-0.443220
0.643239
-0.350139
-0.649586
0.531663
-0.193640
-0.473739
0.737236
-0.016388
0.633290
-0.561266
-0.003876
0.690725
0.642262
0.274880
-0.862911
-0.395123
-0.966796
-0.732353
0.962157
-0.183081
-0.957274
0.181249
0.758293
0.728507
-0.322428
-0.640370
0.400189
0.994018
-0.860469
0.702200
-0.324442
-0.205847
-0.745293
-0.373882
0.645924
-0.995849
-0.781304
-0.919065
-0.145482
-0.180944
-0.029145
-0.324747
0.195288
0.398480
-0.490097
0.980041
-0.746757
0.093295
0.463912
0.069491
-0.068697
0.817133
0.225623
0.363689
0.173742
-0.875423
0.967956
0.833430
-0.399579
-0.440474
-0.150121
0.631397
-0.136387
0.834407
0.726981
-0.788385
0.539354
-0.594836
-0.322367
0.999817
-0.632435
0.002533
-0.341044
0.676443
0.651234
-0.316752
0.603565
0.136326
0.629017
0.962951
0.270241
-0.814203
-0.367473
0.593677
0.161412
-0.958556
-0.158422
-0.451338
-0.180883
0.691214
0.449446
0.776605
-0.187292
-0.818110
-0.949278
0.287515
0.730277
-0.104892
-0.935423
0.133580
0.486312
-0.126865
0.005341
0.847041
-0.741264
0.259133
0.413434
-0.102817
0.366924
0.912351
0.259011
-0.269997
0.403851
-0.738212
0.630848
-0.048250
0.934507
0.461165
-0.477889
-0.780145
-0.926695
0.906186
-0.472274
-0.596545
-0.746818
0.178625
0.262917
-0.424299
-0.502365
-0.522141
-0.682241
0.400800
0.510544
-0.396161
0.559313
0.477889
0.893674
0.552782
-0.406415
-0.795282
0.806391
-0.211035
-0.799615
-0.276894
-0.621204
-0.745170
0.553575
0.509140
0.191870
0.181738
-0.961974
-0.830073
0.135472
-0.236061
0.478378
-0.989074
-0.041169
0.758599
0.588488
-0.066012
-0.175512
0.073702
-0.542467
0.230811
0.178503
-0.592761
-0.116489
0.833247
-0.750237
-0.000763
-0.633961
0.582995
-0.509262
0.559740
0.572863
0.083407
0.271950
0.435041
0.090732
0.695914
-0.856929
-0.925169
0.274697
0.243202
0.972716
-0.137303
0.006928
-0.017609
-0.720206
-0.628468
-0.821772
0.409650
-0.931333
0.108860
0.705252
0.460005
-0.519089
-0.188879
0.894528
-0.336467
-0.424421
-0.647145
-0.032319
-0.178503
-0.448592
0.330485
-0.441694
-0.235572
0.722343
0.384808
0.994751
-0.245277
0.560045
-0.675405
-0.820246
-0.903745
0.114902
0.113010
-0.118564
-0.486557
0.128636
-0.220252
-0.754387
-0.137425
-0.849361
0.322062
-0.655690
0.737358
-0.028962
0.655934
0.571276
0.531724
-0.317789
-0.319315
0.697806
-0.477767
-0.317789
-0.480270
-0.598376
-0.467696
0.931639
0.999329
0.080538
-0.259133
0.777276
0.427595
-0.236488
0.198462
0.654347
-0.261940
0.932554
-0.387432
0.980529
-0.942137
0.066622
0.965148
0.553331
-0.235328
0.721183
-0.475814
0.764580
-0.905698
-0.044832
0.813349
-0.056856
0.361980
-0.081881
-0.900082
0.139500
-0.141453
-0.590197
-0.034333
-0.336039
0.485946
-0.774407
-0.478072
-0.308390
-0.807184
0.098727
-0.168493
0.245766
0.273537
-0.946837
-0.899533
-0.127110
-0.406842
0.979431
0.202124
0.322062
-0.199622
-0.755608
0.094516
0.539720
-0.408246
0.150426
-0.303690
-0.705618
-0.911374
-0.947020
0.781487
0.742119
0.390240
0.952513
-0.544359
0.246071
-0.635243
-0.630177
0.778130
0.762749
-0.258095
0.320597
0.089572
-0.893551
-0.432478
-0.800958
-0.389447
0.406049
-0.914792
-0.614978
-0.129063
0.064791
0.105502
0.385296
0.534715
-0.462752
-0.073946
0.323405
0.181249
-0.765496
-0.134861
0.589404
-0.393536
0.871395
-0.529283
-0.538133
0.205847
0.567125
0.468368
0.515671
0.002106
-0.987548
-0.491073
0.626942
0.879574
0.016266
-0.219275
-0.611805
-0.411481
-0.257546
0.546373
0.746818
0.081515
-0.048067
0.668813
0.677419
-0.256264
-0.439680
-0.812494
-0.296915
-0.919004
-0.175451
-0.991760
0.076388
-0.573046
-0.528794
0.768670
0.432478
0.232398
-0.921384
0.941710
-0.271950
0.499008
-0.974670
-0.759514
-0.722098
-0.079501
0.317423
-0.613819
0.701163
0.292703
0.607288
0.301248
0.590564
0.756157
0.716483
-0.208472
-0.283059
-0.567003
-0.025300
-0.221046
-0.418928
-0.978881
-0.311991
-0.852535
0.126011
0.907529
-0.952147
-0.735221
-0.578478
-0.636219
0.794916
0.242286
-0.865535
0.386639
0.948302
0.995727
0.596423
0.744316
-0.085299
-0.830317
-0.719047
-0.206091
-0.712027
-0.012909
0.504746
-0.370281
-0.346355
0.087436
0.162694
0.126438
-0.291360
-0.584277
-0.688650
0.439619
0.010956
-0.775262
0.412458
-0.474837
-0.329752
-0.747246
0.048555
-0.758721
-0.707511
0.140110
-0.075106
0.595019
0.490829
0.146092
0.967589
0.695120
-0.724601
0.229286
0.333232
0.975463
-0.365154
0.553636
0.140233
0.249550
0.621509
0.482833
-0.264199
-0.839534
-0.747246
-0.874325
0.310404
-0.413068
0.541917
0.494369
-0.327494
-0.430525
0.969787
0.338420
-0.004181
-0.681509
0.710746
0.717765
0.351604
0.866939
0.924924
-0.624256
0.839228
0.929746
-0.570666
-0.024384
0.126011
-0.466964
-0.939634
0.262978
-0.789666
-0.024445
0.040437
0.216529
-0.780084
0.684072
0.660451
-0.750847
0.057222
0.526109
-0.408124
0.523179
-0.294412
0.142491
0.140110
-0.559801
-0.992187
0.861507
-0.248939
0.370220
-0.270302
-0.242531
-0.915036
0.681265
0.721610
0.417280
-0.031220
0.131809
-0.010163
-0.024934
0.539781
0.689932
-0.508957
-0.019868
0.893307
0.839717
0.461348
-0.341472
-0.452803
-0.561022
0.093356
-0.867428
0.034455
-0.809320
-0.626514
-0.841243
-0.062227
0.789117
0.891781
0.948790
-0.322184
-0.194983
0.436567
0.634449
-0.631886
-0.628346
-0.812616
-0.060396
-0.951476
0.733634
0.317850
-0.377667
0.610462
0.721671
0.820673
-0.752007
0.725578
0.216102
0.368633
-0.142064
-0.908567
0.660512
0.022675
-0.905698
-0.694327
0.688833
0.600513
-0.654653
0.681570
-0.071383
-0.482772
0.471664
0.317606
0.042207
-0.087924
-0.322184
-0.266335
0.068636
0.872005
0.090976
-0.614185
0.129063
0.565538
0.608142
-0.627430
0.557909
-0.899960
0.576708
-0.354900
0.522141
0.913083
-0.131382
0.033845
-0.808588
-0.488144
-0.088107
-0.595996
-0.478195
0.373455
0.241798
0.252724
-0.285379
0.816462
0.133580
0.059481
0.414228
0.658864
-0.119541
-0.296365
0.706229
0.473006
-0.722037
0.260475
0.978881
-0.749016
-0.121799
0.488815
-0.289163
0.292642
0.575976
0.322306
0.246437
-0.871761
-0.910520
0.677541
0.622242
0.289834
0.898312
0.890622
0.506699
0.741630
0.200171
0.095248
0.315653
0.783929
0.450789
-0.144749
0.566210
0.241615
-0.952513
0.362529
0.530931
0.750786
-0.280007
-0.485214
0.256142
-0.045137
-0.809076
-0.815851
-0.994873
0.424299
-0.331767
-0.009857
0.190344
-0.889523
-0.267922
0.888363
-0.144322
0.148106
-0.821162
0.888852
0.772820
0.816889
0.384930
-0.784600
-0.787408
-0.523179
-0.248146
-0.780999
0.455550
-0.712027
-0.203406
0.357341
0.101962
0.528001
-0.551256
-0.446455
-0.753471
-0.679922
-0.882931
0.246376
0.578173
-0.416608
0.088351
0.444014
-0.532395
0.018464
0.820246
0.094455
-0.892880
0.940672
-0.308267
-0.915159
-0.238014
0.773553
0.773309
0.182104
-0.801019
-0.985229
0.177831
0.227454
0.352275
-0.512253
-0.442122
-0.102573
-0.709220
0.689993
0.308390
-0.656056
-0.451765
-0.947691
-0.960021
0.025361
-0.120579
-0.079196
-0.116367
0.041780
-0.495468
0.073275
0.190344
-0.713431
-0.095614
0.584033
-0.812616
-0.272866
-0.771233
-0.151646
0.154637
-0.873409
0.380718
-0.420026
-0.317606
-0.480331
0.839045
-0.406476
0.574084
0.754936
-0.718436
0.184484
-0.044282
0.415937
-0.928220
-0.080416
-0.844661
0.433882
-0.328776
-0.350078
0.914060
-0.296121
0.039888
0.558641
0.491379
-0.982055
-0.912168
-0.942869
0.228736
-0.373211
-0.760063
0.340678
0.131138
-0.257179
0.176305
-0.583056
0.031648
0.297403
0.810785
-0.579882
-0.099643
0.264138
0.570910
0.021699
-0.140049
0.861690
0.040437
-0.247536
0.471603
0.946898
0.028291
-0.953429
0.851802
0.913266
-0.875179
-0.179174
-0.815241
-0.595691
0.810297
0.401654
-0.808710
0.157323
0.174963
-0.387677
-0.882748
-0.712943
-0.683401
0.832942
0.804254
0.324747
-0.525071
-0.155004
-0.595630
-0.677847
0.967772
-0.725578
-0.697134
-0.664113
0.989807
-0.556017
0.809503
0.602100
0.337748
0.449263
-0.818110
-0.284768
-0.876766
-0.731620
0.544481
0.123875
0.537034
0.721427
0.263100
-0.745293
0.725700
0.087680
0.340190
0.578234
-0.154820
0.197485
-0.608875
-0.071627
0.351665
0.808161
-0.233680
0.388470
-0.406171
-0.922117
-0.621326
-0.943968
0.767998
0.949828
0.802240
-0.000458
-0.700613
0.258705
-0.798395
0.717826
0.711417
-0.627308
-0.343120
0.417402
-0.954100
0.183020
-0.555406
-0.582446
-0.103488
-0.746574
-0.160741
-0.002350
-0.882076
-0.057283
0.996155
-0.002533
-0.726615
-0.688040
0.478866
-0.515122
0.883175
0.629872
0.994140
-0.198157
0.535691
-0.712088
-0.104282
-0.698172
0.925413
0.938414
0.020905
-0.908689
0.878048
-0.332682
0.420881
-0.912046
0.427290
-0.984558
0.548814
-0.293130
-0.995666
-0.340983
0.466720
-0.510910
-0.196692
0.563341
0.635304
-0.016327
0.385235
-0.578600
-0.152806
0.196081
0.582324
-0.809381
0.868465
-0.084445
-0.234046
0.538926
0.348247
0.234046
0.540452
-0.985900
0.562059
0.568834
0.924436
0.748466
-0.452071
0.501450
0.084017
-0.489792
-0.798883
-0.253822
-0.321451
0.916196
-0.112949
0.559008
-0.117649
0.616382
-0.862850
-0.098788
0.144566
0.263955
0.989013
-0.331095
-0.249611
0.082919
-0.466720
0.301981
0.244606
-0.154149
-0.769402
0.083834
0.781793
-0.925657
-0.440107
-0.554491
0.464278
0.274819
0.562059
0.586047
0.731376
0.021332
0.839656
-0.278481
-0.138951
-0.300760
0.577258
0.276223
0.648427
0.721549
-0.857112
0.326640
-0.678457
0.029450
-0.165563
0.612903
0.758965
0.691946
-0.666921
0.428388
0.069613
-0.585742
0.426130
-0.298746
-0.400983
-0.230018
-0.438093
0.579455
-0.576037
0.967650
-0.200537
0.832392
0.397198
0.965270
0.714835
0.381451
-0.193762
-0.254921
-0.173070
-0.728019
0.707511
-0.439131
-0.893918
0.399152
0.998657
-0.029572
-0.873836
-0.700064
-0.707877
0.465499
0.424421
0.324625
-0.348308
0.512314
0.630543
-0.501083
0.254555
-0.185705
0.927915
-0.608997
0.042207
0.610523
0.409284
0.293802
0.421857
0.821039
-0.110385
-0.963073
0.081027
-0.147069
-0.261818
-0.259682
-0.021943
-0.120884
-0.707083
-0.179540
0.570849
0.401837
0.419416
-0.435408
0.346477
0.913877
0.776605
0.582873
-0.286050
-0.529588
-0.647877
-0.548082
-0.677114
-0.016755
-0.169836
-0.136937
0.870296
0.049715
0.352886
-0.414106
-0.541856
0.130100
-0.760430
-0.438337
-0.435224
-0.115390
-0.774590
-0.562609
-0.309000
0.483383
-0.218055
0.854671
-0.254311
0.701041
0.081759
0.803827
0.231056
-0.390301
0.171300
0.357952
-0.707877
-0.318216
0.911863
-0.902158
0.691397
-0.884884
0.253700
0.541124
0.771966
-0.806146
0.404096
0.887082
-0.528611
-0.503464
-0.547411
0.391522
-0.550645
0.764580
0.015839
-0.317789
0.389935
0.243202
0.464278
0.328471
0.543260
-0.692068
-0.706534
-0.022980
0.567492
0.188391
0.202795
-0.632801
-0.265725
-0.398114
0.442854
-0.463118
-0.440352
0.110935
-0.004242
0.533006
0.923460
-0.985778
0.149449
-0.062105
-0.260475
-0.413190
-0.970763
0.525071
-0.760796
0.479415
0.648976
-0.643971
-0.069369
0.090732
-0.956481
-0.368999
-0.704093
-0.274880
0.047212
-0.393719
0.289834
0.347575
0.277871
-0.109653
0.701102
0.748894
-0.108982
-0.568529
0.439985
-0.066073
0.666250
-0.490951
0.813593
-0.455550
-0.012177
0.041597
0.852779
-0.870052
0.282571
-0.476608
0.751274
0.078646
0.476730
0.902707
-0.518357
-0.979308
-0.964171
0.713919
0.648854
0.517502
-0.851863
-0.224036
-0.355327
-0.152440
-0.384320
0.769768
0.165685
-0.296731
0.014557
-0.993225
-0.843074
-0.389935
-0.312479
-0.297647
0.243690
-0.119236
-0.869320
0.063997
0.713981
0.917539
-0.662160
-0.490036
0.114841
-0.326029
-0.336222
0.328593
-0.476058
0.090121
-0.230201
0.091403
-0.440535
-0.687613
0.213904
0.133091
0.191076
0.511093
-0.752007
-0.589953
0.413739
0.108127
0.384381
0.050508
0.847896
0.227760
0.294473
-0.091769
-0.672597
0.181860
-0.398053
0.433271
0.538499
-0.196631
0.133274
-0.829096
-0.228126
0.439741
-0.812860
-0.797479
-0.149022
0.418744
0.386517
0.840144
-0.702139
0.799921
-0.325297
-0.112827
0.800653
0.223426
0.019135
-0.221290
0.043367
0.669057
-0.616260
-0.087436
-0.037507
0.937803
-0.465621
-0.515427
0.491073
-0.331156
0.238014
-0.859920
0.854122
0.704154
0.419294
-0.245277
0.476730
0.612781
0.836482
0.655934
-0.431379
-0.811457
-0.160375
0.599231
-0.553453
0.732414
0.773309
-0.189917
-0.342570
0.932371
0.585742
0.405438
-0.034822
-0.846004
0.208411
-0.494308
0.262856
0.953612
0.267190
0.351848
0.473495
0.625538
0.687857
-0.262246
-0.498764
0.598743
-0.241249
-0.927671
-0.703665
-0.507614
-0.786370
-0.617481
-0.904538
-0.355754
0.895260
-0.429670
-0.099521
-0.075289
-0.435347
0.236427
0.258095
0.648061
-0.582995
0.382427
-0.597644
0.393719
0.866756
-0.695120
0.823847
-0.449019
-0.834773
0.992920
0.325846
0.397992
-0.587268
-0.658071
-0.367351
0.528733
-0.472701
-0.502548
-0.389935
-0.559618
-0.266701
-0.361248
0.162389
-0.907041
0.131993
0.517685
0.867306
0.254494
0.916684
-0.937010
-0.588366
-0.556749
0.794794
-0.635426
-0.109409
0.281106
0.179540
-0.652150
0.032563
0.068453
0.713431
0.453169
-0.588000
-0.605029
-0.313211
0.630909
-0.286294
-0.401898
0.912900
-0.033967
-0.890194
-0.118931
0.622486
-0.756523
-0.187170
0.904416
-0.059053
0.767876
0.866878
0.661550
0.509445
-0.250526
-0.760369
-0.546617
0.813288
-0.430830
-0.722037
-0.228187
-0.220008
-0.765374
-0.411298
-0.093234
-0.790948
0.340556
-0.591845
-0.912351
-0.403607
-0.154637
-0.477767
0.973388
0.916013
-0.023408
-0.199988
-0.698660
0.920774
-0.422040
0.402814
0.510544
0.525742
0.210059
0.731803
-0.851680
0.835566
-0.682302
-0.823786
0.876034
-0.620777
-0.224036
-0.274819
0.883969
0.114048
0.127781
0.504563
0.529405
0.762017
0.825495
0.303140
0.009796
0.040437
0.788507
0.148534
-0.116550
0.349590
-0.409833
-0.002533
-0.749626
0.480148
-0.413923
-0.399335
-0.593982
-0.097568
-0.704031
-0.392926
0.779839
-0.799738
0.352214
-0.032014
-0.028474
0.211829
-0.672781
-0.294717
0.697989
0.439924
0.752495
-0.895260
-0.537889
-0.705313
0.640919
0.398114
-0.242531
0.730338
0.826044
-0.004486
-0.380047
-0.160863
-0.569689
0.331645
0.340190
-0.034822
-0.225806
0.387555
-0.851863
-0.100253
-0.960326
0.950255
-0.316568
-0.278726
0.999939
-0.326029
-0.937437
0.842891
0.127781
0.004059
-0.642994
0.828486
-0.603748
-0.973449
0.293435
0.541917
-0.917905
0.306986
0.989502
0.189978
0.886288
0.778436
-0.463118
-0.177343
0.683096
-0.255531
0.244911
0.853023
0.211219
-0.943297
-0.643605
0.158727
-0.982116
0.531358
-0.950926
-0.671255
0.970336
-0.334208
0.534471
0.616565
0.644887
-0.280496
0.066622
0.162938
-0.090732
-0.780328
0.674184
0.051057
0.007111
0.955931
-0.573046
-0.244118
-0.540208
-0.474899
-0.949339
0.550707
-0.903073
-0.509751
-0.298624
-0.566942
0.528367
-0.785760
-0.287088
0.132969
-0.630177
0.432844
-0.870724
-0.234657
-0.464644
0.627491
0.834956
0.689627
-0.091708
0.262368
-0.905148
0.139134
-0.295938
-0.053743
0.317667
-0.818049
-0.163671
-0.416303
-0.146397
-0.423078
0.600024
0.575976
-0.359600
0.086154
0.983032
-0.864132
0.509018
0.807489
-0.080416
-0.221412
-0.037629
-0.911374
0.797052
-0.950255
-0.761101
-0.413800
-0.470443
0.555712
0.474288
0.031343
-0.489608
-0.644337
-0.227699
-0.734672
-0.244240
0.781121
0.999878
-0.893002
-0.447432
-0.258339
0.115635
0.614551
-0.077548
-0.416242
0.847530
0.304605
-0.785211
0.560900
-0.470443
0.890805
-0.858821
0.980651
-0.088168
0.104343
0.563768
-0.910337
-0.244545
0.159032
-0.650136
0.759453
0.025178
-0.576586
-0.394147
-0.964782
0.492050
0.862484
0.601978
0.611316
0.559069
0.811151
0.701407
-0.706473
-0.878353
0.642689
0.605518
-0.486190
0.276040
0.893918
-0.771722
-0.042940
0.687368
0.410016
0.512009
0.363933
-0.569018
0.071139
0.496567
-0.427473
0.118870
-0.335978
0.955809
-0.139683
0.122898
-0.539842
0.912046
-0.350932
0.709586
-0.936338
0.342753
-0.363445
0.896237
-0.908444
-0.609485
0.415571
0.843013
0.247719
-0.610218
0.644093
-0.407514
-0.645375
-0.977905
-0.171239
0.969237
0.904721
-0.086581
0.784356
0.452010
-0.307291
0.984741
-0.169042
0.831538
-0.906186
-0.130772
-0.207617
-0.534715
0.548204
0.708731
-0.142125
0.943052
0.814936
0.640797
-0.630787
-0.025361
0.558275
0.290567
-0.403424
0.313272
0.828608
0.578539
0.564745
0.525864
0.999878
-0.842830
0.992981
0.424421
0.726981
0.789300
0.410382
0.969420
-0.514878
0.979858
-0.490158
-0.541612
0.253700
-0.825312
-0.197668
0.812555
0.906858
0.838130
0.634816
0.773003
-0.125706
0.721061
0.633961
-0.179724
-0.366497
0.634327
-0.362224
-0.371380
0.596728
0.037507
0.178686
0.867611
0.954894
0.757195
0.579028
0.164830
-0.958739
0.145909
0.723014
-0.959655
-0.222999
-0.003937
0.566820
0.626942
-0.238868
-0.480758
0.449141
0.987365
0.567858
-0.294900
-0.734550
0.842463
0.812799
-0.628834
-0.432173
0.521531
0.552293
0.217200
-0.347026
-0.052217
0.576098
-0.805109
-0.298746
0.471847
0.157811
-0.492050
0.028779
0.364727
-0.175268
0.552171
0.515671
0.784539
0.709464
0.110019
-0.728202
0.027070
-0.953551
-0.887814
-0.395611
0.875057
-0.624683
0.276894
-0.651967
0.857051
-0.986389
0.941404
-0.379315
0.229163
-0.638173
-0.602893
-0.931578
-0.508042
0.603076
-0.958556
0.660268
-0.745109
-0.640919
-0.341777
-0.903256
0.260964
-0.133152
0.139378
-0.105686
0.384014
0.236122
-0.039033
0.207434
0.411237
0.352397
-0.274331
0.452254
-0.576708
0.986206
0.083346
0.793146
-0.415265
0.672597
-0.655934
-0.445296
-0.843379
-0.077853
-0.905515
-0.377117
-0.455123
-0.673391
0.130406
-0.103916
-0.804010
-0.878231
0.018952
-0.150243
0.152867
0.769768
0.601428
0.277383
0.083468
0.123142
0.750542
0.268593
-0.405622
0.733940
0.694021
-0.510788
-0.357463
0.869564
-0.783319
-0.176122
0.856258
0.798029
0.054537
-0.555406
-0.420209
-0.094516
0.792291
-0.632313
0.452681
0.208167
0.577441
-0.438520
0.336467
-0.178686
-0.036409
0.667226
-0.597827
0.947935
-0.805414
0.395856
0.189978
-0.050996
0.242836
0.662954
0.454024
0.058870
0.914304
0.524461
0.605335
0.307230
0.331767
0.976012
-0.435530
-0.789300
0.110263
0.677541
-0.162938
0.796747
0.535813
0.666555
-0.375958
-0.478439
0.060762
-0.878170
0.780450
-0.354350
-0.571703
0.241005
0.433332
-0.371563
0.737846
0.293191
-0.926878
-0.895077
0.764641
0.910398
0.929991
-0.992676
0.845943
0.679434
-0.553026
0.393414
0.645802
-0.902463
-0.334880
0.543931
0.111301
-0.046724
0.329264
-0.106784
0.933042
0.195715
-0.469832
0.353313
-0.178808
-0.645009
0.694327
0.595386
0.911618
-0.424482
0.733024
0.850826
-0.387616
-0.674673
-0.834834
0.794549
-0.795099
0.843501
0.024689
-0.927915
0.510849
0.388348
-0.634693
0.034822
-0.061434
-0.650746
0.176244
0.243507
0.220374
-0.716056
-0.480209
0.304910
-0.845698
0.944029
-0.295206
0.602344
0.661855
0.351238
0.307108
0.483383
-0.525559
-0.012299
0.850642
-0.532884
-0.237831
0.160741
0.960753
0.033845
-0.984558
0.607227
-0.196753
0.558275
-0.506394
-0.602344
-0.379437
-0.049287
0.552416
-0.795831
-0.821711
0.567736
0.162511
-0.005646
-0.065462
0.954100
0.932676
0.212622
0.744133
0.980041
0.948485
-0.486557
-0.089572
0.935179
0.740471
-0.893185
0.397931
-0.858028
0.693594
0.780450
-0.983215
-0.348430
0.210425
0.659230
-0.607105
0.583483
0.941221
0.766533
-0.464644
0.672903
-0.607959
0.448103
-0.185522
0.587451
-0.774712
0.721671
0.161962
0.575671
0.563463
-0.384564
0.306742
-0.989746
0.609363
-0.443098
-0.141881
-0.611316
0.895627
0.874935
0.049287
0.352397
-0.524705
0.477767
-0.046846
0.288797
-0.633534
-0.230628
0.983825
-0.922056
-0.436995
0.866573
0.495163
0.545518
-0.075167
-0.821039
0.290262
0.185888
0.258889
-0.584521
0.852779
-0.283120
0.904538
-0.921384
-0.886166
-0.970397
-0.864925
0.509507
0.566820
-0.905454
0.688467
-0.453719
-0.458480
0.387860
0.738884
-0.141270
0.451888
0.399091
-0.377300
-0.979675
-0.171789
0.784356
-0.368938
-0.618213
-0.052461
-0.274636
0.180517
-0.192419
-0.126255
0.058870
-0.324198
-0.661794
0.720450
0.737785
-0.623646
0.841060
0.949278
0.186926
-0.420942
-0.288491
0.515488
-0.884335
-0.569933
-0.312113
-0.326090
-0.649586
0.677969
0.841853
-0.742546
0.248634
0.680898
-0.192969
0.241127
-0.742119
0.979858
-0.691214
-0.597217
0.181677
0.751396
-0.943052
0.895505
-0.285318
-0.548814
-0.935606
0.540880
-0.189367
-0.038179
-0.546129
0.659108
0.443587
0.556871
-0.184179
0.245643
0.327555
0.993957
0.179113
0.308267
0.154759
-0.950987
0.658010
-0.822748
-0.084017
0.805048
-0.163060
-0.400006
0.866207
-0.993774
0.956725
0.433821
-0.303873
0.792291
-0.037080
0.748589
-0.525803
-0.877377
0.481368
-0.847652
0.920286
-0.793634
-0.219031
0.152074
0.573595
0.246803
0.787713
0.361248
-0.581835
-0.183935
0.211768
0.368999
0.527757
-0.829096
-0.149388
-0.919248
-0.707755
0.821955
-0.869808
0.344829
0.789483
0.669851
-0.052950
0.675649
-0.136998
0.020356
-0.126560
-0.111484
0.470687
-0.209754
0.788751
-0.544115
-0.135899
0.217872
0.998596
0.399274
0.163305
0.389569
-0.094943
-0.471236
0.888058
0.895138
-0.709708
-0.157262
-0.990905
-0.075106
0.275735
-0.099826
0.081149
0.120640
0.019318
-0.022065
-0.979675
0.492599
-0.786065
-0.173803
0.089084
0.715506
0.449263
-0.166540
0.649953
0.116672
0.498764
0.414838
0.252052
0.666799
0.595386
-0.565477
-0.388348
0.288308
-0.241859
0.477340
-0.949889
-0.208045
-0.768365
-0.220985
0.950804
-0.245094
-0.898251
0.630055
-0.201331
0.652944
-0.850826
-0.935728
0.364055
0.558885
-0.996094
-0.354411
-0.406476
-0.280007
-0.336528
-0.836055
0.770196
0.326884
-0.563952
-0.945067
-0.493698
0.786004
0.372723
0.353984
0.130161
0.808893
0.249855
-0.001617
0.029878
0.630299
0.165197
0.289468
0.517380
0.667287
0.809748
0.327555
-0.226539
0.932920
-0.522568
-0.768548
0.438276
0.515732
0.876217
-0.043245
-0.591906
0.438581
-0.198218
-0.476974
0.402326
0.208533
0.738029
0.464705
0.861934
-0.629139
0.444380
-0.683767
-0.257363
0.379437
0.595447
0.945921
-0.234657
0.095981
0.532823
0.548570
0.685904
0.230811
-0.807001
0.112278
-0.853328
0.037202
0.274087
-0.830744
-0.326884
-0.427351
-0.297830
0.644826
0.377117
0.838618
-0.537706
-0.383709
-0.070345
-0.888241
0.854183
-0.205054
-0.633900
-0.220618
-0.763421
-0.457381
-0.714469
0.990722
-0.677175
0.236427
0.006989
-0.562304
-0.911191
0.793023
-0.754082
-0.423139
-0.642384
-0.833613
0.871944
-0.395001
-0.878475
0.630177
-0.688711
0.501572
-0.333964
-0.342509
-0.842830
-0.550218
-0.444380
-0.788263
0.547899
-0.050874
-0.453230
0.259133
-0.121128
-0.068087
-0.511887
-0.683218
0.407819
0.195898
0.272317
0.848933
0.317850
0.466475
0.900327
0.322123
0.799554
-0.600696
-0.278054
0.734550
-0.284768
-0.162023
-0.084994
0.429121
-0.591968
-0.363018
0.264382
-0.994873
0.217627
-0.635548
-0.695059
-0.859981
0.265419
-0.804254
-0.109470
-0.867000
-0.927549
0.311380
0.250343
-0.015107
-0.429121
-0.889279
0.596789
-0.175085
0.073336
-0.444319
-0.653554
-0.502182
0.761223
-0.045503
0.016999
0.123814
0.255287
-0.499741
0.861873
0.443525
0.830988
0.875912
0.306192
0.760552
-0.159886
0.237342
0.245949
-0.705863
-0.096957
0.889218
0.272744
-0.244911
-0.568224
-0.036836
0.886898
-0.044343
0.048677
0.413495
0.761467
0.268410
0.461470
-0.358440
0.119297
-0.255715
-0.642018
-0.938780
-0.713797
0.703909
0.883236
-0.081454
0.482162
-0.386639
-0.739799
-0.322367
-0.086825
-0.941221
0.118992
0.285806
0.226722
0.629749
-0.906064
0.629627
0.392987
-0.473861
-0.745842
0.495224
-0.925962
0.700247
-0.072359
0.344890
0.544176
-0.654103
0.482772
0.222571
-0.776849
-0.451521
-0.370464
0.100925
-0.114414
-0.093173
-0.197424
0.981994
-0.391583
-0.058870
-0.811457
-0.935667
0.519333
0.097812
0.960936
0.289590
-0.592090
-0.835200
0.284097
-0.420454
-0.736442
-0.090365
0.649586
0.077914
0.800714
0.752373
0.106601
0.708060
-0.964660
0.286477
0.950194
-0.640309
0.974975
0.459578
-0.572192
0.017426
-0.516465
-0.772698
-0.970519
-0.857845
-0.614307
0.491684
-0.078890
-0.379559
0.871273
0.137730
0.085177
-0.409040
0.262673
-0.020051
0.731681
0.464156
-0.790887
0.431440
-0.459761
-0.555834
0.368023
-0.291787
0.297098
0.868770
0.637867
0.381512
0.489181
-0.323466
0.004059
-0.910520
-0.582629
-0.683035
-0.939024
0.222449
0.392682
-0.586596
-0.728507
-0.607532
-0.424482
-0.507126
-0.971984
-0.498642
-0.976562
0.094760
-0.423322
-0.781793
0.507553
-0.429060
-0.133152
0.679861
-0.338908
-0.110508
0.389752
0.226478
-0.976989
-0.244728
-0.933164
0.985107
-0.462264
0.359111
-0.747551
-0.887509
-0.924680
0.068514
0.911496
0.511887
-0.466903
-0.627796
-0.964232
-0.166540
-0.918027
0.391156
0.361309
0.574023
-0.880001
0.268227
0.448042
0.085177
0.494980
0.750114
0.186560
0.305765
0.559557
-0.728385
-0.207739
0.028352
-0.379254
-0.141758
-0.649709
-0.486373
0.346477
-0.844050
-0.025544
-0.734611
0.691214
-0.096591
0.640919
-0.222327
-0.095492
-0.842158
0.761162
0.067110
0.183264
-0.412824
-0.444990
-0.196692
-0.468429
-0.858821
0.287393
0.848933
0.389752
-0.585864
0.430403
-0.977416
-0.404645
0.011139
-0.185766
-0.102512
0.239296
-0.769036
-0.171484
-0.553758
0.978271
0.378094
-0.263100
-0.652455
-0.633045
0.015473
-0.832270
-0.235450
0.772881
-0.528123
0.842586
-0.591662
-0.565600
-0.084506
0.605884
-0.300455
-0.772576
0.305887
0.817866
0.839961
0.700186
0.538255
0.173009
0.606311
-0.059053
-0.909238
0.006989
-0.319926
-0.159948
-0.510910
0.154332
0.324381
-0.691458
0.899045
0.419355
0.220801
-0.982727
-0.839045
0.723014
0.279641
-0.783135
-0.421430
-0.012421
0.234596
0.203223
-0.226966
0.822932
0.835566
0.989319
-0.082919
0.075167
0.451399
0.747124
0.659963
0.301675
0.895138
0.581225
0.056124
0.234230
0.284951
0.196875
-0.189062
-0.707022
-0.247963
-0.974548
0.154820
0.213599
-0.190649
0.369182
-0.341105
0.850032
-0.807550
0.127720
-0.695547
-0.783807
-0.014252
0.669790
-0.880734
0.827754
-0.153478
-0.588672
0.692190
0.407392
-0.861263
0.663808
-0.120640
-0.983947
-0.209998
0.313456
-0.985107
0.672353
-0.316874
-0.103732
0.937193
-0.477584
-0.604297
-0.370586
0.144078
-0.376019
-0.899899
0.962157
-0.609485
0.404889
0.435224
0.208838
-0.961180
-0.139073
-0.835627
-0.173254
-0.523789
0.554430
-0.569811
0.900449
-0.089206
0.475204
-0.579821
-0.603931
-0.140904
-0.171606
-0.745659
-0.252480
0.637745
-0.190039
0.908383
0.337138
-0.829096
0.433027
0.984497
0.433393
-0.572314
-0.532517
0.142369
-0.851741
-0.200354
-0.444075
0.002533
-0.023530
-0.266701
-0.433149
-0.664724
-0.520676
-0.071627
-0.750481
0.346904
-0.324320
-0.584643
-0.748283
0.876278
0.702200
-0.175695
-0.436567
-0.686026
-0.694143
0.157384
0.448469
0.056856
-0.269082
0.378094
0.927488
0.309793
0.562914
-0.870663
0.873531
0.047945
0.092135
-0.107273
-0.215796
-0.048433
-0.240822
0.901975
0.291421
-0.874020
0.245277
-0.877438
-0.527879
-0.580676
-0.231117
-0.389447
0.022675
0.149937
-0.846980
0.562487
0.358318
0.057283
-0.776727
-0.630726
-0.298441
0.287332
-0.898495
-0.013215
-0.778924
-0.774407
0.955931
0.934996
-0.716178
0.991150
-0.229286
0.238563
-0.116916
0.401959
-0.301859
0.621570
0.304666
0.226478
-0.445357
-0.731620
-0.906186
-0.467269
-0.975707
-0.536241
0.386151
0.946898
0.131809
0.423750
-0.337260
-0.364849
-0.452864
0.631397
0.995605
-0.179113
0.285379
0.987793
0.841914
-0.351482
0.362896
-0.906858
0.453047
0.208777
0.973632
0.968505
-0.041353
-0.464339
-0.253090
-0.468795
0.189062
-0.610889
-0.349834
0.137852
-0.701285
-0.365154
-0.901364
0.504685
0.252724
0.035066
-0.165624
-0.679250
0.238990
0.261025
0.137303
0.864010
0.069246
-0.058748
-0.068636
-0.065767
0.630055
-0.442549
-0.653127
0.414960
0.447859
0.000214
-0.697134
-0.223670
-0.570788
-0.402448
-0.328410
0.832636
0.839778
0.428877
-0.412946
-0.934751
0.583422
0.736015
-0.538865
0.825678
-0.154393
-0.754875
-0.731010
0.728629
0.161718
0.210669
0.666189
-0.449812
0.973815
0.994751
-0.499008
0.941954
0.738517
0.994018
0.283364
0.273843
-0.352275
-0.272805
-0.826960
-0.081515
-0.974181
0.894650
-0.949217
0.289895
-0.535875
0.223121
-0.767083
0.947813
0.756951
-0.091098
-0.606433
-0.918577
-0.299539
-0.529893
0.256508
-0.315226
0.818171
-0.177465
0.618580
0.735282
0.073031
0.389813
-0.731864
-0.310892
0.632496
0.062105
-0.639760
0.605884
0.744621
-0.185888
-0.188757
0.213782
0.791986
-0.203528
-0.724296
0.229713
-0.417707
0.711905
-0.732047
0.244789
0.940855
0.288797
-0.009857
0.489364
0.665456
0.665639
-0.569872
0.789544
0.907956
-0.502548
-0.708121
-0.972900
0.043245
0.597888
0.319315
-0.583605
-0.910215
0.928282
0.578173
-0.090487
0.742851
-0.252297
-0.743095
-0.956420
0.083529
0.735405
-0.450117
-0.458724
-0.973266
0.897641
-0.815119
0.978210
-0.430769
-0.926572
0.157567
0.829157
-0.098849
-0.150304
0.235817
0.205359
0.443342
-0.301126
-0.204016
-0.403790
-0.126804
-0.847530
0.553331
0.927122
0.200964
-0.178564
-0.250099
-0.754082
0.959349
0.077364
0.362163
0.351726
-0.431013
0.205786
0.889523
-0.323832
-0.057466
0.845210
-0.711173
0.732597
0.388775
-0.476913
0.615101
0.443098
0.880734
-0.897153
0.931822
-0.342631
0.749077
0.952696
-0.946837
0.175451
0.864193
0.649892
0.681631
0.586901
-0.631397
-0.966796
0.501205
0.238624
-0.976623
0.414838
0.791498
-0.355510
-0.770745
0.765007
0.123020
0.648610
0.787164
-0.317911
0.697501
0.654897
0.458480
0.960570
-0.105502
0.236000
-0.610157
-0.431745
0.588794
0.433149
0.462325
-0.152867
-0.201636
-0.939756
0.629872
0.748772
0.228126
0.324076
-0.691763
0.917661
0.269814
-0.926389
0.877071
-0.565538
-0.978027
-0.009125
0.357891
-0.967589
-0.108310
-0.964782
0.330546
-0.401776
-0.659047
-0.545457
0.149937
0.771050
0.340007
-0.324870
-0.473373
-0.548631
-0.909848
-0.617176
-0.467208
-0.966857
0.578967
-0.891537
-0.903378
0.170324
-0.470687
-0.370769
0.047578
-0.108921
0.306375
0.499435
0.774651
0.873165
0.343242
0.022065
-0.439253
-0.309549
0.649159
-0.024812
-0.344707
-0.153905
-0.037935
-0.596423
-0.852840
0.402264
0.108371
0.790338
-0.298257
0.020356
-0.868282
0.919065
-0.777337
-0.775811
-0.245277
-0.259438
0.503220
0.698233
-0.265908
-0.444258
0.927000
0.432661
-0.326212
-0.172948
-0.716971
-0.469955
0.857234
-0.067965
0.756401
-0.516465
0.661367
-0.829890
0.156468
0.740593
0.115879
0.336467
0.446944
-0.635548
-0.831294
0.173864
0.638295
-0.394330
0.221839
-0.983215
0.106723
-0.803888
-0.501938
0.939512
-0.599170
-0.821345
0.803888
0.719230
0.599231
-0.916257
-0.752434
0.930113
-0.718314
-0.732963
-0.521470
-0.522996
-0.824335
-0.781182
0.007050
0.884335
-0.458480
-0.340800
0.170141
-0.349895
0.358135
-0.769524
-0.697012
0.980468
-0.628040
-0.399518
0.681143
-0.786187
0.072176
-0.212745
-0.206091
-0.749443
0.653371
-0.479659
-0.487411
-0.702078
-0.970275
0.448531
-0.284219
0.244606
-0.037568
-0.991455
-0.065767
-0.024018
-0.637928
-0.233985
0.577380
-0.055696
-0.169469
-0.958251
-0.695120
0.304117
0.502426
-0.364422
0.105258
0.927427
-0.749138
0.460311
-0.356975
0.610096
0.318583
-0.101474
0.439558
-0.218299
-0.563097
0.694510
-0.553392
-0.967406
-0.503708
-0.806635
-0.421186
0.769036
0.829707
0.741264
0.763848
0.310221
-0.828364
0.057222
0.075777
-0.260781
-0.644093
0.390851
-0.486984
0.820307
-0.186132
0.277444
0.982360
0.294595
-0.064302
-0.296793
-0.946654
-0.131809
-0.641713
0.493332
-0.955199
0.203406
-0.759636
0.734733
-0.994995
-0.773553
0.589282
0.047334
-0.850337
0.064425
-0.299661
-0.485458
-0.680654
0.923582
-0.227271
-0.913022
0.018525
0.220862
0.762810
0.271340
-0.400494
-0.716849
0.539048
0.916379
-0.846614
-0.075838
-0.600452
-0.090182
-0.329630
-0.786737
-0.984008
0.597461
-0.967895
0.748527
-0.134922
0.737297
-0.600940
0.745170
0.211463
-0.198157
0.553941
0.254433
0.703848
-0.559862
-0.234535
-0.177648
-0.353679
-0.087436
-0.265786
-0.096713
-0.991394
0.310648
-0.817866
-0.660268
0.237037
-0.624928
-0.349773
-0.778985
-0.071871
0.723136
-0.935179
0.433027
0.428877
-0.700735
-0.363628
0.212439
-0.575365
0.860897
0.652821
0.016999
-0.421796
-0.688955
-0.270547
0.024995
0.282022
-0.307474
-0.920896
0.575426
0.585864
-0.346538
0.363872
-0.136814
-0.636525
-0.801263
0.691092
0.199561
-0.220496
-0.461165
-0.682913
0.152379
0.119541
0.848750
-0.379925
0.877377
0.046602
-0.250221
-0.095065
-0.046968
0.345378
0.326640
-0.397443
-0.967345
-0.782647
-0.508713
0.426801
0.624622
-0.810785
0.508408
-0.950072
0.314188
-0.302652
-0.508103
0.861202
-0.260292
-0.590136
0.688101
-0.631092
0.634449
-0.649586
-0.644642
0.810663
-0.751946
0.884396
0.054659
0.531968
-0.541002
-0.368572
-0.837703
0.697562
-0.109165
-0.633900
-0.581713
-0.102634
-0.654592
0.969237
-0.678274
0.208960
-0.135594
0.492538
-0.812983
0.279946
-0.267556
-0.600818
0.672475
-0.007782
-0.265481
-0.957274
-0.406415
-0.729057
0.979003
0.446394
0.835017
0.600269
-0.399640
-0.554186
-0.828486
-0.191321
0.653005
0.258095
0.812738
0.686697
0.508713
-0.461959
-0.517991
-0.001434
0.070956
-0.013398
-0.156285
0.451399
0.117893
-0.428877
0.090426
0.183630
-0.913388
-0.577624
0.502304
0.335673
0.611805
0.469771
-0.207251
-0.735221
-0.869930
-0.123447
0.050447
0.967528
0.864071
-0.660451
0.092380
0.271096
0.496994
0.313700
0.039399
0.357158
0.852107
0.225074
0.926572
-0.819941
-0.112461
0.734916
0.161412
0.342082
0.321085
0.117038
0.642689
0.988098
0.195471
0.810419
0.351054
0.282510
-0.301859
0.210791
0.225440
-0.969420
0.547227
-0.237587
-0.863094
0.006745
-0.743645
0.413739
-0.227210
-0.447554
0.591052
-0.501938
0.243202
0.006378
0.528794
-0.896725
-0.777032
-0.471664
-0.964232
0.991943
-0.558824
0.881588
-0.027497
0.134617
-0.669240
-0.267129
0.440352
-0.080844
-0.349223
0.036470
0.882809
-0.901608
0.894162
-0.938963
0.252419
-0.461837
0.292276
-0.375347
-0.442854
0.828974
0.230873
0.098666
0.097751
0.823359
0.887570
-0.255898
-0.290750
0.161596
0.905148
-0.057649
-0.681021
-0.152013
0.912107
0.882748
-0.866817
-0.059297
-0.296121
0.270058
0.765130
0.417158
-0.103793
-0.386334
0.617359
0.277688
0.863765
0.661428
0.830134
-0.049715
-0.223365
-0.459456
-0.891354
-0.941710
0.547105
-0.832026
-0.257851
0.614246
-0.501694
-0.507187
-0.873592
-0.298868
-0.430952
0.133457
0.102878
-0.294107
-0.134312
0.971252
0.426740
0.164830
0.374004
-0.735832
-0.323832
-0.714774
0.644398
0.842708
-0.083956
-0.794000
0.261757
-0.050691
0.427290
-0.942137
-0.087130
-0.713919
-0.184301
-0.112400
0.864620
0.831172
-0.188025
0.507981
-0.336161
0.987426
0.075716
0.335856
-0.126438
0.625599
0.315714
0.281106
-0.344157
-0.415143
-0.960936
-0.251259
-0.984741
0.192236
-0.757744
0.817011
-0.485031
-0.635426
0.355449
-0.346416
0.278054
-0.145177
0.753410
0.232521
-0.913877
0.205542
0.145543
0.414838
0.388897
-0.028474
0.157262
-0.545824
-0.965026
-0.224952
0.415082
0.991882
-0.460189
0.755242
0.448103
0.601306
-0.300760
0.974303
0.718863
-0.053072
0.364605
-0.656178
-0.905148
0.618336
0.190100
0.633045
0.074740
-0.297220
-0.834895
0.120762
-0.919614
0.158361
-0.255715
-0.544420
-0.872066
0.050691
-0.611927
0.284890
0.190588
-0.284768
-0.674734
-0.784234
0.564806
0.908017
-0.648549
0.671255
0.553392
-0.993164
-0.525315
-0.797662
-0.222999
0.326273
0.221290
-0.178930
0.427717
-0.392315
0.414411
-0.085849
-0.224342
-0.251320
0.237892
-0.697806
0.242836
0.831904
0.397565
0.005585
0.355266
0.518296
-0.807306
0.279580
0.887082
0.865719
0.310404
0.481979
-0.492111
-0.364483
-0.845271
-0.664968
0.247169
-0.849422
0.523911
0.144627
-0.912900
0.766106
-0.552843
-0.461653
-0.002777
0.016083
-0.004975
0.286538
0.722282
0.498825
-0.126194
0.766961
0.637623
-0.437788
-0.381390
0.637196
-0.017731
-0.146641
0.195898
-0.723746
0.784295
-0.207190
-0.171117
0.558336
0.789727
-0.961791
-0.141697
0.520676
0.707816
-0.002045
0.450728
-0.510910
0.085299
-0.541612
-0.033479
-0.777154
0.122166
-0.613147
0.801569
0.641285
0.741325
0.973144
-0.487167
0.694998
0.224219
0.971007
0.042817
-0.055391
0.726188
0.403974
-0.146886
-0.591601
-0.017609
0.696341
-0.218543
0.242347
0.518235
-0.707694
-0.566637
0.814447
0.675954
-0.173376
0.921690
0.736259
0.769951
0.907529
0.766228
0.414106
0.684011
0.576159
0.766106
-0.317972
0.221900
0.504257
-0.342631
0.079134
0.524644
0.992248
0.367840
0.334696
-0.133213
0.830805
0.682546
-0.378216
0.143895
-0.911618
0.131687
0.143895
-0.636219
0.886715
0.913633
-0.384747
0.454817
0.227027
-0.334208
-0.801019
-0.297830
-0.069674
-0.104526
-0.535875
-0.873531
-0.247780
-0.116611
-0.075167
0.115635
0.737114
-0.127598
0.724601
0.623402
0.872494
-0.646046
0.026582
-0.753533
0.106967
0.264687
-0.325358
0.493942
-0.206275
0.905332
0.685232
0.559374
0.622486
0.395245
-0.865352
-0.089938
0.101962
0.474654
0.002960
0.005463
-0.343730
0.466231
-0.462508
0.456038
0.396161
0.210425
-0.301553
-0.063204
-0.370769
0.785333
-0.751091
-0.832698
-0.829096
-0.176061
-0.947996
-0.730094
-0.481857
-0.757439
0.137791
-0.179846
0.949644
0.190710
0.101291
-0.099765
-0.386517
-0.963073
0.396466
0.470077
-0.333232
-0.797906
0.086032
-0.634083
-0.472823
0.652699
0.611255
-0.758599
-0.698660
-0.133030
-0.856197
-0.238014
-0.549303
0.086093
-0.917661
0.366008
-0.240944
0.663076
-0.744682
0.904538
0.662526
-0.678152
0.394513
0.472579
0.005646
0.138829
0.439436
-0.255531
-0.713981
-0.940123
-0.762810
-0.874569
0.449324
-0.235206
0.198706
0.032014
-0.702445
-0.308267
-0.525071
-0.385968
0.573778
-0.964965
0.214698
0.230384
0.784051
0.527146
0.467574
-0.008576
-0.178991
0.819086
0.293191
-0.320048
-0.549425
-0.729484
0.640675
0.363872
-0.275918
0.963073
-0.440474
-0.987609
-0.621204
-0.252174
0.305704
0.429487
-0.710196
0.141636
0.904050
0.814875
-0.965819
-0.117283
-0.269448
-0.732292
-0.368145
-0.040681
0.677114
0.543626
0.524155
-0.076571
0.459761
-0.622059
-0.146641
-0.697867
-0.365215
-0.311441
0.105625
0.919248
-0.115513
0.969054
0.179601
0.939207
-0.866085
-0.813044
-0.056795
-0.553148
-0.936583
0.497848
0.341227
0.374187
0.577441
-0.912107
-0.883480
0.587390
-0.207190
-0.541185
-0.793329
0.946959
0.109714
0.465865
-0.121311
-0.847591
0.926511
-0.577319
-0.334880
-0.814875
0.561998
-0.414960
-0.836787
-0.839106
-0.053194
-0.674245
0.759514
0.405683
0.647511
0.313578
-0.657155
-0.434248
-0.215674
-0.991211
-0.931211
0.566393
-0.593127
0.787286
0.236488
0.230079
0.888607
-0.993835
-0.658437
0.367534
-0.096408
0.323771
0.367595
0.154027
0.548143
0.585070
0.378033
-0.396771
0.168920
0.586840
-0.528428
-0.048738
-0.539048
0.034150
0.163366
-0.236671
-0.602466
-0.999878
0.254128
0.575671
-0.445235
-0.796991
0.250465
0.884823
-0.607044
0.411420
-0.601611
0.297586
-0.942503
0.291177
-0.607532
0.653188
-0.737663
-0.993530
-0.176611
-0.069369
0.817194
0.887020
0.426008
-0.245766
-0.637684
0.473617
0.191321
0.308329
-0.127354
-0.743339
0.403546
-0.524400
0.494064
0.417035
-0.334269
0.010285
0.273782
-0.116245
-0.023530
-0.441572
0.348552
-0.978637
-0.080782
-0.660756
-0.848384
-0.742363
0.027985
0.298502
-0.797906
-0.034211
0.391095
0.547349
0.038911
-0.087069
-0.444319
0.898373
0.861507
-0.412336
0.795526
0.312601
-0.559679
0.718619
0.804621
0.068392
0.859310
0.297159
0.879025
0.465865
0.652699
-0.583300
-0.350383
0.878780
-0.100742
0.240761
-0.571764
0.966918
0.835505
-0.588122
-0.771111
-0.139256
0.551561
-0.784356
0.528306
-0.868648
-0.669057
0.809992
0.826228
0.358379
-0.801874
0.833857
-0.930113
-0.892819
-0.765374
-0.292581
0.003754
0.129978
-0.771905
0.935972
-0.492416
-0.399030
0.215491
-0.269814
-0.014618
-0.800226
-0.517075
0.255531
-0.132542
-0.145177
0.586169
-0.177221
0.288858
-0.040559
-0.048311
-0.667165
-0.995117
-0.127110
0.623585
0.287515
0.609119
-0.480514
0.716544
-0.320658
-0.887448
0.897702
-0.861019
-0.926756
-0.049165
0.311319
0.147984
-0.808649
-0.522141
0.136876
-0.701529
0.314798
-0.988586
0.938047
0.350200
-0.185766
-0.508774
-0.260109
-0.306864
-0.878292
-0.186377
-0.723319
-0.143834
-0.543443
0.903623
0.024140
0.659352
0.617542
0.588427
-0.170446
-0.426618
0.154088
-0.665822
0.952147
-0.150853
-0.771294
-0.092074
-0.674306
-0.021332
0.483749
-0.971435
-0.142735
-0.949278
0.223853
0.068148
0.572497
-0.436079
0.227943
0.866512
-0.578661
0.258522
-0.497543
-0.278298
0.557237
0.531175
-0.711661
-0.380779
-0.099765
0.993469
-0.365520
-0.239174
0.798822
-0.262123
0.850215
0.457869
-0.398968
0.873470
0.148900
0.449873
-0.050935
0.892575
0.796075
0.711051
-0.391644
-0.566332
0.072970
-0.191565
0.644642
-0.000336
-0.629810
0.872616
0.761040
-0.803156
0.721488
-0.755852
0.608081
0.055208
-0.907529
0.859371
0.878536
-0.006439
0.735405
0.435347
-0.000092
0.991882
0.922544
-0.480697
0.237587
0.532579
-0.628651
-0.536302
-0.980163
0.874569
0.673635
-0.611072
-0.701224
-0.778924
0.040498
0.197607
-0.241493
0.345439
-0.323038
0.701407
0.683279
0.235206
0.097507
0.924436
0.298929
0.319437
-0.304483
0.644093
-0.601062
0.839961
0.879757
0.233558
-0.931822
0.929563
0.088412
-0.133396
-0.682791
-0.040010
-0.003754
0.149266
-0.561144
-0.278054
-0.775567
0.238624
-0.100192
-0.000458
-0.132908
0.513413
0.580615
-0.898373
0.146825
-0.142674
-0.825129
-0.086947
0.511887
0.618336
0.561937
-0.972533
0.486740
-0.694143
0.963988
-0.474837
0.589404
0.089511
-0.298624
0.957579
0.627552
-0.839595
0.358135
-0.898679
0.686209
-0.981384
0.169469
-0.955382
0.118931
0.748772
-0.554918
0.167882
0.856014
-0.653798
-0.160070
0.581347
0.340861
0.157323
-0.714774
-0.417463
0.408551
-0.505600
0.391644
-0.304544
-0.582324
-0.510300
0.138462
0.854549
-0.051119
0.249916
-0.340251
0.295267
-0.617725
-0.626087
-0.059175
0.715079
-0.333842
-0.103305
0.237587
0.265053
-0.410077
0.720695
-0.969237
0.937620
-0.127171
0.598926
0.328043
0.910031
0.382488
-0.269265
-0.874020
-0.591906
-0.206214
0.033662
0.845271
-0.348064
-0.997436
0.153172
0.550035
0.445540
0.605274
0.273721
0.766045
-0.025605
-0.242653
0.792779
-0.291665
0.371868
0.723869
-0.079501
0.731559
0.617969
0.432844
0.268166
0.815607
0.332560
-0.654042
-0.513230
0.898862
0.025605
0.957884
-0.980529
-0.128330
0.366985
0.236488
0.029511
-0.957701
0.038057
0.318094
0.566271
0.888424
0.728507
-0.232154
-0.967467
0.905515
0.839106
-0.279885
0.015046
0.366314
0.455061
-0.790643
-0.460189
0.802362
-0.849300
0.005646
-0.182531
0.020722
-0.810846
-0.733940
0.537706
0.468917
-0.321390
-0.684561
0.777947
-0.241066
0.248512
0.867977
0.587878
0.165075
-0.192541
-0.996765
0.311441
0.906247
0.946104
0.208716
0.710562
0.025910
-0.453841
-0.199744
-0.048616
-0.317301
0.160497
0.035249
0.516892
-0.336833
0.723258
0.228736
0.107395
0.929930
-0.843623
-0.813654
-0.408124
0.017182
-0.567919
-0.733757
0.073031
0.087130
-0.345134
0.382061
0.127293
-0.541917
-0.273782
-0.740104
-0.716178
-0.581713
-0.846675
0.262368
0.804254
0.137486
0.564928
-0.909848
-0.175024
0.488205
-0.503586
-0.323344
-0.073641
0.590075
0.007904
-0.415021
0.189123
0.889279
0.695730
0.222571
-0.197729
0.585253
0.661489
-0.816095
0.284097
-0.781854
0.000580
-0.964904
0.378643
0.228492
0.373028
-0.147801
-0.309122
0.302103
0.218116
-0.174291
0.122715
-0.687063
0.176916
-0.755425
-0.828547
0.675771
-0.716361
0.171178
0.155492
0.921384
-0.510483
-0.880184
-0.573534
0.307535
-0.919065
-0.947081
-0.365825
-0.722953
0.554735
0.004425
-0.896970
0.576220
-0.487289
0.646046
0.385418
-0.154149
0.138890
0.106662
0.052644
0.497604
-0.179479
0.358196
0.787530
-0.312296
0.476547
0.480819
-0.160985
-0.799005
-0.844478
-0.881222
0.903928
0.057955
-0.534471
0.441267
-0.504257
0.655873
0.398663
-0.081881
0.865474
-0.740898
0.112339
-0.773736
0.534349
0.648183
-0.769280
0.596179
0.503525
-0.257607
-0.772576
-0.087497
-0.798395
0.007233
0.453169
0.881893
0.232765
-0.540696
-0.629566
-0.421430
-0.011750
0.082064
-0.442183
-0.317728
-0.816156
-0.536851
0.045747
-0.280496
0.385723
0.468001
-0.452376
0.621387
0.586413
-0.239601
0.147374
0.910581
0.894772
0.983398
-0.993225
-0.170751
0.401532
-0.587268
-0.345195
-0.278603
0.282876
-0.104099
-0.578722
-0.018830
-0.794916
0.888241
0.577990
-0.119785
0.092257
0.399396
-0.251198
0.586657
-0.679922
0.662893
-0.847530
-0.312418
0.397626
-0.659902
0.239357
0.528428
-0.800226
0.072481
-0.714774
-0.319254
0.813837
0.193640
-0.494552
0.851741
-0.939756
0.413984
-0.750359
0.547533
0.753899
0.291116
0.842586
-0.196936
-0.236549
0.297037
-0.369243
-0.709525
0.936827
0.296121
-0.200720
0.119480
0.949828
-0.754509
0.520676
-0.359111
0.145177
-0.069124
0.997742
0.567553
0.421064
-0.450667
-0.035981
0.722953
-0.766717
-0.046785
0.203650
-0.267556
0.773370
0.365764
-0.346965
-0.032441
0.384625
0.382733
-0.352824
0.057039
-0.720450
0.071017
-0.126926
0.276711
-0.380108
0.977783
0.592639
0.130894
-0.977355
0.861995
-0.302347
-0.562609
0.554796
-0.038545
-0.840815
-0.770684
-0.722037
-0.392560
0.434126
-0.214393
-0.592334
0.998962
-0.608997
0.102695
-0.853450
0.950255
0.318583
0.120579
-0.742363
0.423261
-0.422224
0.015046
0.437483
0.658010
0.461653
-0.131382
-0.447737
0.712455
-0.175451
0.033479
-0.199133
-0.774468
0.043306
-0.502609
0.865108
0.215674
0.872738
0.567186
0.110935
-0.274148
0.758538
-0.820185
0.903867
-0.869869
0.169652
-0.843623
-0.901547
-0.088107
0.512436
-0.291665
-0.231971
-0.272378
-0.810480
0.511582
-0.766350
0.568224
0.365764
-0.341411
0.457015
0.830683
0.003449
0.802362
0.859188
0.112217
0.729972
0.803949
0.627430
0.539537
-0.900388
0.196631
0.572741
-0.554003
0.812738
-0.220801
-0.398907
-0.791314
0.453963
-0.350200
0.859981
-0.941954
-0.686880
-0.005097
0.623280
0.673269
-0.149876
-0.056429
0.977355
0.374371
0.367107
-0.198706
0.369854
-0.274453
0.450056
0.975097
-0.915281
-0.639760
0.742546
0.902280
-0.294534
-0.158116
-0.386029
-0.703970
-0.371319
0.371990
0.284768
-0.980407
-0.308512
-0.841182
0.971129
-0.098117
-0.025422
0.258278
-0.388165
0.807062
0.843379
0.700064
-0.260231
0.270547
0.290017
0.711783
-0.940123
-0.985961
-0.361187
0.852657
-0.702383
0.651784
0.677358
0.870663
0.878353
-0.099582
0.275674
0.093844
-0.997986
0.606128
-0.443403
0.170263
0.675100
0.899777
-0.320719
-0.032563
-0.739372
-0.206091
-0.701834
-0.555345
0.112217
0.533860
-0.239235
0.310526
-0.148900
-0.985595
-0.894223
0.278115
0.851009
0.576769
0.924680
0.730033
-0.507981
-0.504990
-0.850887
0.606677
-0.252785
0.468795
0.826655
0.329081
0.662954
0.430036
-0.053133
0.569811
-0.703360
-0.019501
0.381451
-0.316263
-0.325480
0.769768
0.999329
0.611866
-0.669729
0.126926
-0.979369
-0.930418
-0.010712
-0.740226
0.671255
-0.166295
-0.040498
0.331523
-0.799554
0.938292
0.791620
0.730033
-0.675222
0.594287
-0.228370
-0.159825
0.159703
0.643849
0.807917
0.633473
-0.297708
-0.637928
-0.724967
-0.614490
0.927366
-0.580370
-0.622608
-0.164342
0.558885
-0.183020
-0.405316
-0.899472
0.580432
-0.395306
0.772088
-0.346538
-0.454512
0.201270
0.417219
0.683279
-0.248085
0.120396
-0.232948
-0.855831
-0.658376
0.921873
-0.813715
-0.189856
-0.611377
0.196753
0.460982
0.644765
-0.961791
0.401288
-0.451827
0.800775
0.758843
-0.650624
0.346294
-0.439375
0.770379
-0.820368
-0.953429
-0.468673
0.710135
-0.394208
-0.370464
0.405072
-0.399945
0.266091
0.068392
0.599170
0.177160
-0.017975
-0.198279
-0.912229
0.649281
-0.259804
0.038789
0.736564
-0.060274
-0.790887
-0.541490
-0.545457
-0.517563
-0.396344
0.866573
0.474837
-0.369610
0.709891
-0.629261
0.075961
-0.260353
0.882076
-0.360454
0.058443
-0.007782
-0.174657
0.804437
-0.713614
0.019074
0.975951
0.569750
-0.390912
0.386761
-0.708853
-0.908567
0.473312
0.009919
-0.737297
0.188757
-0.460250
-0.448286
0.964537
0.449568
-0.383892
-0.124607
0.948485
-0.206824
-0.781304
-0.391156
-0.199622
0.052828
-0.924558
0.885372
-0.831294
-0.860347
-0.116489
-0.678152
0.078219
-0.648122
-0.367901
-0.700919
-0.659047
-0.609546
-0.194678
0.603931
-0.121555
0.644520
0.775933
-0.501694
-0.234596
-0.691336
-0.297281
0.275857
-0.190832
0.895444
-0.754814
0.369793
0.477035
0.703543
0.405927
-0.926389
-0.017304
0.807062
-0.184484
0.938292
0.346904
-0.874447
0.770745
-0.093539
-0.758171
-0.860408
0.339030
-0.750847
0.434004
-0.187597
-0.157384
-0.635731
0.636891
0.281655
-0.966918
0.501633
-0.413556
0.883419
-0.729179
0.475936
-0.848201
-0.929991
0.019929
0.431013
0.293374
-0.214454
-0.027436
0.716666
-0.318827
0.860469
-0.885006
-0.058077
0.786187
0.988464
-0.953307
-0.733940
-0.743767
0.847774
-0.133274
0.991028
-0.609668
0.929685
0.938292
-0.483993
-0.477950
0.636280
-0.154881
-0.280374
-0.873104
0.210303
0.852046
0.828242
-0.536363
0.059847
-0.818964
0.836909
0.564074
-0.960265
0.417158
-0.457747
0.382611
0.252663
-0.644826
-0.747734
0.918638
-0.068209
-0.399335
-0.766778
-0.876156
-0.030976
0.237159
0.958556
-0.592395
-0.350871
0.872066
0.219764
-0.447920
-0.845943
-0.625538
-0.835566
0.850093
0.399152
-0.383282
0.321512
0.278298
-0.236183
-0.468184
-0.322245
-0.481918
0.279214
0.800714
0.867428
0.636341
-0.164342
0.479965
-0.462264
-0.761101
0.971801
-0.115696
-0.047029
0.909604
0.808588
-0.965331
0.898434
-0.253761
0.689932
-0.013764
0.948607
0.807489
0.093417
-0.653737
0.160863
-0.718253
0.372417
-0.702261
0.257057
0.191931
0.893368
-0.561998
0.356426
-0.553087
-0.870724
0.746757
0.321390
0.054109
-0.726005
-0.004303
0.779412
0.304178
0.937071
-0.088351
-0.117222
-0.259133
0.484054
-0.593554
-0.130284
-0.271157
0.583850
-0.814386
-0.511765
0.431318
0.525071
-0.951903
-0.653981
-0.989563
0.864986
0.190588
0.248634
0.863338
0.972350
0.827754
-0.411786
0.704581
-0.971923
0.441328
-0.153844
-0.689688
-0.955199
0.971191
0.270547
0.734062
0.468673
0.259438
-0.207373
-0.192358
0.925718
0.061861
0.243995
0.740715
-0.324931
-0.062471
-0.063204
0.629139
0.332377
-0.669912
0.669668
0.687063
0.424116
-0.846858
0.222449
-0.986389
0.337260
-0.808283
-0.598987
-0.292398
-0.773980
0.632984
-0.303873
0.141820
0.437605
0.037751
0.617237
-0.789422
0.020295
0.066866
0.765130
0.362407
0.876095
-0.727165
-0.294595
0.229591
0.120457
0.271706
0.704947
0.669057
0.211097
0.604846
-0.606006
-0.975219
-0.590320
-0.394208
0.417341
0.426557
0.136998
-0.416669
-0.864864
0.934935
0.786126
0.632801
0.438215
-0.652211
-0.445662
-0.610645
-0.262123
0.478561
-0.142064
-0.964537
0.195227
-0.280007
-0.109470
0.873959
-0.749565
-0.294229
-0.110935
0.780450
0.515732
0.881588
-0.330424
0.847407
0.093722
0.799738
-0.005890
-0.468490
-0.615467
-0.051729
0.332987
0.618213
-0.556566
0.928159
0.583789
0.314188
0.951781
0.790155
-0.690298
0.782342
0.863460
-0.655019
0.060335
-0.570421
-0.209510
-0.742058
0.336589
0.262062
-0.811762
0.741997
0.762810
0.618580
0.404950
0.659841
-0.971435
-0.404645
0.656056
0.850093
0.162206
-0.524400
-0.012116
-0.512558
-0.300821
0.474471
0.291177
0.291177
-0.692923
0.113254
0.428632
-0.606861
-0.569323
-0.464644
0.537461
0.679556
0.518601
0.075716
-0.429060
-0.583789
-0.605518
0.396771
-0.859615
0.973449
0.335856
-0.496750
-0.279397
0.459334
-0.578600
-0.051119
0.280679
0.076815
-0.288614
0.546129
-0.596484
0.015351
-0.178014
0.893002
0.956297
-0.309488
-0.543504
-0.971435
0.373272
-0.856319
0.456832
0.530015
0.615772
-0.585742
0.936216
0.363140
-0.130955
-0.302835
-0.943113
-0.200110
0.040986
0.097995
0.014863
-0.285623
0.123447
-0.201819
0.793878
0.570544
-0.520188
-0.556749
0.251564
0.413373
-0.879696
-0.434431
-0.899716
-0.823115
0.028962
-0.144749
-0.655019
0.621143
0.602588
-0.908994
-0.259804
0.209998
0.266884
0.543931
0.829402
0.243446
-0.670156
0.665822
0.129002
0.556017
0.136570
-0.124180
-0.980834
0.094272
-0.413434
-0.743034
-0.095737
-0.314554
0.078158
-0.024628
-0.795099
-0.689810
0.939634
-0.765618
0.745659
0.191992
-0.587878
-0.423139
-0.901914
-0.985534
-0.754082
-0.653005
-0.554674
0.581713
-0.028230
-0.874447
-0.473312
0.230811
0.910947
-0.050508
0.228492
0.312113
0.986206
0.129673
0.380596
0.047578
0.395672
0.478744
0.323405
-0.918882
-0.787103
0.761528
-0.193518
0.032197
0.975036
-0.819514
0.781793
0.366375
0.321146
-0.290689
0.653798
0.894650
0.745293
-0.914060
0.549303
-0.786065
-0.476119
0.278909
0.169347
-0.598193
-0.117771
0.238258
-0.214515
0.277566
-0.538560
0.744865
0.943175
-0.458296
-0.851192
0.169042
0.434553
0.107761
-0.666128
0.952513
-0.896481
-0.062838
-0.347209
0.625050
0.045320
-0.309122
-0.716300
-0.830866
-0.237526
-0.489853
-0.145116
0.544664
0.841609
-0.761895
0.029145
-0.814142
-0.289163
-0.604236
-0.173681
-0.715567
0.042695
-0.775567
-0.253517
-0.330973
-0.636280
-0.893612
0.756706
0.095920
-0.566454
-0.322062
0.203162
-0.238319
-0.043977
0.945555
-0.288125
-0.148350
0.185034
-0.281289
0.140355
0.935362
-0.012726
0.672109
-0.358196
-0.977660
0.924375
-0.651967
-0.093905
-0.908689
0.917356
0.414289
0.638234
-0.096896
-0.944700
-0.512864
-0.662160
0.912656
0.111545
-0.166051
0.442427
-0.910031
-0.671316
